svm_type c_svc
kernel_type rbf
gamma 0.03125
nr_class 2
total_sv 196
rho -0.27762271348666601
label 2 1
nr_sv 135 61
SV
1.0621652580343557 1:-0.990566 2:-0.981308 3:-0.605769 4:-0.231579 5:-0.98995 6:-1 7:-1 8:-1 9:-0.987952 10:-0.680365 11:1 12:-0.978378 13:-0.925926 14:-0.966102 15:-1 16:-1 17:-0.744681 18:-0.97546 19:-1 20:-1 21:-0.976879 22:-0.966102 23:-0.938931 24:-0.659574 25:-0.830986 26:1 27:-1 28:-1 29:-1 30:-1 31:-1 32:-1 33:-0.744966 34:1 35:-0.977143 36:-1 37:-1 38:-1 39:-1 40:-1 41:-0.967742 42:1 43:-0.685535 44:-1 45:-1 46:-1 47:-1 48:-1 49:-1 50:0.556757 51:-0.384615 52:-1 53:-1 54:-1 55:-1 56:-1 57:-0.911111 58:1 59:-0.748571 60:-1 61:-1 62:-1 63:-1 64:-1 65:-0.913043 66:1 67:-0.812081 68:-1 69:-1 70:-1 71:-1 72:-1 73:-0.893805 74:1 75:-0.85 76:-1 77:-1 78:-1 79:-1 80:-1 81:-0.92233 82:0.958848 83:-0.972973 84:-1 85:-1 86:-1 87:-1 88:-1 89:-0.836735 90:1 91:-0.883041 92:-1 93:-1 94:-1 95:-1 96:-1 97:-0.948718 98:1 99:-0.169591 100:-0.990148 101:-0.972093 102:-0.881356 103:-0.986486 104:-0.993884 105:-0.52439 106:-0.555556 107:-0.918129 108:-0.973154 109:-1 110:-1 111:-1 112:-0.986842 113:-0.961538 114:1 115:-0.0175439 116:-0.989071 117:-0.90566 118:-0.935484 119:-1 120:-1 121:-0.791667 122:1 123:-0.906433 124:-1 125:-1 126:-1 127:-1 128:-1 129:-0.90303 130:1 131:-0.94152 132:-1 133:-1 134:-1 135:-1 136:-1 137:-1 138:0.313609 139:-0.192982 140:-1 141:-1 142:-1 143:-1 144:-1 145:-0.869822 146:1 147:-0.885417 148:-1 149:-1 150:-1 151:-1 152:-1 
1.3931509207276762 1:-1 2:-1 3:-0.951923 4:-0.147368 5:-0.969849 6:-1 7:-1 8:-1 9:-1 10:-1 11:-0.913043 12:-0.167568 13:-0.985185 14:-1 15:-1 16:-1 17:-1 18:-1 19:-1 20:-0.963801 21:1 22:-0.887006 23:-1 24:-1 25:-1 26:-1 27:-0.4 28:-0.0295359 29:-1 30:-1 31:-1 32:-1 33:-1 34:-1 35:-1 36:-0.979058 37:1 38:-0.740458 39:-1 40:-1 41:-1 42:-1 43:-1 44:-0.642857 45:0.387097 46:-0.773333 47:-1 48:-1 49:-1 50:-1 51:-1 52:-0.988701 53:-0.860759 54:0.0518519 55:-0.977011 56:-1 57:-1 58:-1 59:-1 60:1 61:-0.935065 62:-1 63:-1 64:-1 65:-1 66:-1 67:-0.986577 68:0.258741 69:0.22449 70:-1 71:-1 72:-1 73:-1 74:-1 75:-1 76:0.799043 77:-0.944223 78:-1 79:-1 80:-1 81:-1 82:-1 83:-1 84:1 85:-0.926471 86:-1 87:-1 88:-1 89:-1 90:-1 91:-1 92:-0.99 93:-0.864865 94:-0.219512 95:-0.977778 96:-1 97:-1 98:-1 99:-1 100:-0.812808 101:0.897674 102:-1 103:-1 104:-1 105:-1 106:-1 107:-1 108:-0.986577 109:-0.736842 110:-0.168675 111:-0.986207 112:-1 113:-1 114:-1 115:-1 116:-0.409836 117:1 118:-0.935484 119:-0.99 120:-1 121:-1 122:-1 123:-0.80117 124:0.631579 125:-0.983471 126:-1 127:-1 128:-1 129:-1 130:-1 131:-0.976608 132:0.871921 133:-0.981481 134:-1 135:-1 136:-1 137:-1 138:-1 139:-0.953216 140:1 141:-0.886179 142:-1 143:-1 144:-1 145:-1 146:-1 147:-0.989583 148:0.642105 149:-0.735849 150:-1 151:-1 152:-1 
0.77334195579383147 1:-0.0943396 2:-1 3:-1 4:-1 5:-1 6:-1 7:-1 8:-0.6125 9:-0.963855 10:-1 11:-1 12:-1 13:-1 14:-1 15:-1 16:0.812808 17:-0.985816 18:-1 19:-1 20:-1 21:-0.976879 22:-0.943503 23:-0.236641 24:0.276596 25:-0.985915 26:-1 27:-1 28:-1 29:-1 30:-1 31:-0.97861 32:0.291829 33:-1 34:-1 35:-1 36:-1 37:-1 38:-0.954198 39:-0.795918 40:-0.312693 41:-1 42:-1 43:-1 44:-1 45:-1 46:-0.786667 47:1 48:-0.897674 49:-0.970803 50:-1 51:-1 52:-1 53:-0.974684 54:-0.925926 55:-0.777778 56:-0.529412 57:-0.977778 58:-1 59:-1 60:-1 61:-1 62:-1 63:-0.971154 64:1 65:-1 66:-1 67:-1 68:-1 69:-1 70:-0.987097 71:-0.850467 72:0.533333 73:-0.946903 74:-1 75:-1 76:-1 77:-1 78:-0.987342 79:-0.622951 80:0.752809 81:-0.990291 82:-1 83:-1 84:-1 85:-1 86:-0.981308 87:-0.637681 88:0.490196 89:-1 90:-1 91:-1 92:-1 93:-1 94:-1 95:-0.544444 96:1 97:-0.987179 98:-1 99:-1 100:-1 101:-1 102:-0.728814 103:0.0810811 104:-0.834862 105:-1 106:-1 107:-1 108:-0.986577 109:-1 110:-0.253012 111:0.627586 112:-0.75 113:-1 114:-1 115:-1 116:-1 117:-0.981132 118:-0.695853 119:1 120:-0.948187 121:-0.979167 122:-1 123:-1 124:-1 125:-1 126:-1 127:-0.39726 128:0.29 129:-0.987879 130:-1 131:-1 132:-1 133:-1 134:-1 135:-0.328571 136:0.131387 137:-1 138:-1 139:-1 140:-1 141:-1 142:-0.968586 143:0.294686 144:-0.625616 145:-0.988166 146:-1 147:-1 148:-1 149:-1 150:-0.980861 151:-0.169014 152:-0.0756972 
1.7807725467108635 1:-0.877358 2:-0.953271 3:-0.990385 4:-1 5:-0.98995 6:-0.981651 7:-0.983607 8:-0.9375 9:-0.963855 10:-1 11:-1 12:-0.956757 13:-0.851852 14:-0.898305 15:-0.934579 16:-0.862069 17:-1 18:-1 19:-1 20:-1 21:-0.976879 22:-0.536723 23:-0.465649 24:-0.989362 25:-1 26:-1 27:-1 28:-1 29:-1 30:-0.724551 31:0.572193 32:-0.992218 33:-0.610738 34:-0.925 35:-0.965714 36:-0.989529 37:-1 38:-1 39:-0.986395 40:-0.820433 41:-1 42:-1 43:-1 44:-1 45:-0.951613 46:-0.12 47:-0.646512 48:-0.990698 49:-0.941606 50:-0.989189 51:-0.987179 52:-0.954802 53:-0.810127 54:-0.866667 55:-0.94636 56:-0.882353 57:-0.977778 58:-1 59:-1 60:-0.9375 61:-0.649351 62:-0.863014 63:-0.951923 64:-0.951691 65:-0.965217 66:-1 67:-1 68:-1 69:-1 70:-0.987097 71:-0.915888 72:0.0666667 73:-0.946903 74:-1 75:-1 76:-1 77:-1 78:-1 79:-0.967213 80:0.640449 81:-1 82:-0.99177 83:-0.990991 84:-0.893048 85:-0.411765 86:-0.943925 87:-0.971014 88:-0.990196 89:-0.986395 90:-1 91:-1 92:-0.83 93:-0.621622 94:-0.963415 95:-0.988889 96:-0.989637 97:-0.961538 98:-0.987013 99:-0.988304 100:-0.871921 101:-0.87907 102:-0.983051 103:-0.986486 104:-0.975535 105:-0.878049 106:-0.966667 107:-0.964912 108:-0.892617 109:-0.929825 110:-0.987952 111:-0.986207 112:-0.940789 113:-0.935897 114:-0.985714 115:-1 116:-1 117:-1 118:-1 119:-0.98 120:0.160622 121:-0.6875 122:-0.852174 123:-0.754386 124:-0.863158 125:-1 126:-1 127:-0.990868 128:-0.98 129:-0.187879 130:-0.982609 131:-1 132:-1 133:-1 134:-1 135:-0.985714 136:-0.927007 137:-0.8125 138:-1 139:-1 140:-1 141:-1 142:-1 143:-0.990338 144:0.280788 145:-1 146:-1 147:-1 148:-1 149:-1 150:-0.913876 151:0.211268 152:-0.752988 
3.203186616436601 1:-0.858491 2:-0.953271 3:-0.971154 4:-0.978947 5:-0.98995 6:-0.981651 7:-0.983607 8:-0.9625 9:-1 10:-1 11:-1 12:-0.989189 13:-0.718519 14:-0.677966 15:-0.925234 16:-0.980296 17:-0.985816 18:-1 19:-0.988024 20:-0.511312 21:-0.803468 22:-1 23:-1 24:-0.989362 25:-0.957746 26:-0.992095 27:-0.957143 28:-0.64557 29:-0.811966 30:-1 31:-1 32:-1 33:-0.986577 34:-0.983333 35:-0.84 36:0.0575916 37:-1 38:-0.984733 39:-1 40:-1 41:-0.887097 42:-0.951691 43:-0.886792 44:-0.628571 45:-0.903226 46:-1 47:-1 48:-0.981395 49:-0.941606 50:-0.978378 51:-0.871795 52:-0.581921 53:-0.924051 54:-1 55:-1 56:-0.988235 57:-1 58:-1 59:-1 60:-0.84375 61:-0.428571 62:-0.986301 63:-0.990385 64:-0.990338 65:-1 66:-1 67:-1 68:-1 69:-1 70:-0.974194 71:-0.495327 72:-0.32381 73:-0.911504 74:-0.965957 75:-0.8625 76:-0.559809 77:-0.960159 78:-1 79:-1 80:-0.977528 81:-0.951456 82:-0.967078 83:-0.900901 84:-0.508021 85:-0.926471 86:-1 87:-1 88:-0.980392 89:-0.931973 90:-0.963636 91:-0.871345 92:-0.54 93:-0.932432 94:-1 95:-1 96:-0.979275 97:-0.935897 98:-0.948052 99:-0.871345 100:-0.546798 101:-0.953488 102:-1 103:-1 104:-0.987768 105:-0.939024 106:-0.955556 107:-0.871345 108:-0.38255 109:-0.912281 110:-1 111:-1 112:-0.986842 113:-0.935897 114:-0.942857 115:-0.871345 116:-0.497268 117:-0.90566 118:-1 119:-1 120:-0.979275 121:-0.895833 122:-0.965217 123:-0.871345 124:-0.515789 125:-0.917355 126:-1 127:-1 128:-0.98 129:-0.939394 130:-0.965217 131:-0.871345 132:-0.546798 133:-0.907407 134:-1 135:-1 136:-0.985401 137:-0.9375 138:-0.952663 139:-0.871345 140:-0.54 141:-0.918699 142:-1 143:-1 144:-0.980296 145:-0.940828 146:-0.965066 147:-0.885417 148:-0.515789 149:-0.90566 150:-1 151:-1 152:-0.984064 
2.3277678652892702 1:-0.95283 2:-0.869159 3:-0.634615 4:-0.968421 5:-1 6:-1 7:-1 8:-1 9:-1 10:-0.990868 11:0.0628019 12:-0.783784 13:-1 14:-1 15:-1 16:-1 17:-1 18:-0.97546 19:0.497006 20:-0.547511 21:-1 22:-1 23:-1 24:-1 25:-0.985915 26:-0.992095 27:-0.828571 28:-0.341772 29:-0.931624 30:-1 31:-1 32:-1 33:-0.946309 34:-0.716667 35:-0.565714 36:-0.979058 37:-1 38:-1 39:-1 40:-1 41:-1 42:-0.990338 43:-0.861635 44:0.185714 45:-0.887097 46:-1 47:-1 48:-1 49:-1 50:-1 51:-1 52:-1 53:0.253165 54:-0.125926 55:-1 56:-1 57:-1 58:-1 59:-1 60:-0.833333 61:-0.337662 62:-0.958904 63:-0.990385 64:-1 65:-1 66:-1 67:-0.973154 68:0.734266 69:-0.863946 70:-1 71:-1 72:-1 73:-1 74:-1 75:-1 76:-0.799043 77:-0.450199 78:-0.987342 79:-1 80:-1 81:-0.990291 82:-0.975309 83:-0.405405 84:-0.475936 85:-1 86:-1 87:-1 88:-1 89:-1 90:-1 91:-1 92:-0.85 93:0.0540541 94:-0.987805 95:-1 96:-1 97:-1 98:-1 99:-1 100:-0.862069 101:-0.32093 102:-0.966102 103:-1 104:-1 105:-1 106:-1 107:-1 108:-0.731544 109:0.438596 110:-0.987952 111:-1 112:-1 113:-1 114:-1 115:-1 116:-1 117:-1 118:-0.990783 119:-0.86 120:-0.170984 121:-0.979167 122:-0.982609 123:-0.859649 124:-0.536842 125:-0.983471 126:-1 127:-1 128:-1 129:-1 130:-1 131:0.0175439 132:-0.458128 133:-1 134:-1 135:-1 136:-1 137:-1 138:-0.928994 139:-0.567251 140:-0.49 141:-1 142:-1 143:-1 144:-1 145:-1 146:-0.982533 147:0.177083 148:-0.863158 149:-1 150:-1 151:-1 152:-1 
3.5251465527285664 1:-0.990566 2:-0.990654 3:-0.980769 4:-0.968421 5:-0.969849 6:-0.944954 7:-0.967213 8:-0.9375 9:-0.975904 10:-0.990868 11:-0.980676 12:-0.935135 13:-0.940741 14:-0.966102 15:-0.981308 16:-0.970443 17:-0.971631 18:-1 19:-1 20:-1 21:-1 22:-1 23:-1 24:0.87234 25:-0.323944 26:-0.841897 27:-0.985714 28:-1 29:-1 30:-1 31:-1 32:-0.984436 33:-1 34:-0.625 35:-0.0857143 36:-1 37:-1 38:-1 39:-1 40:-1 41:-0.483871 42:-0.603865 43:-0.72327 44:-0.985714 45:-1 46:-1 47:-1 48:-1 49:-0.970803 50:-0.0918919 51:-0.5 52:-1 53:-1 54:-1 55:-1 56:-1 57:-0.933333 58:-0.844749 59:-0.428571 60:-0.958333 61:-1 62:-1 63:-1 64:-1 65:-0.86087 66:0.634703 67:-0.986577 68:-1 69:-1 70:-1 71:-1 72:-1 73:-0.858407 74:-0.72766 75:-0.6375 76:-0.952153 77:-1 78:-1 79:-1 80:-1 81:-0.650485 82:-0.917695 83:-0.972973 84:-0.989305 85:-1 86:-1 87:-1 88:-0.970588 89:-0.646259 90:-0.918182 91:-0.964912 92:-0.99 93:-1 94:-0.987805 95:-0.988889 96:-0.906736 97:-0.615385 98:-0.844156 99:-0.976608 100:-1 101:-1 102:-1 103:-1 104:-0.969419 105:-0.743902 106:-0.822222 107:-0.929825 108:-0.986577 109:-1 110:-1 111:-1 112:-0.947368 113:-0.705128 114:0.171429 115:-0.929825 116:-0.989071 117:-1 118:-1 119:-1 120:-1 121:-0.833333 122:-0.695652 123:-0.380117 124:-0.957895 125:-1 126:-1 127:-1 128:-1 129:-0.539394 130:-0.721739 131:-0.894737 132:-0.990148 133:-1 134:-1 135:-1 136:-0.978102 137:0.1 138:-0.798817 139:-0.988304 140:-1 141:-1 142:-1 143:-1 144:-0.970443 145:-1 146:-1 147:-1 148:-1 149:-1 150:-0.990431 151:-0.408451 152:-0.250996 
1.4804206399759348 1:-1 2:-0.654206 3:-0.298077 4:-1 5:-1 6:-1 7:-1 8:-1 9:-1 10:-0.990868 11:-0.768116 12:-0.513514 13:-0.97037 14:-1 15:-1 16:-1 17:-1 18:-0.95092 19:0.497006 20:-0.746606 21:-1 22:-1 23:-1 24:-1 25:-1 26:-0.960474 27:0.2 28:-0.873418 29:-1 30:-1 31:-1 32:-1 33:-0.986577 34:-0.716667 35:-0.0742857 36:-0.979058 37:-1 38:-1 39:-1 40:-1 41:-1 42:-1 43:-1 44:-0.185714 45:-0.548387 46:-0.986667 47:-1 48:-1 49:-0.89781 50:-0.848649 51:-0.589744 52:-0.751412 53:-1 54:-1 55:-1 56:-0.976471 57:-0.977778 58:-0.917808 59:-0.748571 60:-0.510417 61:-0.987013 62:-1 63:-1 64:-0.990338 65:-0.913043 66:-0.826484 67:0.0604027 68:-0.972028 69:-1 70:-1 71:-1 72:-0.980952 73:-1 74:-1 75:-0.9875 76:-0.473684 77:-0.593625 78:-0.936709 79:-1 80:-1 81:-1 82:-1 83:-0.990991 84:-0.411765 85:-0.25 86:-0.906542 87:-1 88:-1 89:-1 90:-1 91:-0.988304 92:-0.45 93:-0.310811 94:-0.939024 95:-1 96:-1 97:-1 98:-1 99:-0.988304 100:-0.458128 101:-0.525581 102:-0.915254 103:-1 104:-1 105:-1 106:-1 107:-0.988304 108:-0.261745 109:-0.105263 110:-0.939759 111:-1 112:-1 113:-1 114:-1 115:-0.988304 116:-0.398907 117:-0.0377358 118:-0.953917 119:-1 120:-1 121:-1 122:-1 123:-0.988304 124:-0.421053 125:-0.157025 126:-0.933775 127:-1 128:-1 129:-1 130:-1 131:-0.988304 132:-0.458128 133:-0.0555556 134:-0.893617 135:-1 136:-1 137:-1 138:-1 139:-0.988304 140:-0.45 141:-0.170732 142:-0.947644 143:-1 144:-1 145:-1 146:-1 147:-0.989583 148:-0.421053 149:-0.0377358 150:-0.952153 151:-1 152:-1 
0.82686598391704269 1:-0.537736 2:0.738318 3:-1 4:-1 5:-1 6:-1 7:-1 8:-1 9:-0.987952 10:-1 11:-1 12:-1 13:-1 14:-1 15:-0.981308 16:0.891626 17:-0.177305 18:-0.239264 19:-0.952096 20:-1 21:-1 22:-1 23:-1 24:-0.978723 25:-0.464789 26:-0.565217 27:-0.885714 28:-1 29:-1 30:-1 31:-1 32:-0.992218 33:-0.932886 34:-0.991667 35:-0.931429 36:-0.832461 37:-0.895954 38:-0.89313 39:-0.904762 40:-0.919505 41:-1 42:-0.971014 43:-0.257862 44:-0.171429 45:-0.741935 46:-0.96 47:-0.981395 48:-0.990698 49:-0.927007 50:-0.87027 51:0.538462 52:-0.310734 53:-0.962025 54:-1 55:-0.992337 56:-0.988235 57:-0.866667 58:-0.753425 59:0.0742857 60:-0.239583 61:-0.87013 62:-0.958904 63:-0.990385 64:-0.990338 65:-0.234783 66:-0.73516 67:-0.651007 68:-0.986014 69:-1 70:-1 71:-1 72:-0.971429 73:-0.80531 74:-0.778723 75:-0.225 76:0.119617 77:-0.896414 78:-0.974684 79:-0.967213 80:-0.898876 81:-0.883495 82:-0.720165 83:-0.540541 84:0.44385 85:-0.867647 86:-0.981308 87:-0.985507 88:-0.921569 89:-0.931973 90:-0.790909 91:0.684211 92:-0.66 93:-0.986486 94:-1 95:-1 96:-0.979275 97:-0.884615 98:-0.727273 99:0.473684 100:-0.103448 101:-1 102:-1 103:-1 104:-1 105:-0.878049 106:-0.0222222 107:0.321637 108:-0.932886 109:-0.982456 110:-1 111:-1 112:-0.980263 113:-0.961538 114:-0.657143 115:0.578947 116:-0.26776 117:-0.981132 118:-1 119:-1 120:-1 121:-0.875 122:-0.713043 123:0.660819 124:-0.842105 125:-1 126:-1 127:-1 128:-1 129:-0.915152 130:-0.652174 131:0.461988 132:-0.783251 133:-1 134:-0.978723 135:-1 136:-1 137:-0.95 138:-0.64497 139:0.789474 140:-0.61 141:-0.98374 142:-1 143:-1 144:-0.990148 145:-0.692308 146:-0.336245 147:-0.447917 148:-0.978947 149:-1 150:-1 151:-0.985915 152:-0.984064 
2.1563903748030033 1:-1 2:-0.990654 3:-0.894231 4:-0.242105 5:-0.98995 6:-1 7:-1 8:-1 9:-1 10:-0.671233 11:0.932367 12:-0.989189 13:-1 14:-1 15:-1 16:-1 17:-1 18:-0.93865 19:-0.760479 20:-0.60181 21:-1 22:-1 23:-1 24:-1 25:-1 26:-1 27:-1 28:-0.729958 29:-0.025641 30:-0.976048 31:-1 32:-1 33:-0.986577 34:-0.958333 35:-0.531429 36:-0.151832 37:-1 38:-1 39:-1 40:-1 41:-0.935484 42:-1 43:-1 44:-1 45:-1 46:-0.973333 47:-0.330233 48:0.00465116 49:-0.941606 50:-0.751351 51:-0.115385 52:-0.853107 53:-1 54:-1 55:-1 56:-1 57:-0.288889 58:-0.96347 59:-0.988571 60:-1 61:-1 62:-1 63:-1 64:-0.468599 65:-0.547826 66:-0.972603 67:-1 68:-1 69:-1 70:-1 71:-0.971963 72:-0.32381 73:-0.982301 74:-1 75:-1 76:-0.933014 77:-0.840637 78:-0.797468 79:-0.639344 80:-0.910112 81:-0.990291 82:-0.99177 83:-0.963964 84:-0.582888 85:-0.691176 86:-0.906542 87:-0.956522 88:-0.980392 89:-0.986395 90:-1 91:-0.976608 92:-0.77 93:-0.72973 94:-0.878049 95:-0.866667 96:-0.979275 97:-0.192308 98:0.116883 99:-0.649123 100:-0.980296 101:-1 102:-1 103:-1 104:-0.993884 105:-0.914634 106:-0.988889 107:-1 108:-1 109:-0.982456 110:-0.987952 111:-0.517241 112:-0.289474 113:-0.897436 114:-0.671429 115:-0.684211 116:-0.956284 117:-1 118:-1 119:-0.98 120:-0.544041 121:-0.979167 122:-1 123:-1 124:-1 125:-1 126:-0.986755 127:-0.570776 128:0.68 129:-1 130:-1 131:-0.988304 132:-0.980296 133:-0.722222 134:-0.595745 135:-0.0571429 136:-0.927007 137:-0.9625 138:-0.988166 139:-0.976608 140:-0.88 141:-0.853659 142:-0.947644 143:-0.671498 144:-0.921182 145:-0.905325 146:-0.965066 147:-0.96875 148:-0.873684 149:-0.924528 150:-0.961722 151:-0.704225 152:-0.912351 
0.19571052568744415 1:-0.537736 2:0.738318 3:-1 4:-1 5:-1 6:-1 7:-1 8:-1 9:-0.987952 10:-1 11:-1 12:-1 13:-1 14:-1 15:-0.981308 16:0.891626 17:-0.177305 18:-0.239264 19:-0.952096 20:-1 21:-1 22:-1 23:-1 24:-0.978723 25:-0.985915 26:-1 27:-1 28:-1 29:-1 30:-1 31:-0.957219 32:1 33:-0.973154 34:-1 35:-1 36:-1 37:-1 38:-0.969466 39:-0.197279 40:-0.77709 41:-0.887097 42:-0.990338 43:-0.987421 44:-0.985714 45:-0.983871 46:-0.986667 47:-0.953488 48:-0.84186 49:-0.649635 50:-0.989189 51:-0.987179 52:-0.988701 53:-1 54:-1 55:-0.984674 56:-0.752941 57:-0.866667 58:-0.863014 59:-0.748571 60:-0.854167 61:-1 62:-1 63:-1 64:-1 65:-0.895652 66:-1 67:-1 68:-1 69:-1 70:-1 71:-0.943925 72:0.314286 73:0.079646 74:-0.982979 75:-1 76:-1 77:-1 78:-1 79:-1 80:-0.561798 81:-0.485437 82:0.0946502 83:-1 84:-1 85:-1 86:-1 87:-1 88:-0.990196 89:-0.945578 90:-0.990909 91:-0.976608 92:-0.95 93:-0.905405 94:-0.914634 95:-0.844444 96:-0.761658 97:-0.987179 98:-0.831169 99:0.590643 100:-0.182266 101:-1 102:-1 103:-1 104:-1 105:-0.304878 106:-0.977778 107:-1 108:-1 109:-1 110:-1 111:-0.986207 112:-0.282895 113:-0.897436 114:-0.5 115:-0.380117 116:0.344262 117:-0.830189 118:-0.990783 119:-0.98 120:-0.88601 121:-0.604167 122:-0.765217 123:-0.333333 124:0.263158 125:-0.900826 126:-0.986755 127:-0.981735 128:-0.89 129:-0.878788 130:-0.704348 131:-0.111111 132:-0.1133 133:-0.888889 134:-0.957447 135:-0.985714 136:-0.934307 137:-0.825 138:-0.680473 139:0.649123 140:-0.74 141:-0.902439 142:-0.958115 143:-0.990338 144:-0.921182 145:-0.786982 146:-0.790393 147:0.166667 148:-0.589474 149:-0.981132 150:-1 151:-1 152:-0.976096 
0.41566733299064512 1:-1 2:-0.971963 3:0.798077 4:-0.294737 5:-1 6:-1 7:-1 8:-1 9:-0.0120482 10:-0.945205 11:-0.980676 12:-1 13:-1 14:-1 15:-0.981308 16:-0.20197 17:-0.801418 18:-0.779141 19:-0.161677 20:0.21267 21:-0.919075 22:-0.954802 23:-0.938931 24:-0.93617 25:-0.873239 26:-0.794466 27:0.0571429 28:0.0548523 29:-0.91453 30:-0.976048 31:-0.967914 32:-0.922179 33:-0.691275 34:-0.875 35:-0.0971429 36:0.193717 37:-0.907514 38:-0.923664 39:-0.931973 40:-0.962848 41:-0.580645 42:-0.78744 43:1 44:-0.628571 45:-0.887097 46:-0.973333 47:-0.981395 48:-0.944186 49:-0.664234 50:-0.848649 51:0.461538 52:-0.480226 53:-0.911392 54:-0.940741 55:-0.984674 56:-0.952941 57:-0.955556 58:-0.826484 59:0.634286 60:-0.729167 61:-1 62:-1 63:-1 64:-1 65:-0.878261 66:-0.899543 67:0.758389 68:0.538462 69:-1 70:-1 71:-1 72:-1 73:-1 74:-0.889362 75:0.875 76:-0.177033 77:-1 78:-1 79:-1 80:-1 81:-0.951456 82:-0.868313 83:0.36036 84:-0.251337 85:-1 86:-1 87:-1 88:-1 89:-0.891156 90:-0.363636 91:-0.0409357 92:-0.96 93:-1 94:-1 95:-1 96:-1 97:-0.269231 98:-0.714286 99:-0.953216 100:-1 101:-1 102:-1 103:-1 104:-0.675841 105:-1 106:-0.711111 107:0.953216 108:-0.38255 109:-1 110:-1 111:-1 112:-1 113:-1 114:-0.957143 115:0.169591 116:0.245902 117:-1 118:-1 119:-1 120:-1 121:-1 122:-0.973913 123:0.169591 124:0.2 125:-1 126:-1 127:-1 128:-1 129:-1 130:-0.973913 131:0.169591 132:0.123153 133:-1 134:-1 135:-1 136:-1 137:-1 138:-0.964497 139:0.169591 140:0.14 141:-1 142:-1 143:-1 144:-1 145:-1 146:-0.973799 147:0.0416667 148:0.2 149:-1 150:-1 151:-1 152:-1 
7.2147213750977235 1:-1 2:-1 3:-1 4:-0.989474 5:-0.899497 6:0.119266 7:-0.901639 8:-0.9875 9:-1 10:-1 11:-1 12:-1 13:-0.911111 14:-0.288136 15:-0.775701 16:-0.980296 17:-1 18:-1 19:-1 20:-1 21:-1 22:-0.864407 23:0.389313 24:-0.829787 25:-1 26:-1 27:-1 28:-1 29:-1 30:-0.784431 31:-0.0588235 32:-0.937743 33:-1 34:-1 35:-1 36:-1 37:-0.976879 38:-0.221374 39:-0.401361 40:-0.962848 41:-1 42:-1 43:-1 44:-0.971429 45:-0.548387 46:-0.373333 47:-0.832558 48:-0.981395 49:-1 50:-1 51:-1 52:-0.966102 53:-0.78481 54:-0.22963 55:-0.754789 56:-0.988235 57:-0.866667 58:-0.936073 59:-0.771429 60:-0.84375 61:-0.779221 62:-0.890411 63:-0.990385 64:-0.951691 65:-1 66:-1 67:-1 68:-0.678322 69:-0.333333 70:-0.354839 71:-0.962617 72:-1 73:-1 74:-1 75:-1 76:-0.990431 77:-0.410359 78:-0.708861 79:-0.967213 80:-1 81:-1 82:-1 83:-1 84:-0.989305 85:-0.897059 86:-0.626168 87:0.434783 88:-0.833333 89:-1 90:-1 91:-1 92:-1 93:-0.797297 94:-0.0487805 95:-0.533333 96:-0.989637 97:-1 98:-1 99:-1 100:-0.970443 101:-0.386047 102:-0.118644 103:-0.918919 104:-1 105:-1 106:-1 107:-1 108:-1 109:-0.824561 110:-0.277108 111:-0.406897 112:-0.993421 113:-1 114:-1 115:-1 116:-1 117:-0.962264 118:-0.732719 119:0.22 120:-0.989637 121:-1 122:-1 123:-1 124:-0.989474 125:0.22314 126:-0.536424 127:-0.990868 128:-1 129:-1 130:-1 131:-1 132:-1 133:-1 134:0.659574 135:0.285714 136:-0.992701 137:-1 138:-1 139:-1 140:-0.97 141:-0.609756 142:-0.811518 143:-0.826087 144:-0.970443 145:-1 146:-1 147:-1 148:-1 149:-0.962264 150:0.205742 151:-0.352113 152:-1 
0.32435472903823559 1:-1 2:-1 3:-0.673077 4:-0.526316 5:-0.979899 6:-1 7:-1 8:-1 9:-0.638554 10:-0.899543 11:-0.961353 12:-0.945946 13:-1 14:-1 15:-0.990654 16:-0.960591 17:-0.914894 18:-1 19:-1 20:-1 21:-1 22:-1 23:-0.908397 24:-0.138298 25:-0.985915 26:-0.873518 27:-0.485714 28:-0.696203 29:-0.982906 30:-1 31:-1 32:-1 33:-0.959732 34:-1 35:-1 36:-0.979058 37:-0.919075 38:-0.954198 39:-0.687075 40:-0.727554 41:-0.741935 42:-0.536232 43:-0.672956 44:-0.971429 45:-1 46:-1 47:-1 48:-0.981395 49:-0.985401 50:-1 51:-1 52:-0.988701 53:-0.822785 54:-0.896296 55:-0.823755 56:-0.658824 58:-0.0593607 59:-0.862857 60:-1 61:-1 62:-1 63:-1 64:-0.990338 65:-0.217391 66:-0.0593607 67:-0.838926 68:-1 69:-1 70:-1 71:-1 72:-0.990476 73:-0.20354 74:-0.123404 75:-0.85 76:-1 77:-1 78:-1 79:-1 80:-0.988764 81:-0.563107 82:-0.152263 83:-0.891892 84:-1 85:-1 86:-1 87:-1 88:-0.990196 89:-0.387755 90:-0.0636364 91:-0.859649 92:-1 93:-1 94:-1 95:-1 96:-0.989637 97:-0.423077 98:0.337662 99:-0.859649 100:-1 101:-1 102:-1 103:-1 104:-0.993884 105:-0.45122 106:0.144444 107:-0.859649 108:-1 109:-1 110:-1 111:-1 112:-0.993421 113:-0.423077 114:0.471429 115:-0.859649 116:-1 117:-1 118:-1 119:-1 120:-0.989637 121:-0.0625 122:-0.104348 123:-0.859649 124:-1 125:-1 126:-1 127:-1 128:-0.99 129:-0.454545 130:-0.104348 131:-0.859649 132:-1 133:-1 134:-1 135:-1 136:-0.992701 137:-0.4375 138:0.218935 139:-0.859649 140:-1 141:-1 142:-1 143:-1 144:-0.990148 145:-0.467456 146:-0.100437 147:-0.875 148:-1 149:-1 150:-1 151:-1 152:-0.992032 
1.6476248732449261 1:-0.971698 2:-0.981308 3:-0.5 4:-0.684211 5:-0.959799 6:-0.853211 7:-0.918033 8:-0.9875 9:-0.975904 10:-0.972603 11:-0.545894 12:0.0162162 13:-0.644444 14:-0.983051 15:-1 16:-1 17:-0.886525 18:-0.90184 19:0.233533 20:-0.565611 21:-0.988439 22:-1 23:-1 24:-1 25:-0.84507 26:-0.897233 27:-0.114286 28:-0.932489 29:-0.982906 30:-1 31:-1 32:-0.992218 33:-0.973154 34:-0.991667 35:-0.828571 36:-0.151832 37:-0.491329 38:-0.969466 39:-1 40:-0.987616 41:-0.774194 42:-0.806763 43:-0.245283 44:-0.942857 45:-0.983871 46:-1 47:-0.981395 48:-0.981395 49:0.270073 50:-0.967568 51:-1 52:-1 53:-1 54:-1 55:-1 56:-0.941176 57:-0.955556 58:-0.972603 59:-0.714286 60:-0.572917 61:-0.935065 62:-0.986301 63:-0.990385 64:-0.980676 65:-1 66:-1 67:-0.38255 68:0.944056 69:-0.972789 70:-1 71:-1 72:-1 73:-1 74:-1 75:-0.15 76:0.167464 77:-0.984064 78:-1 79:-1 80:-1 81:-1 82:-1 83:-0.972973 84:-0.882353 85:-0.161765 86:-0.420561 87:-0.985507 88:-1 89:-1 90:-0.990909 91:-0.766082 92:-0.14 93:-0.945946 94:-0.987805 95:-1 96:-1 97:-0.948718 98:-0.961039 99:-0.883041 100:-0.852217 101:-0.962791 102:-0.966102 103:-0.986486 104:-0.987768 105:-0.987805 106:-0.977778 107:-0.754386 108:-0.14094 109:-0.912281 110:-1 111:-1 112:-1 113:-0.974359 114:-0.914286 115:-0.754386 116:-0.431694 117:-0.981132 118:-1 119:-1 120:-1 121:-0.979167 122:-0.93913 123:-0.777778 124:-0.473684 125:-0.983471 126:-1 127:-1 128:-1 129:-1 130:-0.965217 131:-0.812865 132:-0.428571 133:-0.962963 134:-1 135:-1 136:-1 137:0.175 138:-0.976331 139:-1 140:-1 141:-1 142:-1 143:-1 144:-0.901478 145:-1 146:-1 147:-1 148:-0.989474 149:-0.754717 150:-0.349282 151:-0.957746 152:-1 
5.6542193533927829 1:-1 2:-0.971963 3:-0.394231 4:-0.905263 5:-1 6:-1 7:-1 8:-1 9:-0.891566 10:-0.926941 11:-0.681159 12:-0.697297 13:-0.985185 14:-1 15:-1 16:-0.980296 17:-1 18:-0.98773 19:-0.964072 20:-0.457014 21:-0.872832 22:-0.988701 23:-1 24:-1 25:-0.71831 26:-0.992095 27:-1 28:-1 29:-1 30:-0.988024 31:-0.97861 32:-0.797665 33:-1 34:-1 35:-1 36:-1 37:-0.757225 38:-0.633588 39:-0.755102 40:-0.975232 41:-0.935484 42:0.15942 43:-0.710692 44:-0.985714 45:-1 46:-1 47:-1 48:-1 49:-0.927007 50:-0.545946 51:-0.589744 52:-0.943503 53:-0.987342 54:-1 55:-1 56:-1 57:-1 58:-1 59:-1 60:-0.90625 61:-0.25974 62:-0.945205 63:-0.990385 64:-1 65:-0.652174 66:-0.73516 67:-0.838926 68:-0.972028 69:-1 70:-1 71:-0.990654 72:-0.990476 73:-0.982301 74:-0.991489 75:-0.9875 76:-0.69378 77:-0.920319 78:-0.949367 79:-0.934426 80:-0.955056 81:-0.747573 82:-0.909465 83:-0.891892 84:-0.925134 85:-0.985294 86:-1 87:-0.985507 88:-0.941176 89:-0.986395 90:-1 91:-0.988304 92:-0.72 93:-0.756757 94:-0.902439 95:-0.955556 96:-0.958549 97:-0.871795 98:-0.818182 99:-0.789474 100:-0.901478 101:-0.990698 102:-1 103:-1 104:-0.993884 105:-0.890244 106:-0.833333 107:-0.754386 108:-0.90604 109:-1 110:-0.987952 111:-0.986207 112:-0.993421 113:-0.897436 114:-0.985714 115:-1 116:-0.978142 117:-0.962264 118:-0.963134 119:-0.94 120:-0.678756 121:-0.875 122:-0.991304 123:-1 124:-0.989474 125:-0.983471 126:-0.97351 127:-0.954338 128:-0.63 129:-0.854545 130:-0.843478 131:-0.777778 132:-0.960591 133:-1 134:-1 135:-1 136:-0.992701 137:-0.75 138:-0.83432 139:-0.883041 140:-0.93 141:-0.98374 142:-1 143:-1 144:-0.970443 145:-1 146:-1 147:-0.989583 148:-0.694737 149:-0.660377 150:-0.933014 151:-0.873239 152:-0.944223 
2.0732625472894592 1:-0.584906 2:-0.71028 3:-0.980769 4:-1 5:-1 6:-1 7:-1 8:-0.9875 9:-0.481928 10:-0.726027 11:-0.990338 12:-1 13:-1 14:-1 15:-1 16:-0.980296 17:-0.588652 18:-0.98773 19:-1 20:-1 21:-1 22:-1 23:-1 24:-0.287234 25:-0.619718 26:-0.98419 27:-1 28:-1 29:-1 30:-1 31:-1 32:-0.447471 33:-0.315436 34:-0.783333 35:-0.977143 36:-1 37:-1 38:-1 39:-1 40:-1 41:-0.0967742 42:-0.806763 43:-0.987421 44:-1 45:-1 46:-1 47:-1 48:-0.981395 49:-0.985401 50:-0.978378 51:-0.987179 52:-0.943503 53:-0.911392 54:-0.955556 55:-0.977011 56:-0.952941 57:0.0888889 58:-0.853881 59:-0.977143 60:-1 61:-1 62:-1 63:-1 64:-0.980676 65:-0.217391 66:-0.844749 67:-0.973154 68:-0.986014 69:-1 70:-1 71:-1 72:-0.980952 73:-0.876106 74:-0.702128 75:-0.225 76:-0.904306 77:-1 78:-1 79:-0.983607 80:-0.988764 81:-0.854369 82:-1 83:-1 84:-1 85:-1 86:-1 87:-1 88:0.0490196 89:-0.265306 90:-0.318182 91:-0.988304 92:-1 93:-1 94:-1 95:-1 96:-0.979275 97:-0.987179 98:-1 99:-1 100:-1 101:-1 102:-0.983051 103:0.202703 104:-0.834862 105:-0.52439 106:-0.911111 107:-0.964912 108:-1 109:-1 110:-1 111:-1 112:-0.934211 113:-0.307692 114:0.242857 115:-0.988304 116:-1 117:-1 118:-1 119:-1 120:-0.989637 121:0.104167 122:-0.895652 123:-0.976608 124:-1 125:-1 126:-1 127:-1 128:-0.96 129:-0.975758 130:-0.991304 131:-0.988304 132:-0.960591 133:-0.888889 134:-0.87234 135:-0.928571 136:-0.970803 137:-1 138:-0.988166 139:-1 140:-1 141:-1 142:-0.979058 143:-0.31401 144:-0.763547 145:-0.550296 146:-0.537118 147:-0.947917 148:-0.989474 149:-1 150:-1 151:-1 152:-0.968127 
1.9864988636978871 1:-1 2:-1 3:-0.826923 4:0.452632 5:-1 6:-1 7:-1 8:-1 9:-0.975904 10:-0.990868 11:-0.990338 12:-0.913514 13:-0.940741 14:-0.966102 15:-0.990654 16:-0.980296 17:-1 18:-0.98773 19:-0.904192 20:-0.285068 21:-1 22:-1 23:-1 24:-1 25:-1 26:-1 27:-0.871429 28:-0.240506 29:-0.965812 30:-1 31:-1 32:-1 33:-1 34:-1 35:-0.988571 36:-0.790576 37:-0.572254 38:-0.954198 39:-1 40:-1 41:-0.887097 42:-0.971014 43:-0.408805 44:0.428571 45:-0.983871 46:-1 47:-1 48:-1 49:-0.941606 50:-0.924324 51:-0.320513 52:-0.502825 53:-0.936709 54:-0.985185 55:-0.992337 56:-0.976471 57:-0.955556 58:-0.981735 59:-0.828571 60:0.364583 61:-0.584416 62:-0.986301 63:-1 64:-1 65:-0.913043 66:-0.853881 67:-0.0738255 68:0.888112 69:-0.972789 70:-1 71:-1 72:-1 73:-0.911504 74:-0.86383 75:-0.1375 76:0.291866 77:-0.984064 78:-1 79:-1 80:-1 81:-0.951456 82:-0.868313 83:-0.378378 84:0.44385 85:-0.970588 86:-1 87:-1 88:-1 89:-0.931973 90:-0.854545 91:-0.192982 92:0.35 93:-0.972973 94:-1 95:-1 96:-1 97:-0.935897 98:-0.792208 99:-0.192982 100:0.330049 101:-0.981395 102:-1 103:-1 104:-1 105:-0.939024 106:-0.822222 107:-0.192982 108:0.812081 109:-0.964912 110:-1 111:-1 112:-1 113:-0.935897 114:-0.771429 115:-0.192982 116:0.47541 117:-0.962264 118:-1 119:-1 120:-1 121:-0.895833 122:-0.86087 123:-0.192982 124:0.421053 125:-0.966942 126:-1 127:-1 128:-1 129:-0.939394 130:-0.86087 131:-0.192982 132:0.330049 133:-0.962963 134:-1 135:-1 136:-1 137:-0.9375 138:-0.810651 139:-0.192982 140:0.35 141:-0.96748 142:-1 143:-1 144:-1 145:-0.940828 146:-0.860262 147:-0.28125 148:0.421053 149:-0.962264 150:-1 151:-1 152:-1 
0.97305931909046883 1:-1 2:-1 3:-1 4:-0.989474 5:-0.778894 6:1 7:-0.639344 8:-1 9:-1 10:-1 11:-1 12:-0.978378 13:-0.866667 14:-0.169492 15:-0.71028 16:-0.960591 17:-1 18:-1 19:-1 20:-0.99095 21:-0.82659 22:0.220339 23:-0.587786 24:-0.978723 25:-0.704225 26:-0.913043 27:-0.714286 28:-0.890295 29:-0.948718 30:-0.988024 31:-0.989305 32:-0.976654 33:-0.838926 34:-0.933333 35:-0.771429 36:-0.801047 37:-0.965318 38:-1 39:-1 40:-0.981424 41:-0.193548 42:-0.681159 43:-0.773585 44:-0.928571 45:-1 46:-1 47:-1 48:-1 49:-0.883212 50:-0.978378 51:-0.974359 52:-0.988701 53:-0.974684 54:-0.985185 55:-0.984674 56:-0.929412 57:-1 58:-1 59:-1 60:-0.989583 61:-0.805195 62:1 63:-0.855769 64:-1 65:-1 66:-1 67:-1 68:-1 69:-0.918367 70:0.122581 71:-0.598131 72:-0.980952 73:-1 74:-1 75:-1 76:-1 77:-0.904382 78:1 79:-0.786885 80:-1 81:-0.951456 82:-0.975309 83:-0.954955 84:-0.700535 85:-0.911765 86:-1 87:-1 88:-0.970588 89:-0.904762 90:-0.981818 91:-0.929825 92:-0.75 93:-0.932432 94:-0.987805 95:-0.988889 96:-0.968912 97:-0.987179 98:-1 99:-1 100:-0.980296 101:-0.981395 102:-0.932203 103:-0.702703 104:-0.804281 105:-0.829268 106:-0.966667 107:-0.906433 108:-0.865772 109:-0.947368 110:-0.987952 111:-0.986207 112:-0.973684 113:-0.794872 114:-0.957143 115:-0.918129 116:-0.836066 117:-0.962264 118:-1 119:-1 120:-0.937824 121:-1 122:-1 123:-1 124:-1 125:-0.322314 126:0.536424 127:-0.917808 128:-1 129:-0.927273 130:-0.921739 131:-0.812865 132:-0.408867 133:-0.962963 134:-1 135:-1 136:-1 137:-0.8 138:-0.940828 139:-0.976608 140:-0.99 141:-0.98374 142:-1 143:-0.990338 144:-0.931034 145:-1 146:-1 147:-1 148:-1 149:-0.924528 150:0.0334928 151:-0.0704225 152:-1 
1.6935162528785443 1:-0.990566 2:0.841121 3:-0.971154 4:-1 5:-1 6:-1 7:-1 8:-1 9:-0.963855 10:-0.981735 11:-0.980676 12:-0.956757 13:-0.925926 14:-0.983051 15:-0.981308 16:-0.970443 17:-0.276596 18:0.680982 19:-0.976048 20:-1 21:-1 22:-1 23:-1 24:-1 25:-0.985915 26:0.217391 27:-0.6 28:-1 29:-1 30:-1 31:-1 32:-1 33:-0.986577 34:-0.166667 35:-0.165714 36:-0.989529 37:-1 38:-1 39:-1 40:-1 41:-1 42:-1 43:-1 44:-1 45:-0.967742 46:-0.92 47:-0.627907 48:-0.795349 49:-1 50:-1 51:-1 52:-1 53:-0.924051 54:-0.822222 55:-0.693487 56:-0.823529 57:-0.911111 58:0.141553 59:-0.805714 60:-0.989583 61:-1 62:-1 63:-1 64:-1 65:-0.73913 66:0.561644 67:-0.959732 68:-1 69:-1 70:-1 71:-1 72:-1 73:-1 74:-1 75:-1 76:-0.990431 77:-0.888446 78:-0.734177 79:-0.393443 80:-0.977528 81:-1 82:-1 83:-1 84:-0.989305 85:-0.632353 86:-0.476636 87:-0.681159 88:-0.990196 89:-1 90:-1 91:-1 92:-0.99 93:-0.594595 94:-0.573171 95:-0.855556 96:-1 97:-0.897436 98:-0.974026 99:-0.988304 100:-0.950739 101:-0.962791 102:-0.983051 103:-0.986486 104:-0.914373 105:-0.45122 106:0.688889 107:-0.988304 108:-1 109:-1 110:-1 111:-1 112:-1 113:-0.846154 114:-0.971429 115:-0.988304 116:-0.989071 117:-0.981132 118:-1 119:-0.98 120:-0.709845 121:-0.9375 123:-0.637427 124:-1 125:-1 126:-1 127:-1 128:-1 129:-0.963636 130:0.0782609 131:-0.719298 132:-1 133:-1 134:-1 135:-1 136:-1 137:-0.95 138:0.337278 139:-0.719298 140:-1 141:-1 142:-1 143:-1 144:-1 145:-0.976331 146:-0.196507 147:-0.572917 148:-0.989474 149:-1 150:-1 151:-1 152:-1 
0.24482267886647052 1:-0.509434 2:-0.719626 3:-0.980769 4:-1 5:-1 6:-1 7:-1 8:-0.9875 9:-0.385542 10:1 11:-1 12:-1 13:-1 14:-1 15:-1 16:-1 17:-0.0921986 18:-0.631902 19:-0.988024 20:-1 21:-1 22:-1 23:-1 24:-0.989362 25:-1 26:0.628458 27:-0.9 28:-1 29:-1 30:-1 31:-1 32:-1 33:-0.973154 34:0.733333 35:-1 36:-1 37:-1 38:-1 39:-1 40:-1 41:-0.983871 42:0.874396 43:-0.924528 44:-1 45:-1 46:-1 47:-1 48:-1 49:-1 50:1 51:-0.794872 52:-1 53:-1 54:-1 55:-1 56:-1 57:-1 58:0.753425 59:-0.862857 60:-1 61:-1 62:-1 63:-1 64:-1 65:-1 66:0.716895 67:-0.758389 68:-1 69:-1 70:-1 71:-1 72:-1 73:-1 74:-0.625532 75:0.3125 76:-0.990431 77:-1 78:-1 79:-1 80:-1 81:-0.951456 82:1 83:-0.855856 84:-1 85:-1 86:-1 87:-1 88:-1 89:-0.918367 90:0.154545 91:-0.0175439 92:-1 93:-1 94:-1 95:-1 96:-1 97:-0.961538 98:0.948052 99:-0.204678 100:-1 101:-1 102:-1 103:-1 104:-1 105:-0.902439 106:0.533333 107:-0.134503 108:-0.986577 109:-1 110:-1 111:-1 112:-1 113:-0.833333 114:0.942857 115:-0.122807 116:-1 117:-1 118:-1 119:-1 120:-0.989637 121:-0.770833 122:0.304348 123:-0.309942 124:-0.989474 125:-1 126:-1 127:-1 128:-0.98 129:0.0424242 130:-0.530435 131:-0.906433 132:-1 133:-1 134:-1 135:-1 136:-0.963504 137:-0.8875 138:1 139:-0.48538 140:-0.99 141:-0.98374 142:-1 143:-1 144:-1 145:-0.976331 146:-0.746725 147:1 148:-1 149:-1 150:-1 151:-1 152:-1 
0.31204586492465719 1:-0.896226 2:-0.953271 3:-0.961538 4:-0.957895 5:-0.98995 6:-0.981651 7:-0.983607 8:-0.9625 9:-0.819277 10:-0.945205 11:-0.961353 12:-0.967568 13:-0.985185 14:-0.983051 15:-0.990654 16:-0.960591 17:-0.815603 18:-0.92638 19:-0.928144 20:-0.963801 21:-0.976879 22:-0.988701 23:-0.984733 24:-0.968085 25:-0.788732 26:-0.928854 27:-0.885714 28:-0.983122 29:-1 30:-1 31:-0.989305 32:-0.984436 33:-1 34:-1 35:-1 36:-1 37:-1 38:-0.954198 39:1 40:-0.814241 41:-0.516129 42:-0.922705 43:-0.974843 44:-0.985714 45:-1 46:-1 47:-0.990698 48:-0.962791 49:-1 50:-1 51:-0.987179 52:-0.548023 53:-0.670886 54:-0.985185 55:-1 56:-1 57:-0.977778 58:-0.990868 59:-0.988571 60:-0.739583 61:-0.636364 62:-0.972603 63:-1 64:-1 65:-1 66:-1 67:-1 68:-1 69:-0.959184 70:-0.909677 71:1 72:-0.971429 73:0.256637 74:-1 75:-1 76:-1 77:-1 78:-1 79:-0.983607 80:-0.11236 81:-0.893204 82:-0.975309 83:-0.963964 84:-0.903743 85:-0.970588 86:-0.981308 87:-0.985507 88:-0.95098 89:-0.687075 90:-0.945455 91:-0.953216 92:-0.95 93:-0.972973 94:-0.987805 95:-0.977778 96:-0.937824 97:-0.705128 98:-0.883117 99:-0.964912 100:-0.970443 101:-0.990698 102:-0.983051 103:-0.972973 104:-0.944954 105:-0.756098 106:-0.933333 107:-0.953216 108:-0.919463 109:-0.964912 110:-0.987952 111:-0.972414 112:-0.947368 113:-0.75641 114:-0.957143 115:-0.964912 116:-0.912568 117:-0.962264 118:-0.990783 119:-0.99 120:-0.927461 121:-0.958333 122:-0.991304 123:-0.824561 124:-0.357895 125:-0.966942 126:-0.986755 127:-1 128:-1 129:-0.975758 130:-0.982609 131:-0.964912 132:-0.793103 133:-0.814815 134:-0.93617 135:-0.985714 136:-0.992701 137:-0.975 138:-0.988166 139:-0.94152 140:-0.49 141:-0.853659 142:-0.989529 143:-0.990338 144:-0.980296 145:-1 146:-1 147:-1 148:-1 149:-1 150:-0.856459 151:1 152:-0.976096 
2.3517423154317547 1:-1 2:-1 3:-1 4:-1 5:-0.979899 6:-0.853211 7:0.918033 8:-0.95 9:-0.746988 10:-0.123288 11:-0.922705 12:-1 13:-1 14:-1 15:-1 16:-0.990148 17:-0.886525 18:-0.668712 19:-0.389222 20:-0.927602 21:-1 22:-1 23:-1 24:-0.968085 25:1 26:-0.881423 27:-0.971429 28:-1 29:-1 30:-1 31:-0.989305 32:-0.906615 33:-0.973154 34:-0.991667 35:-1 36:-1 37:-0.988439 38:-0.923664 39:-0.333333 40:0.114551 41:-0.0483871 42:-0.990338 43:-1 44:-0.985714 45:-0.919355 46:-0.96 47:-0.860465 48:0.376744 49:-0.284672 50:-0.945946 51:-0.948718 52:-1 53:-1 54:-1 55:-0.984674 56:0.0470588 57:0.0444444 58:-0.954338 59:-0.954286 60:-1 61:-1 62:-1 63:-0.980769 64:0.0724638 65:-0.391304 66:-0.945205 67:-1 68:-1 69:-1 70:-1 71:-0.981308 72:0.257143 73:-0.59292 74:-0.948936 75:-0.975 76:-1 77:-1 78:-1 79:-0.918033 80:0.640449 81:-0.349515 82:-0.958848 83:-1 84:-1 85:-1 86:-0.981308 87:-0.985507 88:0.5 89:-0.619048 90:-0.945455 91:-1 92:-1 93:-1 94:-0.97561 95:-0.955556 96:0.595855 97:-0.5 98:-0.948052 99:-0.976608 100:-1 101:-1 102:-0.983051 103:-0.959459 104:-0.11315 105:-0.54878 106:-0.977778 107:-0.988304 108:-1 109:-1 110:-0.987952 111:-0.931034 112:0.25 113:-0.487179 114:-0.957143 115:-0.964912 116:-1 117:-1 118:-1 119:-0.96 120:0.554404 121:-0.0208333 122:-0.93913 123:-0.964912 124:-1 125:-1 126:-0.986755 127:-0.972603 128:0.4 129:-0.115152 130:-0.991304 131:-1 132:-0.940887 133:-0.944444 134:-0.93617 135:-0.828571 136:0.0218978 137:-0.275 138:-0.905325 139:-1 140:-1 141:-0.98374 142:-1 143:-0.990338 144:0.586207 145:-0.47929 146:-0.973799 147:-1 148:-1 149:-1 150:-1 151:-0.957746 152:0.633466 
1.0843392695045895 1:-0.971698 2:-0.981308 3:-0.980769 4:-0.989474 5:-0.979899 6:-0.981651 7:-0.95082 8:-0.9125 9:-0.975904 10:-1 11:-1 12:-1 13:-0.985185 14:-0.983051 15:-0.962617 16:-0.182266 17:-0.843972 18:-0.97546 19:-0.976048 20:-0.9819 21:-0.976879 22:-0.988701 23:-0.984733 24:-0.914894 25:-0.873239 26:-0.968379 27:-0.957143 28:-0.974684 29:-0.982906 30:-0.988024 31:-0.989305 32:-0.968872 33:-0.852349 34:-1 35:-1 36:-1 37:-1 38:-1 39:-0.986395 40:0.176471 41:-0.209677 42:-0.797101 43:-0.962264 44:-1 45:-1 46:-1 47:-1 48:-0.990698 49:-0.459854 50:-0.989189 51:-1 52:-1 53:-1 54:-1 55:-0.992337 56:-0.223529 57:-1 58:-1 59:-1 60:-1 61:-1 62:-1 63:1 64:-0.78744 65:-0.826087 66:-1 67:-1 68:-1 69:-0.945578 70:-0.948387 71:-0.88785 72:-0.590476 73:-0.911504 74:-1 75:-1 76:-0.990431 77:-0.944223 78:-0.911392 79:-0.639344 80:-0.662921 81:-0.669903 82:-0.99177 83:-1 84:-0.97861 85:-0.985294 86:-1 87:-0.971014 88:-0.617647 89:-0.959184 90:-1 91:-1 92:-1 93:-1 94:-0.987805 95:-0.922222 96:0.61658 97:-0.884615 98:-0.987013 99:-1 100:-1 101:-0.990698 102:-0.983051 103:-0.905405 104:-0.431193 105:-0.987805 106:-0.988889 107:-1 108:-1 109:-1 110:-1 111:-0.062069 112:-0.368421 113:-0.871795 114:-1 115:-1 116:-1 117:-0.981132 118:-0.981567 119:-0.89 120:-0.160622 121:-0.958333 122:-0.947826 123:-0.859649 124:-0.694737 125:-0.85124 126:-0.97351 127:-0.981735 128:-0.94 129:-0.975758 130:-1 131:-1 132:-1 133:-0.907407 134:-0.914894 135:-0.557143 136:-0.576642 137:-1 138:-1 139:-1 140:-1 141:-0.886179 142:-0.664921 143:0.130435 144:-0.694581 145:-1 146:-1 147:-1 148:-1 149:-0.867925 150:-0.444976 151:-0.0140845 152:-0.832669 
2.5656604316955174 1:-1 2:-0.990654 3:-0.913462 4:-0.189474 5:-1 6:-1 7:-1 8:-1 9:-1 10:-0.981735 11:-0.951691 12:-0.72973 13:-0.540741 14:-0.79661 15:-0.897196 16:-0.990148 17:-1 18:-1 19:-0.94012 20:-0.230769 21:-0.988439 22:-1 23:-1 24:-1 25:-1 26:-1 27:-0.814286 28:0.924051 29:-0.982906 30:-1 31:-1 32:-1 33:-1 34:-1 35:-0.977143 36:-0.0471204 37:-0.895954 38:-1 39:-1 40:-1 41:-1 42:-1 43:-1 44:-0.985714 45:-0.0322581 46:-0.12 47:-0.990698 48:-1 49:-1 50:-1 51:-1 52:-0.954802 53:1 54:-0.955556 55:-1 56:-1 57:-1 58:-1 59:-1 60:-0.958333 61:1 62:-0.835616 63:-1 64:-1 65:-1 66:-1 67:-1 68:-0.958042 69:1 70:-0.754839 71:-1 72:-1 73:-1 74:-1 75:-1 76:-0.933014 77:-0.36255 78:-0.772152 79:-0.983607 80:-1 81:-0.961165 82:-0.967078 83:-0.90991 84:-0.593583 85:-0.882353 86:-0.981308 87:-0.985507 88:-0.901961 89:-1 90:-0.990909 91:-0.976608 92:-0.63 93:-0.108108 94:-0.890244 95:-0.977778 96:-1 97:-1 98:-1 99:-0.953216 100:-0.871921 101:-0.767442 102:-0.864407 103:-0.851351 104:-0.969419 105:-1 106:-1 107:-1 108:-1 109:-0.631579 110:0.891566 111:-0.77931 112:-0.986842 113:-1 114:-1 115:-1 116:-1 117:-0.45283 118:0.419355 119:-0.9 120:-0.989637 121:-1 122:-1 123:-1 124:-0.989474 125:-0.338843 126:1 127:-0.96347 128:-1 129:-0.915152 130:-0.904348 131:-0.836257 132:-0.704433 133:-0.925926 134:-1 135:-0.985714 136:-0.934307 137:-1 138:-1 139:-0.953216 140:-0.52 141:-0.577236 142:-0.926702 143:-0.961353 144:-0.990148 145:-1 146:-0.973799 147:-0.833333 148:-0.526316 149:-0.698113 150:-0.961722 151:-0.957746 152:-0.992032 
2.8289925275666441 1:-0.858491 2:-0.485981 3:-0.192308 4:-0.494737 5:-1 6:-1 7:-1 8:-0.9875 9:-0.807229 10:-0.543379 11:-0.275362 12:-0.362162 13:-1 14:-1 15:-1 16:-0.990148 17:-0.914894 18:-0.423313 19:-0.0179641 20:-0.520362 21:-1 22:-1 23:-1 24:-1 25:-0.732394 26:-0.501976 27:0.271429 28:-0.299578 29:-0.982906 30:-1 31:-1 32:-0.976654 33:-0.90604 34:-0.958333 35:-0.851429 36:0.0366492 37:-0.491329 38:-0.954198 39:-0.986395 40:-0.987616 41:-0.935484 42:-0.729469 43:0.295597 44:-0.357143 45:-1 46:-1 47:-1 48:-0.990698 49:-0.985401 50:-0.989189 51:-0.320513 52:-0.672316 53:-0.987342 54:-1 55:-1 56:-1 57:-0.733333 58:-0.835616 59:-0.177143 60:0.0729167 61:-0.987013 62:-1 63:-1 64:-0.990338 65:-0.86087 66:-0.881279 67:-0.489933 68:0.286713 69:-0.496599 70:-0.987097 71:-1 72:-0.980952 73:-0.982301 74:-1 75:-0.9 76:-0.291866 77:-0.52988 78:-0.772152 79:-0.983607 80:-0.988764 81:-0.84466 82:-0.695473 83:-0.216216 84:-0.42246 85:-1 86:-1 87:-1 88:-0.990196 89:-0.918367 90:-0.654545 91:0.157895 92:-0.52 93:-1 94:-0.987805 95:-1 96:-0.989637 97:-1 98:-0.922078 99:-0.450292 100:0.871921 101:-0.934884 102:-1 103:-1 104:-0.993884 105:-0.780488 106:-0.477778 107:0.766082 108:-0.610738 109:-0.982456 110:-1 111:-1 112:-0.993421 113:-1 114:-1 115:-1 116:-0.825137 117:-0.113208 118:-0.493088 119:-0.76 120:-1 121:-0.458333 122:-0.765217 123:-0.532164 124:-0.947368 125:-1 126:-1 127:-0.990868 128:-0.99 129:-1 130:-1 131:-0.953216 132:1 133:-0.648148 134:-0.978723 135:-1 136:-1 137:-1 138:-0.988166 139:0.602339 140:-0.87 141:-0.98374 142:-1 143:-1 144:-1 145:-1 146:-0.921397 147:0.375 148:-0.484211 149:-0.981132 150:-1 151:-1 152:-1 
4.5649692217881572 1:-1 2:-0.981308 3:-0.961538 4:-0.2 5:-0.939698 6:-1 7:-1 8:-1 9:-1 10:-1 11:-1 12:-1 13:-0.985185 14:-0.949153 15:-0.271028 16:-0.773399 17:-0.985816 18:-1 19:-1 20:-0.972851 21:-0.132948 22:-0.548023 23:-0.969466 24:-1 25:-0.971831 26:-0.818182 27:0.542857 28:-0.983122 29:-1 30:-1 31:-1 32:-1 33:-1 34:-0.958333 35:0.154286 36:-0.643979 37:-1 38:-1 39:-1 40:-1 41:-1 42:-1 43:-1 44:-0.985714 45:-0.016129 46:-0.813333 47:-0.972093 48:-0.972093 49:-0.985401 50:-1 51:-1 52:-1 53:-0.962025 54:-0.866667 55:-0.716475 56:-0.211765 57:-0.955556 58:-1 59:-1 60:-1 61:-0.766234 62:-0.767123 63:-0.836538 64:-0.903382 65:-0.965217 66:-0.972603 67:-0.38255 68:-0.524476 69:-0.972789 70:-0.987097 71:-1 72:-1 73:-1 74:-0.991489 75:0.3375 76:-0.617225 77:-0.992032 78:-1 79:-1 80:-1 81:-1 82:-1 83:-0.990991 84:-0.229947 85:-0.764706 86:-0.981308 87:-1 88:-1 89:-1 90:-0.990909 91:-0.953216 92:-0.33 93:-0.891892 94:-0.987805 95:-1 96:-1 97:-1 98:-1 99:-0.988304 100:-0.940887 101:-0.181395 102:-0.864407 103:-1 104:-1 105:-0.963415 106:-0.755556 107:0.134503 108:-0.677852 109:-0.982456 110:-1 111:-1 112:-1 113:-1 114:-1 115:-0.988304 116:-0.912568 117:-0.0943396 118:-0.870968 119:-0.99 120:-1 121:-0.5625 122:-0.991304 123:-0.988304 124:-0.989474 125:-1 126:-1 127:-0.96347 128:-0.65 129:-1 130:-1 131:-1 132:-0.990148 133:-0.944444 134:-0.744681 135:-0.157143 136:-0.905109 137:-0.975 138:-0.83432 139:-0.438596 140:-0.69 141:-1 142:-1 143:-1 144:-1 145:-0.39645 146:-0.991266 147:-1 148:-1 149:-1 150:-1 151:-1 152:-0.553785 
0.45159151691766641 1:-1 2:-1 3:-1 4:-1 5:-0.949749 6:0.0458716 7:-0.786885 8:-1 9:-0.927711 10:-0.424658 11:-0.42029 12:-0.956757 13:-1 14:-1 15:-1 16:-1 17:-0.985816 18:-1 19:-1 20:-0.99095 21:-0.988439 22:-0.79661 23:-0.419847 24:-0.904255 25:-0.943662 26:-1 27:-1 28:-1 29:-1 30:-1 31:-0.967914 32:0.0272374 33:-1 34:-1 35:-1 36:-1 37:-1 38:-0.984733 39:-0.251701 40:-0.436533 41:-0.532258 42:-0.729469 43:-0.861635 44:-0.957143 45:-1 46:-1 47:-1 48:-1 49:-0.781022 50:-0.989189 51:-1 52:-1 53:-1 54:-1 55:-0.992337 56:1 57:-0.222222 58:-0.972603 59:-0.988571 60:-0.96875 61:-0.974026 62:-1 63:-1 64:-0.903382 65:-0.982609 66:-1 67:-1 68:-1 69:-0.972789 70:-0.793548 71:-0.728972 72:-0.847619 73:-1 74:-0.991489 75:-0.925 76:-0.502392 77:-0.888446 78:-0.734177 79:-0.967213 80:-0.988764 81:-0.990291 82:-1 83:-0.990991 84:-0.97861 85:-0.779412 86:-0.457944 87:-0.637681 88:-0.941176 89:-0.986395 90:-0.981818 91:-0.94152 92:-0.78 93:-0.77027 94:-0.853659 95:-0.633333 96:-0.927461 97:-0.987179 98:-0.532468 99:0.473684 100:-0.605911 101:-0.981395 102:-1 103:-1 104:-1 105:-0.792683 106:-0.611111 107:0.0409357 108:-0.288591 109:-0.947368 110:-0.987952 111:-1 112:-0.986842 113:-0.589744 114:-0.471429 115:-0.263158 116:-0.234973 117:-0.886792 118:-0.990783 119:-1 120:-0.917098 121:-0.5625 122:-0.765217 123:0.00584795 124:-0.515789 125:-0.950413 126:-0.986755 127:-0.990868 128:-0.89 129:-0.612121 130:-0.617391 131:-0.0292398 132:-0.605911 133:-0.962963 134:-1 135:-1 136:-0.912409 137:-0.8 138:-0.668639 139:-0.321637 140:-0.35 141:-0.869919 142:-0.989529 143:-0.990338 144:-0.871921 145:-0.905325 146:-0.615721 147:0.03125 148:-0.515789 149:-0.943396 150:-1 151:-1 152:-0.960159 
0.023763786149718722 1:-1 2:-0.71028 3:1 4:-0.947368 5:-1 6:-1 7:-1 8:-1 9:-0.939759 10:-0.534247 11:0.555556 12:-0.891892 13:-0.97037 14:-1 15:-1 16:-1 17:-0.64539 18:-0.435583 19:0.48503 20:-0.719457 21:-0.976879 22:-1 23:-1 24:-0.957447 25:-0.704225 26:-0.70751 27:1 28:-0.738397 29:-0.965812 30:-1 31:-1 32:-0.953307 33:-0.624161 34:-0.416667 35:0.382857 36:-0.884817 37:-0.988439 38:-1 39:-1 40:-0.975232 41:-0.870968 42:-0.681159 43:0.283019 44:0.142857 45:-1 46:-1 47:-1 48:-0.934884 49:-0.810219 50:-0.437838 51:1 52:-0.875706 53:-0.987342 54:-1 55:-1 56:-0.952941 57:-0.911111 58:-0.598174 59:1 60:-0.885417 61:-0.987013 62:-1 63:-1 64:-1 65:-0.165217 66:-0.73516 67:0.0201342 68:-0.300699 69:-0.55102 70:-0.987097 71:-0.990654 72:-0.961905 73:0.345133 74:-0.480851 75:-0.625 76:-0.933014 77:-0.928287 78:-0.987342 79:-1 80:-0.988764 81:-1 82:-0.901235 83:1 84:-0.796791 85:-1 86:-1 87:-1 88:-1 89:-0.986395 90:-0.372727 91:1 92:-1 93:-1 94:-1 95:-1 96:-1 97:-0.987179 98:-0.103896 99:1 100:-1 101:-1 102:-1 103:-1 104:-1 105:-0.987805 106:-0.233333 107:1 108:-1 109:-1 110:-1 111:-1 112:-1 113:-0.987179 114:-0.0142857 115:1 116:-1 117:-1 118:-1 119:-1 120:-1 121:-0.979167 122:-0.4 123:1 124:-1 125:-1 126:-1 127:-1 128:-1 129:-0.987879 130:-0.4 131:1 132:-1 133:-1 134:-1 135:-1 136:-1 137:-0.9875 138:-0.183432 139:1 140:-1 141:-1 142:-1 143:-1 144:-1 145:-0.988166 146:-0.39738 147:0.78125 148:-1 149:-1 150:-1 151:-1 152:-1 
1.6135335206145462 1:-0.95283 2:0.11215 3:-0.942308 4:-1 5:-0.98995 6:-1 7:-1 8:-1 9:-0.951807 10:-0.388128 11:-0.758454 12:-1 13:-1 14:-1 15:-1 16:-1 17:-0.943262 18:1 19:-0.952096 20:-0.99095 21:-1 22:-1 23:-1 24:-1 25:-0.901408 26:-0.0909091 27:-0.928571 28:-1 29:-1 30:-1 31:-1 32:-1 33:-0.919463 34:-0.441667 35:-0.771429 36:-0.968586 37:-1 38:-1 39:-1 40:-1 41:-0.967742 42:-0.391304 43:-0.647799 44:-0.957143 45:-1 46:-1 47:-1 48:-1 49:-0.810219 50:-0.891892 51:-0.961538 52:-0.954802 53:-0.987342 54:-1 55:-0.992337 56:-0.976471 57:-1 58:-0.232877 59:-0.142857 60:-1 61:-1 62:-1 63:-1 64:-1 65:-0.982609 66:-0.406393 67:-0.624161 68:-0.958042 69:-1 70:-1 71:-1 72:-1 73:-0.893805 74:-0.47234 75:-0.7125 76:-0.971292 77:-1 78:-1 79:-1 80:-1 81:-1 82:-0.99177 83:-0.927928 84:-0.475936 85:-0.5 86:-1 87:-1 88:-1 89:-0.782313 90:-0.727273 91:-0.976608 92:-0.99 93:-1 94:-0.987805 95:-0.955556 96:-0.989637 97:-0.923077 98:-0.636364 99:-0.894737 100:-0.990148 101:-0.981395 102:-0.864407 103:-0.972973 104:-0.987768 105:-0.304878 106:-0.711111 107:-0.988304 108:-1 109:-1 110:-1 111:-0.917241 112:-0.947368 113:-0.384615 114:-0.371429 115:-1 116:-1 117:-1 118:-1 119:-0.94 120:-0.875648 121:0.958333 122:-1 123:-1 124:-1 125:-1 126:-1 127:-1 128:-0.88 129:-0.987879 130:-0.356522 131:-0.660819 132:-0.980296 133:-0.981481 134:-1 135:-1 136:-1 137:-0.7125 138:-0.230769 139:-0.964912 140:-0.98 141:-1 142:-0.968586 143:-1 144:-1 145:-0.751479 146:-0.310044 147:-0.9375 148:-0.978947 149:-1 150:-1 151:-1 152:-1 
0.48810733814507834 1:-1 2:-0.990654 3:-0.990385 4:-0.968421 5:-0.688442 6:-0.816514 7:-0.983607 8:-1 9:-0.915663 10:-0.990868 11:-1 12:-1 13:-0.985185 14:-0.949153 15:-0.869159 16:-0.704433 17:-0.77305 18:-0.97546 19:-1 20:-1 21:-0.988439 22:-0.977401 23:-0.862595 24:-0.691489 25:-0.521127 26:-0.944664 27:-1 28:-1 29:-0.982906 30:-0.94012 31:-0.839572 32:-0.867704 33:-1 34:-0.95 35:-0.782857 36:-0.706806 37:-0.872832 38:-0.923664 39:-1 40:-1 41:-0.951613 42:-0.971014 43:-0.874214 44:-0.871429 45:-0.951613 46:-0.746667 47:-0.990698 48:-0.990698 49:-0.985401 50:-0.72973 51:-0.897436 52:-0.853107 53:-0.962025 54:-0.866667 55:-0.992337 56:-0.988235 57:-1 58:-0.844749 59:-0.954286 60:-0.8125 61:-0.714286 62:-0.890411 63:-1 64:-1 65:-0.947826 66:-0.598174 67:-0.838926 68:-0.818182 69:-0.986395 70:-0.974194 71:-1 72:-0.990476 73:-0.964602 74:-0.838298 75:-0.9875 76:-0.971292 77:-0.609562 78:-0.962025 79:-1 80:-0.988764 81:-0.941748 82:-0.753086 83:-0.972973 84:-0.807487 85:-0.808824 86:-0.981308 87:-1 88:-1 89:-0.959184 90:-0.854545 91:-1 92:-0.96 93:-0.513514 94:-0.914634 95:-0.977778 96:-0.968912 97:-0.884615 98:-0.766234 99:-0.964912 100:-0.940887 101:-0.906977 102:-0.966102 103:-0.986486 104:-0.987768 105:-1 106:-0.633333 107:-0.859649 108:-0.47651 109:-0.964912 110:-1 111:-1 112:-1 113:-0.987179 114:-0.971429 115:-0.976608 116:-0.989071 117:-0.830189 118:-0.852535 119:-0.96 120:-0.989637 121:-1 122:-1 123:-0.134503 124:-0.273684 125:-0.950413 126:-1 127:-1 128:-1 129:-1 130:-0.686957 131:-0.929825 132:-0.714286 133:-0.925926 134:-1 135:-0.985714 136:-1 137:-1 138:-0.573964 139:-0.929825 140:-0.71 141:-0.934959 142:-1 143:-0.990338 144:-1 145:-1 146:-0.68559 147:-0.9375 148:-0.694737 149:-0.924528 150:-1 151:-0.985915 152:-1 
1.3153836234546243 1:-0.650943 2:-0.971963 3:-0.990385 4:-0.989474 5:-1 6:-1 7:-0.852459 8:-0.5875 9:-0.975904 10:-0.990868 11:-0.971014 12:-0.902703 13:-0.866667 14:-0.610169 15:-0.953271 16:-0.990148 17:-1 18:-0.98773 19:-1 20:-0.9819 21:-0.537572 22:-0.322034 23:-0.954198 24:-1 25:-0.971831 26:-1 27:-0.971429 28:-0.966245 29:-0.846154 30:-0.676647 31:-0.860963 32:-0.976654 33:-0.986577 34:-1 35:-1 36:-0.979058 37:-0.83815 38:-0.435115 39:-0.877551 40:-0.993808 41:-1 42:-1 43:-1 44:-0.971429 45:-0.580645 46:-0.32 47:-0.972093 48:-1 49:-0.970803 50:-0.967568 51:-0.858974 52:-0.683616 53:-0.936709 54:-0.985185 55:-1 56:-1 57:-1 58:-1 59:-1 60:-1 61:-0.974026 62:-0.863014 63:-0.586538 64:-0.951691 65:-1 66:-0.990868 67:-0.986577 68:-0.804196 69:-0.70068 70:-0.832258 71:-0.971963 72:-0.990476 73:-1 74:-0.991489 75:-0.9875 76:-0.866029 77:-0.808765 78:-0.936709 79:-0.95082 80:-0.988764 81:-1 82:-0.983539 83:-0.972973 84:-0.775401 85:-0.75 86:-0.943925 87:-0.985507 88:-1 89:-0.986395 90:-0.990909 91:-0.953216 92:-0.72 93:-0.837838 94:-0.987805 95:-0.988889 96:-1 97:-0.948718 98:-0.987013 99:-0.988304 100:-0.990148 101:-0.962791 102:-0.915254 103:-0.905405 104:-0.981651 105:-0.987805 106:-1 107:-1 108:-1 109:-1 110:-1 111:-0.793103 112:-0.519737 113:-0.948718 114:-0.928571 115:-0.883041 116:-0.759563 117:-0.924528 118:-0.981567 119:-1 120:-0.989637 121:-0.833333 122:-0.826087 123:-0.929825 124:-0.842105 125:-0.966942 126:-0.97351 127:-1 128:-1 129:-0.975758 130:-0.991304 131:-0.988304 132:-0.950739 133:-0.5 134:-0.914894 135:-0.9 136:-0.992701 137:-0.9625 138:-0.952663 139:-0.976608 140:-0.91 141:-0.528455 142:-0.989529 143:-0.961353 144:-0.990148 145:-0.940828 146:-0.991266 147:-0.989583 148:-0.989474 149:-0.962264 150:-0.980861 151:-0.929577 152:-0.960159 
4.4059428149511177 1:-0.933962 2:-0.71028 3:-0.923077 4:-0.989474 5:-1 6:-0.834862 7:-0.95082 8:-0.975 9:-0.879518 10:-0.634703 11:-0.951691 12:-0.978378 13:-1 14:-0.966102 15:-0.981308 16:-0.990148 17:-0.77305 18:-0.226994 19:-0.952096 20:-1 21:-1 22:-0.966102 23:-0.984733 24:-0.989362 25:-0.676056 26:-0.73913 27:-0.942857 28:-1 29:-1 30:-0.976048 31:-0.989305 32:-0.976654 33:-0.651007 34:-0.483333 35:-0.988571 36:-1 37:-1 38:-1 39:-0.986395 40:-1 41:-0.580645 42:-0.729469 43:-0.949686 44:-0.985714 45:-0.983871 46:-0.973333 47:-0.972093 48:-0.972093 49:-1 50:-1 51:-1 52:-1 53:-1 54:-0.496296 55:-0.0804598 56:-1 57:-0.444444 58:-0.762557 59:-0.965714 60:-0.989583 61:-0.987013 62:-0.986301 63:-0.980769 64:-0.942029 65:-0.33913 66:-0.972603 67:-1 68:-1 69:-1 70:-0.987097 71:-0.925234 72:-0.828571 73:-0.769912 74:-0.685106 75:-0.9625 76:-0.990431 77:-1 78:-0.886076 79:-0.95082 80:-0.988764 81:-0.980583 82:-0.555556 83:-0.81982 84:-0.97861 85:-1 86:-0.906542 87:-0.985507 88:-1 89:-0.782313 90:-0.5 91:-0.976608 92:-1 93:-1 94:-0.97561 95:-0.955556 96:-0.989637 97:-1 98:-0.909091 99:-0.450292 100:-0.704433 101:-0.823256 102:-1 103:-1 104:-1 105:-0.756098 106:-0.966667 107:-1 108:-1 109:-1 110:-0.915663 111:-0.613793 112:-0.868421 113:-0.987179 114:-0.871429 115:-0.74269 116:-0.901639 117:-0.811321 118:-0.97235 119:-1 120:-1 121:-0.9375 122:-0.704348 123:-0.789474 124:-0.978947 125:-0.966942 126:-0.986755 127:-1 128:-1 129:-0.418182 130:-0.921739 131:-1 132:-1 133:-1 134:-0.978723 135:-0.928571 136:-0.905109 137:-1 138:-1 139:-1 140:-1 141:-1 142:0.329843 143:-0.961353 144:-1 145:-0.988166 146:-0.886463 147:-0.9375 148:-0.957895 149:-0.584906 150:-0.961722 151:-0.985915 152:-0.992032 
2.4355213249597623 1:-1 2:-1 3:-0.663462 4:-0.189474 5:-0.98995 6:-1 7:-1 8:-1 9:-1 10:-1 11:-0.613527 12:-0.286486 13:-0.97037 14:-1 15:-1 16:-1 17:-1 18:-0.889571 19:0.113772 20:-0.59276 21:-1 22:-1 23:-1 24:-1 25:-1 26:-0.162055 27:-0.7 28:-1 29:-1 30:-1 31:-1 32:-1 33:-0.986577 34:-0.925 35:0.942857 36:-0.842932 37:-1 38:-1 39:-1 40:-1 41:-1 42:-0.864734 43:0.735849 44:-0.514286 45:-1 46:-1 47:-1 48:-1 49:-0.985401 50:-0.675676 51:0.115385 52:-0.751412 53:-1 54:-1 55:-1 56:-1 57:-0.977778 58:-0.707763 59:0.04 60:-0.864583 61:-1 62:-1 63:-1 64:-1 65:-0.982609 66:-0.689498 67:-0.033557 68:-0.58042 69:-1 70:-1 71:-1 72:-1 73:-0.982301 74:-0.710638 75:0.5375 76:-0.550239 77:-1 78:-1 79:-1 80:-1 81:-1 82:-0.769547 83:0.018018 84:-0.272727 85:-1 86:-1 87:-1 88:-1 89:-1 90:-1 91:-0.906433 92:0.11 93:-0.986486 94:-1 95:-1 96:-1 97:-0.987179 98:-0.142857 99:-0.0409357 100:-0.970443 101:-1 102:-1 103:-1 104:-1 105:-0.987805 106:-0.633333 107:-0.28655 108:-0.704698 109:-0.929825 110:-1 111:-1 112:-1 113:-0.987179 114:-0.528571 115:-0.28655 116:-0.759563 117:-0.924528 118:-1 119:-1 120:-1 121:-0.979167 122:-0.713043 123:-0.28655 124:-0.768421 125:-0.933884 126:-1 127:-1 128:-1 129:-0.987879 130:-0.713043 131:-0.28655 132:-0.783251 133:-0.925926 134:-1 135:-1 136:-1 137:-0.9875 138:-0.609467 139:-0.28655 140:-0.78 141:-0.934959 142:-1 143:-1 144:-1 145:-0.988166 146:-0.71179 147:-0.364583 148:-0.768421 149:-0.924528 150:-1 151:-1 152:-1 
0.22319486943010844 1:-1 2:-1 3:-1 4:-1 5:-0.869347 6:-0.174312 7:-0.590164 8:-0.9875 9:-1 10:-1 11:-1 12:-0.989189 13:-0.925926 14:-0.389831 15:-0.700935 16:-0.980296 17:-1 18:-1 19:-1 20:-1 21:-0.988439 22:-0.875706 23:0.114504 24:-0.744681 25:-1 26:-1 27:-1 28:-1 29:-0.965812 30:-0.54491 31:-0.411765 32:-0.914397 33:-0.946309 34:-1 35:-1 36:-1 37:-0.988439 38:-0.862595 39:-0.55102 40:-0.764706 41:-1 42:-1 43:-1 44:-1 45:-0.741935 46:0.0133333 47:-0.767442 48:-1 49:-0.941606 50:-1 51:-1 52:-1 53:-1 54:-0.97037 55:-0.938697 56:-0.470588 57:-1 58:-1 59:-1 60:-1 61:-1 62:-0.958904 63:-0.0480769 64:-0.507246 65:-0.426087 66:-1 67:-1 68:-1 69:-1 70:-1 71:-0.981308 72:-0.4 73:-0.646018 74:-1 75:-1 76:-1 77:-1 78:-0.987342 79:-0.918033 80:-0.292135 81:-1 82:-1 83:-1 84:-0.989305 85:-0.970588 86:-0.271028 87:-0.347826 88:-0.990196 89:-1 90:-1 91:-1 92:-1 93:-1 94:-0.987805 95:-0.522222 96:-0.015544 97:-1 98:-1 99:-1 100:-1 101:-0.981395 102:-0.457627 103:-0.283784 104:-1 105:-0.963415 106:-1 107:-1 108:-1 109:-0.894737 110:-0.807229 111:-0.875862 112:-0.894737 113:-1 114:-1 115:-1 116:-1 117:-0.792453 118:-0.290323 119:-0.65 120:-1 121:-0.5 122:-0.991304 123:-1 124:-1 125:-1 126:-1 127:-0.981735 128:-0.25 129:-0.975758 130:-1 131:-1 132:-1 133:-0.907407 134:-0.744681 135:-0.857143 136:-0.846715 137:-1 138:-1 139:-1 140:-0.99 141:-0.96748 142:-0.811518 143:-0.497585 144:-0.950739 145:-0.952663 146:-0.973799 147:-0.96875 148:-0.978947 149:-0.943396 150:-0.990431 151:-0.985915 152:-0.992032 
1.2077596911903361 1:-1 2:-1 3:-0.980769 4:-0.389474 5:-0.366834 6:-1 7:-1 8:-1 9:-1 10:-1 11:-0.961353 12:0.318919 13:-0.97037 14:-1 15:-1 16:-1 17:-1 18:-1 19:-1 20:-0.900452 21:0.606936 22:-1 23:-1 24:-1 25:-1 26:-0.754941 27:-0.171429 28:-1 29:-1 30:-1 31:-1 32:-1 33:-1 34:-1 35:-0.885714 36:0.141361 37:-0.976879 38:-1 39:-1 40:-1 41:-1 42:-1 43:-0.937107 44:0.271429 45:-0.887097 46:-1 47:-1 48:-1 49:-1 50:-0.989189 51:-0.358974 52:-0.0169492 53:-1 54:-1 55:-1 56:-1 57:-1 58:-0.972603 59:-0.76 60:-0.09375 61:-1 62:-1 63:-1 64:-1 65:-1 66:-1 67:-0.771812 68:0.972028 69:-1 70:-1 71:-1 72:-1 73:-1 74:-1 75:-0.9875 76:0.119617 77:-0.936255 78:-1 79:-1 80:-1 81:-1 82:-1 83:-0.873874 84:0.0481283 85:-0.970588 86:-0.981308 87:-1 88:-1 89:-1 90:-0.990909 91:-0.847953 92:0.04 93:-0.986486 94:-1 95:-1 96:-1 97:-1 98:-1 99:-0.766082 100:0.359606 101:-0.990698 102:-1 103:-1 104:-1 105:-1 106:-1 107:-1 108:0.409396 109:-0.666667 110:-1 111:-1 112:-1 113:-1 114:-1 115:-0.637427 116:0.147541 117:-1 118:-1 119:-1 120:-1 121:-1 122:-1 123:-0.660819 124:0.157895 125:-1 126:-1 127:-1 128:-1 129:-1 130:-0.991304 131:-0.824561 132:-0.172414 133:-0.981481 134:-1 135:-1 136:-1 137:-0.975 138:-0.893491 139:-0.660819 140:-0.82 141:-0.98374 142:-0.989529 143:-1 144:-1 145:-1 146:-0.991266 147:-0.645833 148:-0.0842105 149:-1 150:-1 151:-1 152:-1 
1.9905207785284227 1:-1 2:-1 3:-0.586538 4:-0.136842 5:-1 6:-1 7:-1 8:-1 9:-1 10:-0.981735 11:0.217391 12:-0.0918919 13:-1 14:-1 15:-1 16:-1 17:-0.971631 18:-0.877301 19:0.640719 20:-0.61086 21:-0.976879 22:-1 23:-1 24:-1 25:-0.985915 26:-0.849802 27:0.871429 28:-0.670886 29:-0.982906 30:-1 31:-0.989305 32:-0.992218 33:-0.959732 34:-0.8 35:0.851429 36:-0.884817 37:-1 38:-1 39:-0.986395 40:-0.987616 41:-0.870968 42:-0.458937 43:0.308176 44:-0.8 45:-1 46:-1 47:-0.972093 48:-0.972093 49:-0.89781 50:-0.351351 51:0.435897 52:-0.853107 53:-1 54:-1 55:-0.984674 56:-0.964706 57:-0.777778 58:-0.515982 59:0.291429 60:-0.84375 61:-1 62:-1 63:-0.990385 64:-0.980676 65:-0.895652 66:-0.388128 67:0.194631 68:-0.916084 69:-1 70:-1 71:-0.990654 72:-0.980952 73:-0.858407 74:-0.251064 75:0.1125 76:-0.875598 77:-1 78:-1 79:-0.983607 80:-0.988764 81:-0.941748 82:-0.399177 83:-0.144144 84:-0.914439 85:-1 86:-1 87:-0.985507 88:-0.980392 89:-0.959184 90:-0.3 91:0.274854 92:-0.92 93:-1 94:-1 95:-0.977778 96:-0.979275 97:-0.961538 99:0.274854 100:-0.921182 101:-1 102:-1 103:-0.972973 104:-0.987768 105:-0.963415 106:-0.144444 107:0.274854 108:-0.892617 109:-1 110:-1 111:-0.972414 112:-0.986842 113:-0.961538 114:0.1 115:0.274854 116:-0.912568 117:-1 118:-1 119:-0.98 120:-0.979275 121:-0.9375 122:-0.330435 123:0.274854 124:-0.915789 125:-1 126:-1 127:-0.981735 128:-0.98 129:-0.963636 130:-0.330435 131:0.274854 132:-0.921182 133:-1 134:-1 135:-0.971429 136:-0.985401 137:-0.9625 138:-0.0887574 139:0.274854 140:-0.92 141:-1 142:-1 143:-0.980676 144:-0.980296 145:-0.964497 146:-0.327511 147:0.135417 148:-0.915789 149:-1 150:-1 151:-0.971831 152:-0.984064 
5.3113713106629508 1:-0.990566 2:-0.981308 3:-0.971154 4:-0.957895 5:-0.809045 6:-0.633028 7:-0.95082 8:-0.975 9:-1 10:-1 11:-0.990338 12:-0.167568 13:-0.0962963 14:-1 15:-1 16:-1 17:-1 18:-1 19:-0.820359 20:-0.303167 21:-0.410405 22:-1 23:-1 24:-1 25:-0.985915 26:-0.98419 27:-0.585714 28:-0.603376 29:-0.82906 30:-1 31:-1 32:-1 33:-1 34:-0.966667 35:-0.725714 36:-0.455497 37:-0.907514 38:-1 39:-1 40:-1 41:-1 42:-1 43:-0.886792 44:-0.4 45:-0.33871 46:-1 47:-1 48:-0.990698 49:-1 50:-0.989189 51:-0.75641 52:-0.299435 53:-0.974684 54:-1 55:-1 56:-1 57:-0.911111 58:-0.954338 59:-0.862857 60:-0.833333 61:-0.857143 62:-0.986301 63:-1 64:-1 65:-1 66:-0.990868 67:-0.919463 68:-0.86014 69:-0.768707 70:-0.677419 71:-0.990654 72:-0.952381 73:-1 74:-0.923404 75:-0.925 76:-0.923445 77:-0.832669 78:-0.822785 79:-0.967213 80:-0.988764 81:-1 82:-0.958848 83:-0.963964 84:-0.893048 85:-0.735294 86:-0.682243 87:-0.971014 88:-0.970588 89:-1 90:-0.981818 91:-0.976608 92:-0.93 93:-0.716216 94:-0.707317 95:-0.955556 96:-0.968912 97:-1 98:-1 99:-0.836257 100:-0.231527 101:-0.572093 102:-1 103:-1 104:-1 105:-0.987805 106:-0.988889 107:-0.964912 108:-0.932886 109:-0.631579 110:-0.710843 111:-0.958621 112:-0.986842 113:-1 114:-1 115:-0.660819 116:-0.191257 117:-0.962264 118:-1 119:-1 120:-1 121:-1 122:-1 123:-0.730994 124:-0.0631579 125:-0.983471 126:-1 127:-1 128:-1 129:-1 130:-1 131:-0.614035 132:-0.192118 133:-0.962963 134:-1 135:-1 136:-1 137:-1 138:-1 139:-0.766082 140:-0.08 141:-0.96748 142:-1 143:-1 144:-1 145:-1 146:-1 147:-0.697917 148:-0.0421053 149:-0.962264 150:-1 151:-1 152:-1 
5.3687451470486032 1:-1 2:-1 3:-0.990385 4:0.231579 5:-0.859296 6:-1 7:-1 8:-1 9:-0.951807 10:-0.96347 11:-0.990338 12:-0.967568 13:-0.97037 14:-0.949153 15:-0.981308 16:-0.970443 17:-1 18:-0.98773 19:-0.676647 20:-0.411765 21:-0.988439 22:-1 23:-1 24:-1 25:-1 26:-0.992095 27:-0.671429 28:-0.35865 29:-0.982906 30:-1 31:-1 32:-1 33:-1 34:-1 35:-0.782857 36:-0.13089 37:-0.976879 38:-1 39:-1 40:-1 41:-1 42:-1 43:-0.786164 44:0.3 45:-0.967742 46:-1 47:-1 48:-1 49:-1 50:-1 51:-0.807692 52:0.107345 53:-0.987342 54:-1 55:-1 56:-1 57:-1 58:-1 59:-0.794286 60:0.03125 61:-1 62:-1 63:-1 64:-1 65:-1 66:-1 67:-0.785235 68:0.566434 69:-1 70:-1 71:-1 72:-1 73:-0.752212 74:-0.634043 75:-0.9625 76:-1 77:-1 78:-1 79:-1 80:-0.988764 81:-0.883495 82:-0.670782 83:-0.954955 84:-1 85:-1 86:-1 87:-1 88:-1 89:-0.836735 90:-0.809091 91:-0.918129 92:-0.95 93:-0.986486 94:-0.987805 95:-0.988889 96:-0.968912 97:-0.987179 98:-0.974026 99:-0.883041 100:-0.546798 101:-0.944186 102:-1 103:-1 104:-1 105:-0.902439 106:-0.577778 107:-0.906433 108:-0.986577 109:-1 110:-1 111:-1 112:-0.986842 113:-0.871795 114:-0.342857 115:-0.953216 116:-1 117:-1 118:-1 119:-1 120:-1 121:-0.958333 122:-0.982609 123:-0.976608 124:-0.968421 125:-0.917355 126:-0.97351 127:-0.990868 128:-0.98 129:-0.854545 130:-0.608696 131:-0.953216 132:-1 133:-1 134:-1 135:-1 136:-1 137:-0.875 138:-0.514793 139:-0.929825 140:-0.99 141:-1 142:-1 143:-1 144:-0.980296 145:-0.857988 146:-0.633188 147:-0.96875 148:-0.989474 149:-1 150:-1 151:-1 152:-0.992032 
1.8948637017261802 1:-1 2:-0.990654 3:-0.894231 4:-0.705263 5:-0.698492 6:-0.981651 7:-1 8:-1 9:-0.963855 10:-0.954338 11:-0.942029 12:-0.87027 13:-0.911111 14:-0.949153 15:-1 16:-1 17:-0.929078 18:-0.95092 19:-0.952096 20:-0.900452 21:-0.930636 22:-0.954802 23:-1 24:-0.989362 25:-0.985915 26:-0.98419 27:-0.985714 28:-0.974684 29:-0.726496 30:-0.748503 31:-0.957219 32:-0.992218 33:-0.919463 34:-0.925 35:-0.942857 36:-0.905759 37:-0.953757 38:-0.969466 39:-1 40:-0.993808 41:-0.854839 42:-0.884058 43:-0.924528 44:-0.885714 45:-0.967742 46:-0.986667 47:-1 48:-0.990698 49:-0.854015 50:-0.794595 51:-0.961538 52:-0.954802 53:-0.974684 54:-0.985185 55:-1 56:-0.988235 57:-1 58:-0.525114 59:-0.474286 60:-0.989583 61:-1 62:-1 63:-1 64:-1 65:-1 66:-0.525114 67:-0.38255 68:-0.986014 69:-1 70:-1 71:-1 72:-1 73:-1 74:-0.557447 75:-0.425 76:-0.990431 77:-1 78:-1 79:-1 80:-1 81:-1 82:-0.572016 83:-0.585586 84:-0.989305 85:-1 86:-1 87:-1 88:-1 89:-1 90:-0.527273 91:-0.461988 92:-0.99 93:-1 94:-1 95:-1 96:-1 97:-1 98:-0.324675 99:-0.461988 100:-0.990148 101:-1 102:-1 103:-1 104:-1 105:-1 106:-0.422222 107:-0.461988 108:-0.986577 109:-1 110:-1 111:-1 112:-1 113:-1 114:-0.257143 115:-0.461988 116:-0.989071 117:-1 118:-1 119:-1 120:-1 121:-1 122:-0.547826 123:-0.461988 124:-0.989474 125:-1 126:-1 127:-1 128:-1 129:-1 130:-0.547826 131:-0.461988 132:-0.990148 133:-1 134:-1 135:-1 136:-1 137:-1 138:-0.384615 139:-0.461988 140:-0.99 141:-1 142:-1 143:-1 144:-1 145:-1 146:-0.545852 147:-0.520833 148:-0.989474 149:-1 150:-1 151:-1 152:-1 
0.32637612021300355 1:-1 2:-1 3:-0.826923 4:-0.0842105 5:-0.98995 6:-1 7:-1 8:-1 9:-1 10:-1 11:-0.874396 12:0.0378378 13:-1 14:-1 15:-1 16:-1 17:-0.673759 18:-0.889571 19:-0.964072 20:-0.963801 21:-0.976879 22:-0.988701 23:-1 24:-0.989362 25:-0.901408 26:-0.976285 27:-0.971429 28:-0.974684 29:-0.965812 30:-0.988024 31:-0.989305 32:-0.984436 33:-0.932886 34:-0.966667 35:-0.965714 36:-0.958115 37:-0.988439 38:-0.984733 39:-1 40:-0.993808 41:-0.870968 42:-0.971014 43:-0.974843 44:-0.942857 45:-0.983871 46:-0.986667 47:-0.990698 48:-0.972093 49:-1 50:-0.978378 51:-0.974359 52:0.0508475 53:-0.987342 54:-1 55:-1 56:-1 57:-0.777778 58:-0.972603 59:-0.977143 60:-0.958333 61:-0.987013 62:-1 63:-1 64:-0.980676 65:-1 66:-0.972603 67:-0.503356 68:-0.468531 69:-1 70:-1 71:-1 72:-1 73:-0.982301 74:-0.965957 75:-0.625 76:-0.712919 77:-0.984064 78:-1 79:-1 80:-1 81:-0.980583 82:-0.99177 83:-0.837838 84:-0.839572 85:-0.823529 86:-0.88785 87:-0.985507 88:-0.990196 89:-1 90:-1 91:-0.847953 92:-0.9 93:-0.837838 94:-0.634146 95:-0.944444 96:-1 97:-1 98:-0.974026 99:-0.953216 100:-0.980296 101:-0.897674 102:-0.762712 103:-0.824324 104:-0.975535 105:-0.987805 106:-0.966667 107:-0.976608 108:-0.758389 109:-0.0175439 110:-0.915663 111:-1 112:-1 113:-1 114:-1 115:-0.953216 116:-0.803279 117:-0.641509 118:-0.843318 119:-0.97 120:-0.968912 121:-0.791667 122:-0.904348 123:-0.824561 124:-0.863158 125:-0.950413 126:-1 127:-1 128:-0.99 129:-1 130:-1 131:-0.929825 132:-0.881773 133:-0.574074 134:-0.255319 135:-0.971429 136:-0.978102 137:-1 138:-1 139:-0.964912 140:-0.8 141:-0.739837 142:-0.842932 143:-0.961353 144:-0.980296 145:-1 146:-0.982533 147:-0.927083 148:-0.863158 149:0.471698 150:-0.913876 151:-1 152:-1 
6.2623335777472224 1:-0.726415 2:-0.654206 3:-0.971154 4:-1 5:-1 6:-1 7:-1 8:-1 9:-1 10:-0.96347 11:-0.864734 12:-0.254054 13:-0.985185 14:-1 15:-1 16:-1 17:-0.900709 18:-0.754601 19:-0.736527 20:-0.99095 21:-0.988439 22:-1 23:-0.984733 24:-0.978723 25:-0.887324 26:-0.478261 27:-0.814286 28:-0.991561 29:-1 30:-1 31:-0.946524 32:-0.929961 33:-0.959732 34:-0.991667 35:-0.931429 36:-0.863874 37:-0.930636 38:-0.984733 39:-0.986395 40:-0.993808 41:-0.935484 42:-0.729469 43:-0.698113 44:-0.985714 45:-1 46:-1 47:-1 48:-1 49:-1 50:-1 51:-0.974359 52:-0.242938 53:-0.734177 54:-1 55:-1 56:-1 57:-0.955556 58:-0.625571 59:-0.714286 60:-0.989583 61:-1 62:-1 63:-1 64:-1 65:-0.930435 66:-0.990868 67:-1 68:-0.986014 69:-0.986395 70:-0.987097 71:-0.953271 72:-0.838095 73:-1 74:-0.855319 75:0.05 76:-0.961722 77:-1 78:-1 79:-1 80:-1 81:-0.718447 82:-0.967078 83:-0.981982 84:-1 85:-1 86:-1 87:-0.985507 88:-0.862745 89:-1 90:-0.9 91:-0.333333 92:-0.87 93:-0.986486 94:-1 95:-1 96:-1 97:-1 98:-0.857143 99:-0.333333 100:-0.871921 101:-0.990698 102:-1 103:-1 104:-1 105:-1 106:-0.877778 107:-0.333333 108:-0.825503 109:-0.982456 110:-1 111:-1 112:-1 113:-1 114:-0.842857 115:-0.333333 116:-0.857923 117:-0.981132 118:-1 119:-1 120:-1 121:-1 122:-0.904348 123:-0.333333 124:-0.863158 125:-0.983471 126:-1 127:-1 128:-1 129:-1 130:-0.904348 131:-0.333333 132:-0.871921 133:-0.981481 134:-1 135:-1 136:-1 137:-1 138:-0.869822 139:-0.333333 140:-0.87 141:-0.98374 142:-1 143:-1 144:-1 145:-1 146:-0.90393 147:-0.40625 148:-0.863158 149:-0.981132 150:-1 151:-1 152:-1 
8 1:-1 2:-0.990654 3:-0.740385 4:-0.715789 5:-0.979899 6:-1 7:-1 8:-1 9:-0.253012 10:-0.96347 11:-1 12:-1 13:-1 14:-1 15:-0.990654 16:-0.753695 17:-1 18:-0.97546 19:-0.688623 20:-0.20362 21:-0.919075 22:-0.988701 23:-1 24:-1 25:-0.915493 26:-1 27:-1 28:-1 29:-1 30:-1 31:-0.989305 32:-0.159533 33:-0.865772 34:-1 35:-1 36:-1 37:-1 38:-1 39:-0.986395 40:-0.331269 41:-0.0806452 42:-1 43:-1 44:-1 45:-1 46:-1 47:-1 48:-0.869767 49:-0.781022 50:-1 51:-1 52:-1 53:-1 54:-1 55:-0.984674 56:0.129412 57:-0.755556 58:-0.716895 59:-0.92 60:-0.979167 61:-1 62:-1 63:-1 64:-1 65:-0.913043 66:-1 67:-1 68:-1 69:-1 70:-0.96129 71:-0.88785 72:-0.152381 73:-0.646018 74:-1 75:-1 76:-1 77:-1 78:-1 79:-0.983607 81:-0.747573 82:-1 83:-1 84:-1 85:-1 86:-1 87:-0.985507 88:-0.0980392 89:-0.00680272 90:-0.909091 91:-0.988304 92:-1 93:-1 94:-1 95:-1 96:-0.803109 97:-0.730769 98:-1 99:-1 100:-1 101:-1 102:-1 103:-0.986486 104:-0.33945 105:-0.97561 106:-0.888889 107:-0.321637 108:-0.610738 109:-0.982456 110:-0.975904 111:-0.944828 112:-0.986842 113:-0.679487 114:-0.942857 115:-1 116:-0.989071 117:-1 118:-0.990783 119:-0.97 120:-0.948187 121:-0.375 122:-0.991304 123:-1 124:-1 125:-1 126:-1 127:-0.981735 128:-0.81 129:-0.915152 130:-1 131:-1 132:-1 133:-1 134:-1 135:-0.957143 136:-0.350365 137:-0.9125 138:-0.928994 139:-0.929825 140:-0.89 141:-0.918699 142:-0.979058 143:-0.990338 144:-0.990148 145:-1 146:-1 147:-1 148:-1 149:-1 150:-1 151:-0.647887 152:-0.195219 
1.5088344023271336 1:-0.990566 2:-0.990654 3:-1 4:-1 5:-1 6:-0.981651 7:-0.491803 8:-0.7 9:-0.975904 10:-0.96347 11:-0.961353 12:-0.102703 13:-0.762963 14:-0.983051 15:-1 16:-1 17:-1 18:-1 19:-1 20:-0.954751 21:-0.410405 22:-0.932203 23:-0.969466 24:-0.989362 25:-1 26:-0.992095 27:-0.985714 28:-0.940928 29:-0.504274 30:-0.856287 31:-0.935829 32:-0.992218 33:-1 34:-1 35:-1 36:-1 37:-0.884393 38:-0.832061 39:-0.537415 40:-0.925697 41:-1 42:-1 43:-1 44:-0.657143 45:-0.322581 46:-0.853333 47:-0.990698 48:-1 49:-1 50:-1 51:-1 52:-1 53:-0.936709 54:-0.777778 55:-0.586207 56:-0.741176 57:-1 58:-1 59:-1 60:-0.989583 61:-0.974026 62:-0.712329 63:-0.548077 64:-0.855072 65:-1 66:-1 67:-1 68:-0.846154 69:-0.823129 70:-0.187097 71:-0.943925 72:-0.980952 73:-1 74:-1 75:-1 76:-0.875598 77:-0.912351 78:-0.101266 79:-0.852459 80:-0.977528 81:-0.980583 82:-0.942387 83:-0.945946 84:-0.262032 85:-0.794118 86:-0.962617 87:-0.971014 88:-1 89:-0.931973 90:-1 91:-1 92:-1 93:-0.986486 94:-0.792683 95:-0.355556 96:-0.813472 97:-1 98:-1 99:-0.94152 100:-0.901478 101:-0.646512 102:-0.40678 103:-0.932432 104:-0.987768 105:-1 106:-1 107:-1 108:-1 109:-1 110:-0.759036 111:-0.0344828 112:-0.888158 113:-1 114:-1 115:-0.94152 116:-0.912568 117:-0.169811 118:-0.705069 119:-0.96 120:-1 121:-1 122:-1 123:-0.988304 124:-0.894737 125:-0.768595 126:-0.0728477 127:-0.926941 128:-1 129:-1 130:-1 131:-1 132:-1 133:-0.981481 134:-0.361702 135:-0.0285714 136:-0.963504 137:-0.9875 138:-1 139:-1 140:-1 141:-0.98374 142:-0.528796 143:-0.516908 144:-0.931034 145:-1 146:-0.991266 147:-0.989583 148:-0.978947 149:-0.358491 150:-0.722488 151:-0.84507 152:-0.992032 
2.9152014591533 1:-1 2:-1 3:-0.634615 4:0.189474 5:-1 6:-1 7:-1 8:-1 9:-0.879518 10:-0.616438 11:-0.961353 12:-1 13:-1 14:-1 15:-1 16:-1 17:-1 18:-1 19:-0.640719 20:0.0769231 21:-1 22:-1 23:-1 24:-1 25:-1 26:-1 27:-0.885714 28:-0.0548523 29:-1 30:-1 31:-1 32:-1 33:-0.973154 34:-0.708333 35:-0.862857 36:-0.979058 37:-1 38:-0.984733 39:-1 40:-1 41:-0.983871 42:-0.652174 43:-0.861635 44:-0.971429 45:-1 46:-1 47:-1 48:-1 49:-1 50:-0.989189 51:0.25641 52:-0.841808 53:-1 54:-1 55:-1 56:-1 57:-1 58:-0.990868 59:-0.348571 60:-0.770833 61:-1 62:-1 63:-1 64:-1 65:-1 66:-1 67:0.315436 68:-0.79021 69:-1 70:-1 71:-1 72:-1 73:-0.946903 74:-0.829787 75:-0.3125 76:-0.368421 77:-0.984064 78:-0.987342 79:-0.983607 80:-0.966292 81:-1 82:-0.884774 83:-0.576577 84:-0.893048 85:-1 86:-1 87:-1 88:-1 89:-0.959184 90:-0.845455 91:-0.181287 92:-0.44 93:-0.986486 94:-1 95:-1 96:-0.968912 97:-0.794872 98:-0.519481 99:-0.298246 100:-0.605911 101:-0.981395 102:-0.983051 103:-1 104:-1 105:-0.841463 106:-0.777778 107:-0.309942 108:-0.302013 109:-0.982456 110:-1 111:-1 112:-0.980263 113:-0.858974 114:-0.585714 115:-0.356725 116:-0.519126 117:-0.943396 118:-1 119:-1 120:-0.989637 121:-0.833333 122:-0.86087 123:-0.403509 124:-0.357895 125:-0.785124 126:-1 127:-1 128:-1 129:-0.963636 130:-0.947826 131:-0.309942 132:-0.221675 133:-0.962963 134:-1 135:-1 136:-0.978102 137:-0.875 138:-0.775148 139:-0.181287 140:-0.76 141:-0.98374 142:-1 143:-1 144:-0.980296 145:-1 146:-0.991266 147:0.03125 148:-0.663158 149:-1 150:-1 151:-1 152:-1 
5.8404172571652619 1:-1 2:-0.186916 3:-0.846154 4:-0.989474 5:-1 6:-1 7:-1 8:-1 9:-0.783133 10:-0.680365 11:-0.971014 12:-0.989189 13:-1 14:-1 15:-1 16:-1 17:-0.659574 18:-0.276074 19:-0.952096 20:-0.99095 21:-1 22:-1 23:-0.984733 24:-0.989362 25:-0.943662 26:-1 27:-1 28:-1 29:-0.931624 30:-0.952096 31:-0.860963 32:-0.929961 33:-0.946309 34:-0.991667 35:-0.988571 36:-0.874346 37:-0.803468 38:-0.923664 39:-0.945578 40:-0.975232 41:-0.387097 42:-0.980676 43:-1 44:-0.985714 45:-1 46:-0.986667 47:-1 48:-0.404651 49:-0.868613 50:-0.956757 51:-0.948718 52:-1 53:-0.962025 54:-0.866667 55:-0.908046 56:-0.588235 57:-0.777778 58:-0.96347 59:-0.76 60:-0.916667 61:-0.909091 62:-0.986301 63:-0.990385 64:-0.961353 65:-0.6 66:-0.990868 67:-0.986577 68:-0.986014 69:-1 70:-0.974194 71:-0.934579 72:-0.333333 73:-0.716814 74:-0.940426 75:-1 76:-1 77:-0.992032 78:-0.962025 79:-0.95082 80:-0.314607 81:-0.883495 82:-0.884774 83:-0.954955 84:-1 85:-0.985294 86:-0.981308 87:-0.971014 88:-0.686275 89:-0.877551 90:-0.936364 91:-0.918129 92:-0.99 93:-0.986486 94:-0.987805 95:-0.977778 96:-0.606218 97:-0.910256 98:-0.831169 99:-0.964912 100:-1 101:-0.990698 102:-0.966102 103:-0.959459 104:-0.749235 105:-0.914634 106:-0.855556 107:-0.964912 108:-1 109:-0.982456 110:-0.975904 111:-0.958621 112:-0.730263 113:-0.910256 114:-0.814286 115:-0.964912 116:-1 117:-0.981132 118:-0.981567 119:-0.97 120:-0.57513 121:-0.854167 122:-0.886957 123:-0.964912 124:-1 125:-0.983471 126:-0.97351 127:-0.972603 128:-0.59 129:-0.915152 130:-0.886957 131:-0.964912 132:-1 133:-0.981481 134:-0.957447 135:-0.957143 136:-0.70073 137:-0.9125 138:-0.846154 139:-0.964912 140:-1 141:-0.98374 142:-0.979058 143:-0.971014 144:-0.596059 145:-0.91716 146:-0.886463 147:-0.96875 148:-1 149:-0.981132 150:-0.980861 151:-0.957746 152:-0.673307 
4.7039179807462732 1:-0.962264 2:-0.990654 3:-0.990385 4:-0.978947 5:-0.959799 6:-0.981651 7:-0.967213 8:-0.9375 9:-0.987952 10:-0.990868 11:-0.951691 12:-0.481081 13:-1 14:-1 15:-1 16:-1 17:-1 18:0.435583 19:-0.904192 20:-1 21:-1 22:-1 23:-1 24:-1 25:-0.971831 26:-0.992095 27:-0.985714 28:-0.983122 29:-0.931624 30:-0.976048 31:-0.97861 32:-0.976654 33:-0.812081 34:-0.675 35:-0.988571 36:-1 37:-1 38:-1 39:-1 40:-1 41:-1 42:-0.990338 43:-0.924528 44:-0.271429 45:-0.983871 46:-1 47:-1 48:-1 49:-0.985401 50:-0.978378 51:-0.935897 52:-0.468927 53:-0.987342 54:-1 55:-1 56:-1 57:-0.933333 58:-1 59:-1 60:-0.989583 61:-0.935065 62:-0.972603 63:-0.951923 64:-0.922705 65:-0.913043 66:-0.981735 67:-0.986577 68:-0.944056 69:-0.959184 70:-0.987097 71:-0.990654 72:-0.971429 73:-0.982301 74:-0.148936 75:-0.925 76:-1 77:-1 78:-1 79:-1 80:-1 81:-0.990291 82:-0.958848 83:0.036036 84:-0.903743 85:-1 86:-1 87:-1 88:-1 89:-0.986395 90:-1 91:-1 92:-1 93:-0.945946 94:-0.914634 95:-0.877778 96:-0.927461 97:-1 98:-1 99:-0.976608 100:-0.655172 101:-0.823256 102:-0.966102 103:-1 104:-1 105:-1 106:-0.988889 107:-0.345029 108:-0.463087 109:-1 110:-1 111:-1 112:-1 113:-1 114:-0.985714 115:-0.345029 116:-0.562842 117:-1 118:-1 119:-1 120:-1 121:-1 122:-0.991304 123:-0.345029 124:-0.578947 125:-1 126:-1 127:-1 128:-1 129:-1 130:-0.991304 131:-0.345029 132:-0.605911 133:-1 134:-1 135:-1 136:-1 137:-1 138:-0.988166 139:-0.345029 140:-0.6 141:-1 142:-1 143:-1 144:-1 145:-1 146:-0.991266 147:-0.416667 148:-0.578947 149:-1 150:-1 151:-1 152:-1 
4.9024878335745168 1:-1 2:-0.990654 3:-0.855769 4:-0.526316 5:-0.98995 6:-1 7:-1 8:-1 9:-0.0843373 10:-1 11:-1 12:-1 13:-1 14:-1 15:-1 16:-0.91133 17:-1 18:-0.98773 19:-0.748503 20:-0.511312 21:-1 22:-1 23:-1 24:-1 25:-1 26:-0.98419 27:-0.757143 28:-0.510549 29:-1 30:-1 31:-1 32:-1 33:-1 34:-1 35:-0.954286 36:-0.65445 37:-0.398844 38:-1 39:-1 40:-1 41:-0.33871 42:-0.748792 43:-0.987421 44:-1 45:-1 46:-1 47:-0.981395 48:-0.72093 49:-1 50:-0.978378 51:-0.679487 52:-0.468927 53:-0.987342 54:-1 55:-1 56:-1 57:-1 58:-0.981735 59:-0.76 60:-0.510417 61:-1 62:-1 63:-1 64:-1 65:-1 66:-0.972603 67:-0.785235 68:-0.342657 69:-0.986395 70:-1 71:-1 72:-1 73:-1 74:-0.982979 75:-0.85 76:-0.483254 77:-0.992032 78:-1 79:-1 80:-1 81:-0.980583 82:-0.983539 83:-0.972973 84:-0.957219 85:-0.926471 86:-0.981308 87:-0.971014 88:-0.990196 89:-1 90:-1 91:-0.836257 92:-0.49 93:-0.945946 94:-1 95:-1 96:-1 97:-0.961538 98:-0.987013 99:-0.976608 100:-0.931034 101:-0.972093 102:-0.983051 103:-0.959459 104:-0.981651 105:-0.987805 106:-0.977778 107:-0.80117 108:-0.328859 109:-0.947368 110:-1 111:-1 112:-1 113:-1 114:-0.371429 115:0.0526316 116:-0.978142 117:-1 118:-1 119:-1 120:-1 121:-1 122:-0.973913 123:-0.754386 124:-0.515789 125:-0.983471 126:-1 127:-1 128:-1 129:-1 130:-1 131:-0.894737 132:-0.674877 133:-0.111111 134:-1 135:-1 136:-1 137:-0.9875 138:-0.976331 139:-0.730994 140:-0.54 141:-0.98374 142:-1 143:-1 144:-1 145:-1 146:-0.982533 147:-0.75 148:-0.484211 149:-0.981132 150:-1 151:-1 152:-1 
1.1716714054161013 1:-0.981132 2:-1 3:-1 4:-1 5:-1 6:-0.944954 7:-0.770492 8:-0.5375 9:-0.927711 10:-0.96347 11:-0.961353 12:-0.956757 13:-0.97037 14:-1 15:-1 16:-0.990148 17:-0.914894 18:0.300613 19:-0.928144 20:-1 21:-1 22:-1 23:-1 24:-1 25:-0.943662 26:-0.944664 27:-0.914286 28:-0.966245 29:-0.948718 30:-0.988024 31:-0.989305 32:-1 33:-1 34:-1 35:-0.954286 36:-0.968586 37:-0.780347 38:-0.648855 39:-0.972789 40:-1 41:-0.887097 42:-0.922705 43:-0.924528 44:-0.942857 45:-0.983871 46:-1 47:-1 48:-0.990698 49:-0.927007 50:-0.891892 51:-0.897436 52:-0.966102 53:-0.974684 54:-1 55:-1 56:-1 57:-1 58:-0.990868 59:-0.988571 60:-1 61:-0.987013 62:-0.821918 63:-0.519231 64:-0.951691 65:-1 66:-1 67:-0.959732 68:-0.958042 69:-0.782313 70:-0.651613 71:-0.981308 72:-0.990476 73:-0.858407 74:-0.991489 75:-1 76:-1 77:-1 78:-0.987342 79:-0.918033 80:-0.550562 81:-1 82:-0.99177 83:-0.990991 84:-1 85:-1 86:-0.775701 87:-0.217391 88:-0.941176 89:-0.387755 90:-0.763636 91:-0.988304 92:-1 93:-1 94:-1 95:-1 96:-1 97:-0.884615 98:-0.87013 99:-0.953216 100:-0.980296 101:-1 102:-1 103:-0.986486 104:-0.993884 105:-0.939024 106:-0.822222 107:-0.859649 108:-0.946309 109:-0.964912 110:-1 111:-1 112:-1 113:-0.602564 114:-1 115:-1 116:-1 117:-1 118:-1 119:-1 120:0.129534 121:-0.395833 122:-1 123:-1 124:-1 125:-1 126:-1 127:-1 128:0.08 129:-0.757576 130:-1 131:-1 132:-1 133:-1 134:-1 135:-1 136:-0.255474 137:-0.9375 138:-0.928994 139:-0.918129 140:-0.96 141:-0.96748 142:-0.989529 143:-1 144:-0.990148 145:-0.751479 146:-0.0305677 147:-1 148:-1 149:-1 150:-1 151:-1 152:-1 
3.7761990642199876 1:-1 2:-1 3:-1 4:-0.915789 5:-0.286432 6:-1 7:-1 8:-1 9:-1 10:-1 11:-1 12:-1 13:-0.940741 14:-0.118644 15:-0.401869 16:-0.980296 17:-0.985816 18:-0.840491 19:-0.988024 20:-1 21:-1 22:-0.966102 23:0.114504 24:-0.62766 25:-1 26:-1 27:-0.985714 28:-0.991561 29:-0.982906 30:-0.832335 31:0.13369 32:-0.984436 33:-1 34:-0.883333 35:-0.908571 36:-1 37:-0.988439 38:-0.954198 39:0.129252 40:-0.950464 41:-1 42:-1 43:-0.937107 44:-0.285714 45:-0.790323 46:-1 47:-1 48:-1 49:-1 50:-1 51:-1 52:-0.672316 53:-0.924051 54:0.0666667 55:-0.747126 56:-0.988235 57:-0.977778 58:-0.890411 59:-0.988571 60:-1 61:-1 62:-0.945205 63:-0.144231 64:-0.748792 65:-1 66:-0.990868 67:-0.986577 68:-0.986014 69:-0.986395 70:-0.858065 71:-0.0186916 72:-0.885714 73:-0.982301 74:-0.87234 75:-0.9875 76:-1 77:-1 78:-0.949367 79:0.229508 80:-0.685393 81:-1 82:-1 83:-0.990991 84:-0.989305 85:-1 86:-0.831776 87:0.347826 88:-0.882353 89:-1 90:-1 91:-1 92:-1 93:-1 94:-0.304878 95:0.111111 96:-0.989637 97:-1 98:-1 99:-0.988304 100:-0.694581 101:-0.916279 102:-0.474576 103:-0.608108 104:-0.993884 105:-0.97561 106:-0.866667 107:-1 108:-1 109:-1 110:-0.975904 111:-0.337931 112:-0.703947 113:-0.974359 114:-0.828571 115:-1 116:-1 117:-1 118:-0.981567 119:-0.52 120:-0.533679 121:-0.958333 122:-0.895652 123:-1 124:-1 125:-1 126:-0.97351 127:-0.561644 128:-0.55 129:-0.975758 130:-0.895652 131:-1 132:-1 133:-1 134:-0.957447 135:-0.314286 136:-0.671533 137:-0.975 138:-0.857988 139:-1 140:-1 141:-1 142:-0.979058 143:-0.536232 144:-0.55665 145:-0.976331 146:-0.895197 147:-1 148:-1 149:-1 150:-0.980861 151:-0.323944 152:-0.641434 
3.8926378599916514 1:-0.971698 2:-1 3:-0.980769 4:-0.957895 5:-0.909548 6:-0.87156 7:-0.377049 8:-0.8875 9:-0.987952 10:-0.990868 11:-0.971014 12:-0.989189 13:-0.940741 14:-0.847458 15:-0.728972 16:-0.921182 17:-0.971631 18:-0.98773 19:-0.976048 20:-0.99095 21:-0.884393 22:-0.932203 23:-0.480916 24:-0.957447 25:-0.971831 26:-0.992095 27:-0.957143 28:-0.983122 29:-0.863248 30:-0.928144 31:-0.604278 32:-0.976654 33:-0.959732 34:-0.9 35:-0.977143 36:-0.968586 37:-0.988439 38:-0.847328 39:-0.70068 40:-0.987616 41:-1 42:-0.980676 43:-0.924528 44:-0.985714 45:-0.951613 46:-0.88 47:-0.655814 48:-0.962791 49:0.0948905 50:-0.967568 51:-1 52:-1 53:-1 54:-1 55:-1 56:-0.964706 57:-1 58:-1 59:-1 60:-0.979167 61:-0.987013 62:-0.753425 63:-0.673077 64:-0.942029 65:-0.982609 66:-1 67:-0.959732 68:-1 69:-1 70:-0.870968 71:-0.495327 72:-0.952381 73:-1 74:-0.957447 75:-0.95 76:-0.980861 77:-0.960159 78:-0.759494 79:-0.57377 80:-0.977528 81:-1 82:-1 83:-0.990991 84:-1 85:-1 86:-0.88785 87:-0.188406 88:-0.941176 89:-1 90:-1 91:-0.988304 92:-1 93:-0.986486 94:-0.890244 95:-0.377778 96:-0.937824 97:-1 98:-0.987013 99:-0.988304 100:-1 101:-1 102:-0.813559 103:-0.243243 104:-0.975535 105:-1 106:-1 107:-0.812865 108:-0.946309 109:-0.964912 110:-0.590361 111:-0.862069 112:-0.993421 113:-1 114:-0.971429 115:-0.918129 116:-0.956284 117:-0.90566 118:-0.778802 119:-0.81 120:-0.958549 121:-1 122:-1 123:-0.988304 124:-1 125:-1 126:-0.81457 127:-0.424658 128:-0.96 129:-0.987879 130:-1 131:-1 132:-0.990148 133:-0.888889 134:-0.510638 135:-0.585714 136:-0.963504 137:-0.9875 138:-1 139:-1 140:-1 141:-1 142:-1 143:-0.864734 144:-0.270936 145:-1 146:-1 147:-1 148:-1 149:-1 150:-0.904306 151:-0.225352 152:-0.952191 
0.52625853527257371 1:-0.981132 2:-0.981308 3:-0.980769 4:-0.957895 5:-0.939698 6:-0.981651 7:-0.983607 8:-0.9875 9:-0.975904 10:-1 11:-1 12:-1 13:-1 14:-1 15:-1 16:0.231527 17:-0.787234 18:-0.705521 19:-0.94012 20:-1 21:-1 22:-1 23:-0.984733 24:-0.957447 25:-0.774648 26:-0.849802 27:-0.942857 28:-0.974684 29:-1 30:-1 31:-0.967914 32:-0.976654 33:-0.489933 34:-0.925 35:-0.965714 36:-0.979058 37:-1 38:-1 39:-1 40:-0.96904 41:0.596774 42:-0.922705 43:-1 44:-1 45:-1 46:-1 47:-0.990698 48:-0.869767 49:-0.576642 50:-0.989189 51:-1 52:-1 53:-1 54:-1 55:-1 56:-0.564706 57:-0.977778 58:-0.954338 59:-0.874286 60:-0.989583 61:-0.948052 62:-0.876712 63:-0.913462 64:-0.980676 65:-1 66:-0.917808 67:-0.946309 68:-0.986014 69:-0.904762 70:-0.780645 71:-0.915888 72:-0.990476 73:-0.469027 74:-1 75:-1 76:-1 77:-1 78:-0.987342 79:-0.786885 80:-0.258427 81:-0.621359 82:-1 83:-1 84:-1 85:-1 86:-1 87:-0.971014 88:-0.264706 89:-0.972789 90:-0.936364 91:-0.953216 92:-0.99 93:-0.959459 94:-0.97561 95:-0.888889 96:-0.927461 97:-1 98:-0.961039 99:-0.883041 100:-0.990148 101:-0.87907 102:-0.559322 103:-0.905405 104:-1 105:-1 106:-0.988889 107:-0.976608 108:-0.973154 109:-0.719298 110:-0.60241 111:-0.903448 112:-1 113:-0.730769 114:-1 115:-1 116:-1 117:-1 118:-0.981567 119:-0.57 120:-0.606218 121:-0.895833 122:-0.982609 123:-0.988304 124:-0.957895 125:-0.950413 126:-0.97351 127:-0.990868 128:-0.98 129:-0.624242 130:-0.991304 131:-1 132:-1 133:-1 134:-1 135:-1 136:-0.773723 137:-0.975 138:-0.988166 139:-1 140:-1 141:-0.98374 142:-0.968586 143:-0.845411 144:-0.832512 145:-0.668639 146:-0.790393 147:-0.927083 148:-0.989474 149:-1 150:-1 151:-1 152:-1 
2.7003036719275082 1:-1 2:-1 3:-0.990385 4:-0.894737 5:0.979899 6:-0.87156 7:-0.967213 8:-1 9:-1 10:-0.981735 11:-0.855072 12:0.632432 13:-0.985185 14:-1 15:-1 16:-1 17:-0.744681 18:-0.93865 19:-0.964072 20:-0.538462 21:-0.82659 22:-1 23:-1 24:-0.989362 25:-0.901408 26:-0.976285 27:-0.942857 28:-0.206751 29:1 30:-0.964072 31:-1 32:-0.992218 33:-1 34:-1 35:-1 36:-1 37:-0.988439 38:0.832061 39:-0.823129 40:-1 41:-1 42:-1 43:-1 44:-1 45:-0.66129 46:-0.08 47:-0.87907 48:-0.990698 49:-0.89781 50:-0.989189 51:-0.987179 52:-0.435028 53:-0.898734 54:-1 55:-1 56:-0.976471 57:-0.933333 58:-1 59:-1 60:-0.979167 61:0.25974 62:-0.712329 63:-0.932692 64:-0.942029 65:-1 66:-1 67:-1 68:-1 69:-0.387755 70:-0.187097 71:-0.869159 72:-0.87619 73:-1 74:-1 75:-1 76:-1 77:-0.641434 78:-0.202532 79:-0.770492 80:-0.853933 81:-1 82:-1 83:-1 84:-1 85:-0.338235 86:0.17757 87:-0.797101 88:-0.872549 89:-1 90:-1 91:-1 92:-1 93:-0.391892 94:-0.231707 95:-0.844444 96:-0.865285 97:-1 98:-1 99:-1 100:-1 101:-0.581395 102:0.0677966 103:-0.810811 104:-0.920489 105:-1 106:-1 107:-1 108:-1 109:-0.210526 110:-0.240964 111:-0.806897 112:-0.914474 113:-1 114:-1 115:-1 116:-1 117:-0.150943 118:-0.419355 119:-0.86 120:-0.865285 121:-1 122:-1 123:-1 124:-1 125:-0.256198 126:-0.165563 127:-0.872146 128:-0.87 129:-1 130:-1 131:-1 132:-1 133:-0.166667 134:0.340426 135:-0.8 136:-0.905109 137:-1 138:-1 139:-1 140:-1 141:-0.268293 142:-0.340314 143:-0.864734 144:-0.871921 145:-1 146:-1 147:-1 148:-1 149:-0.150943 150:-0.397129 151:-0.802817 152:-0.896414 
8 1:-1 2:-1 3:-0.903846 4:-0.8 5:-0.98995 6:-1 7:-1 8:-1 9:-1 10:-1 11:-1 12:-1 13:-0.955556 14:-0.898305 15:-0.850467 16:-0.960591 17:-1 18:-1 19:-0.988024 20:-0.918552 21:-0.861272 22:-0.988701 23:-1 24:-0.989362 25:-1 26:-1 27:-1 28:-0.940928 29:-0.760684 30:-0.964072 31:-0.989305 32:-0.992218 33:-1 34:-1 35:-1 36:-1 37:-0.988439 38:-0.816794 39:-0.714286 40:-0.956656 41:-1 42:-1 43:-1 44:-1 45:-0.887097 46:-0.853333 47:-0.944186 48:-0.990698 49:-1 50:-1 51:-1 52:-0.966102 53:-0.772152 54:-0.851852 55:-0.977011 56:-1 57:-1 58:-1 59:-1 60:-1 61:-0.961039 62:-0.739726 63:-0.788462 64:-0.971014 65:-0.982609 66:-1 67:-1 68:-0.986014 69:-0.931973 70:-0.922581 71:-0.915888 72:-0.971429 73:-0.982301 74:-1 75:-1 76:-0.990431 77:-0.960159 78:-0.924051 79:-0.852459 80:-0.966292 81:-0.990291 82:-1 83:-1 84:-0.989305 85:-0.926471 86:-0.88785 87:-0.869565 88:-0.970588 89:-0.986395 90:-1 91:-1 92:-0.99 93:-0.932432 94:-0.926829 95:-0.9 96:-0.968912 97:-0.987179 98:-1 99:-1 100:-0.990148 101:-0.953488 102:-0.898305 103:-0.878378 104:-0.981651 105:-0.987805 106:-1 107:-1 108:-0.986577 109:-0.912281 110:-0.927711 111:-0.875862 112:-0.980263 113:-0.987179 114:-1 115:-1 116:-0.989071 117:-0.90566 118:-0.9447 119:-0.91 120:-0.968912 121:-0.979167 122:-1 123:-1 124:-0.989474 125:-0.917355 126:-0.92053 127:-0.917808 128:-0.97 129:-0.987879 130:-1 131:-1 132:-0.990148 133:-0.907407 134:-0.87234 135:-0.871429 136:-0.978102 137:-0.9875 138:-1 139:-1 140:-0.99 141:-0.918699 142:-0.937173 143:-0.913043 144:-0.970443 145:-0.988166 146:-1 147:-1 148:-0.989474 149:-0.90566 150:-0.942584 151:-0.873239 152:-0.976096 
2.669355284912041 1:-0.660377 2:-0.495327 3:-0.884615 4:-0.852632 5:-0.98995 6:-0.981651 7:-0.967213 8:-0.9625 9:-0.638554 10:-0.534247 11:-0.758454 12:-0.794595 13:-1 14:-1 15:-1 16:-1 17:-0.475177 18:-0.263804 19:-0.772455 20:-0.809955 21:-1 22:-1 23:-0.984733 24:-0.989362 25:-0.633803 26:-0.596838 27:-0.742857 28:-0.805907 29:-1 30:-1 31:-0.97861 32:-0.992218 33:-0.395973 34:-0.433333 35:-0.771429 36:-0.685864 37:-0.988439 38:-1 39:-1 40:-1 41:-0.274194 42:-0.487923 43:-0.874214 44:-0.785714 45:-1 46:-1 47:-1 48:-1 49:-0.810219 50:-1 51:-1 52:-1 53:-1 54:-1 55:-0.992337 56:-0.694118 57:-0.0666667 58:-0.39726 59:-0.737143 60:-0.614583 61:-1 62:-1 63:-1 64:-0.990338 65:-0.2 66:-0.360731 67:-0.758389 68:-0.51049 69:-0.986395 70:-1 71:-1 72:-1 73:-0.522124 74:-0.455319 75:-0.7625 76:-0.799043 77:-1 78:-1 79:-1 80:-1 81:-0.631068 82:-0.423868 83:-0.828829 84:-0.561497 85:-0.985294 86:-1 87:-0.985507 88:-0.970588 89:-0.823129 90:-0.827273 91:-0.929825 92:-0.98 93:-1 94:-1 95:-1 96:-0.989637 97:-0.884615 98:-0.74026 99:-0.122807 100:-0.753695 101:-1 102:-1 103:-1 104:-1 105:-0.780488 106:-0.122222 107:-0.894737 108:-0.704698 109:-1 110:-1 111:-1 112:-1 113:-0.679487 114:0.171429 115:-0.929825 116:-0.770492 117:-1 118:-1 119:-1 120:-1 121:-0.541667 122:-0.591304 123:-0.508772 124:-0.578947 125:-0.966942 126:-0.986755 127:-1 128:-1 129:-0.987879 130:-0.973913 131:-0.438596 132:-0.763547 133:-1 134:-1 135:-1 136:-1 137:-0.675 138:-0.313609 139:-0.894737 140:-0.78 141:-1 142:-1 143:-1 144:-1 145:-0.739645 146:-0.633188 147:-0.71875 148:-0.747368 149:-0.981132 150:-1 151:-1 152:-1 
2.3967378474071159 1:-0.886792 2:-0.990654 3:-0.990385 4:-0.989474 5:-1 6:-0.981651 7:-0.934426 8:-0.4125 9:-1 10:-1 11:-1 12:-1 13:-0.585185 14:-0.762712 15:-0.953271 16:-0.852217 17:-1 18:-1 19:-0.952096 20:-0.330317 21:-0.907514 22:-1 23:-1 24:-1 25:-0.929577 26:-0.944664 27:-0.642857 28:-0.805907 29:-0.982906 30:-1 31:-1 32:-1 33:-0.852349 34:-0.941667 35:-0.554286 36:-0.748691 37:-1 38:-1 39:-1 40:-1 41:-0.983871 42:-1 43:-0.91195 44:0.1 45:-0.951613 46:-1 47:-1 48:-0.990698 49:-0.635036 50:-0.989189 51:-0.987179 52:-0.988701 53:-0.987342 54:-0.955556 55:-0.969349 56:-0.129412 57:-0.222222 58:-0.899543 59:-0.988571 60:-1 61:-0.987013 62:-1 63:-0.971154 64:-0.951691 65:-1 66:-1 67:-1 68:-1 69:-0.795918 70:-0.716129 71:-0.747664 72:-0.933333 73:-1 74:-1 75:-1 76:-0.980861 77:-0.713147 78:-0.56962 79:-0.737705 80:-0.88764 81:-0.495146 82:-0.983539 83:-0.981982 84:-1 85:-0.985294 86:-1 87:-0.985507 88:-0.941176 89:-1 90:-1 91:-1 92:-0.98 93:-0.540541 94:-0.719512 95:-0.822222 96:-0.865285 97:-1 98:-1 99:-1 100:-0.990148 101:-0.776744 102:-0.254237 103:-0.689189 104:-0.957187 105:0.207317 106:-0.988889 107:-1 108:-1 109:-1 110:-1 111:-0.986207 112:-0.848684 113:-1 114:-1 115:-1 116:-1 117:-0.981132 118:-0.797235 119:-0.65 120:-0.471503 121:1 122:-0.921739 123:-0.988304 124:-0.978947 125:-1 126:-1 127:-1 128:-0.99 129:-1 130:-1 131:-1 132:-0.990148 133:-0.203704 134:-0.319149 135:-0.685714 136:-0.927007 137:-0.975 138:-1 139:-1 140:-1 141:-0.934959 142:-0.979058 143:-0.913043 144:-0.172414 145:-1 146:-1 147:-1 148:-0.936842 149:-0.396226 150:-0.942584 151:-0.929577 152:-0.864542 
1.5530077190205953 1:-0.462264 2:-0.88785 3:-0.971154 4:-0.968421 5:-1 6:-1 7:-0.983607 8:-0.9625 9:-0.746988 10:-0.771689 11:-0.835749 12:-0.827027 13:-0.97037 14:-0.983051 15:-0.981308 16:-0.990148 17:-0.41844 18:-0.607362 19:-0.904192 20:-0.900452 21:-1 22:-1 23:-1 24:-0.978723 25:0.084507 26:-0.913043 27:-0.971429 28:-0.966245 29:-1 30:-1 31:-1 32:-0.992218 33:-0.0604027 34:-0.883333 35:-0.931429 36:-0.947644 37:-1 38:-1 39:-1 40:-1 41:-0.66129 42:-0.700483 43:-0.811321 44:-0.828571 45:-1 46:-0.96 47:-0.981395 48:-0.990698 49:-0.445255 50:-0.697297 51:-0.897436 52:-0.819209 53:-1 54:-0.985185 55:-1 56:-1 57:-0.266667 58:-0.753425 59:-0.84 60:-0.9375 61:-1 62:-1 63:-0.990385 64:-0.990338 65:-0.982609 66:-1 67:-1 68:-1 69:-0.986395 70:-0.767742 71:-0.635514 72:-0.514286 73:-0.946903 74:-1 75:-1 76:-1 77:-0.928287 78:-0.202532 79:0.344262 80:-0.730337 81:-1 82:-1 83:-1 84:-1 85:-0.926471 86:0.121495 87:0.376812 88:-0.813725 89:-1 90:-1 91:-1 92:-1 93:-0.959459 94:-0.463415 95:0.277778 96:-0.813472 97:-0.987179 98:-1 99:-1 100:-0.990148 101:-0.981395 102:-0.745763 103:-0.135135 104:-0.69419 105:-0.987805 106:-1 107:-1 108:-1 109:-0.982456 110:-0.795181 111:0.131034 112:-0.815789 113:-0.974359 114:-1 115:-1 116:-1 117:-0.981132 118:-0.898618 119:-0.46 120:-0.585492 121:-0.854167 122:-1 123:-1 124:-1 125:-0.983471 126:-0.960265 127:-0.863014 128:-0.19 129:-0.927273 130:-0.991304 131:-0.988304 132:-0.980296 133:-0.888889 134:-0.957447 135:-0.928571 136:-0.627737 137:-0.775 138:-0.609467 139:-0.836257 140:-0.76 141:-0.98374 142:-1 143:-0.990338 144:-0.980296 145:-0.349112 146:-0.947598 147:-0.958333 148:-0.926316 149:-0.981132 150:-0.990431 151:-0.985915 152:-0.976096 
0.5234517123349457 1:-0.481132 2:-0.130841 3:-0.971154 4:-1 5:-1 6:-1 7:-1 8:-1 9:-0.927711 10:-0.232877 11:-0.555556 12:-0.740541 13:-1 14:-1 15:-1 16:-1 17:-0.801418 18:0.374233 19:-0.0898204 20:-0.782805 21:-1 22:-1 23:-1 24:-1 25:-0.126761 26:0.027668 27:-0.171429 28:-0.763713 29:-0.897436 30:-0.988024 31:-0.989305 32:-0.992218 33:0.315436 34:-0.25 35:-0.314286 36:-0.633508 37:-0.988439 38:-1 39:-1 40:-0.987616 41:-0.596774 42:-0.806763 43:-0.786164 44:-0.628571 45:0.145161 46:-0.786667 47:-0.813953 48:-0.44186 49:-0.649635 50:-0.751351 51:-0.717949 52:-0.367232 53:0.329114 54:-0.822222 55:-0.954023 56:-0.0941176 57:-0.355556 58:-0.808219 59:-0.691429 60:-0.46875 61:0.038961 62:-0.739726 63:-0.932692 64:-0.555556 65:-0.530435 66:-0.808219 67:-0.758389 68:-0.384615 69:0.414966 70:-0.858065 71:-0.88785 72:-0.352381 73:-0.716814 74:-0.812766 75:-0.7625 76:-0.607656 77:-0.36255 78:-0.835443 79:-0.819672 80:-0.0337079 81:-0.84466 82:-0.81893 83:-0.828829 84:-0.561497 85:0.176471 86:-0.757009 87:-0.84058 88:-0.156863 89:-0.782313 90:-0.8 91:-0.777778 92:-0.59 93:0.0810811 94:-0.841463 95:-0.877778 96:-0.108808 97:-0.794872 98:-0.714286 99:-0.777778 100:-0.596059 101:-0.255814 102:-0.779661 103:-0.851351 104:-0.474006 105:-0.804878 106:-0.755556 107:-0.777778 108:-0.449664 109:0.403509 110:-0.843373 111:-0.848276 112:-0.434211 113:-0.794872 114:-0.685714 115:-0.777778 116:-0.551913 117:0.509434 118:-0.880184 119:-0.89 120:-0.108808 121:-0.666667 122:-0.808696 123:-0.777778 124:-0.568421 125:0.322314 126:-0.827815 127:-0.899543 128:-0.14 129:-0.806061 130:-0.808696 131:-0.777778 132:-0.596059 133:0.481481 134:-0.723404 135:-0.842857 136:-0.372263 137:-0.8 138:-0.739645 139:-0.777778 140:-0.59 141:0.300813 142:-0.863874 143:-0.89372 144:-0.152709 145:-0.810651 146:-0.80786 147:-0.802083 148:-0.568421 149:0.509434 150:-0.875598 151:-0.84507 152:-0.314741 
0.23266520179684755 1:-0.962264 2:-0.897196 3:-0.0769231 4:-0.810526 5:-0.979899 6:-1 7:-1 8:-0.9625 9:-0.86747 10:-0.0593607 11:-0.719807 12:-0.978378 13:-1 14:-1 15:-1 16:-0.990148 17:-0.191489 18:-0.423313 19:-0.137725 20:-0.819005 21:-0.988439 22:-1 23:-1 24:-0.989362 25:-0.971831 26:-0.865613 27:0.742857 28:-0.864979 29:-0.982906 30:-1 31:-1 32:-0.976654 33:-0.973154 34:-0.575 35:-0.177143 36:-0.979058 37:-0.988439 38:-1 39:-1 40:-0.975232 41:-0.83871 42:-0.381643 43:-0.333333 44:-0.971429 45:-1 46:-0.986667 47:-1 48:-1 49:-0.372263 50:-0.632432 51:-0.974359 52:-1 53:-1 54:-1 55:-1 56:-0.976471 57:-0.755556 58:-0.369863 59:-0.451429 60:-0.9375 61:-1 62:-1 63:-1 64:-0.980676 65:-0.791304 66:-0.488584 67:-0.248322 68:-0.846154 69:-1 70:-1 71:-1 72:-0.990476 73:-0.823009 74:-0.480851 75:-0.2875 76:-0.913876 77:-0.992032 78:-1 79:-1 80:-0.977528 81:-0.970874 82:-0.547325 83:-0.198198 84:-0.636364 85:-0.985294 86:-1 87:-1 88:-0.990196 89:-0.809524 90:-0.5 91:-0.146199 92:-0.94 93:-1 94:-1 95:-1 96:-0.989637 97:0.666667 98:-0.519481 99:-0.988304 100:-1 101:-1 102:-1 103:-1 104:-0.981651 105:-0.939024 106:-0.433333 107:-0.0526316 108:-0.771812 109:-1 110:-1 111:-1 112:-0.980263 113:-0.910256 114:0.128571 115:-0.0292398 116:-0.901639 117:-1 118:-1 119:-1 120:-1 121:-0.979167 122:-0.747826 123:0.111111 124:-0.778947 125:-0.983471 126:-1 127:-1 128:-0.97 129:-0.890909 130:-0.408696 131:-0.0175439 132:-0.901478 133:-0.981481 134:-1 135:-1 136:-0.992701 137:-0.9375 138:-1 139:-1 140:-1 141:-1 142:-1 143:-0.990338 144:1 145:-0.964497 146:-0.746725 147:-0.0416667 148:-0.810526 149:-1 150:-1 151:-1 152:-0.992032 
2.0827040447799301 1:-0.971698 2:-0.943925 3:0.259615 4:-0.589474 5:-0.98995 6:-1 7:-1 8:-0.9875 9:-1 10:-1 11:-0.710145 12:0.383784 13:-1 14:-1 15:-1 16:-1 17:-0.943262 18:-1 19:-1 20:-0.99095 21:-0.514451 22:-0.887006 23:-0.938931 24:-0.925532 25:-1 26:-0.960474 27:-0.428571 28:-0.181435 29:-1 30:-1 31:-1 32:-1 33:-1 34:-0.991667 35:-0.84 36:0.748691 37:-0.988439 38:-1 39:-1 40:-1 41:-1 42:-1 43:-0.937107 44:0.628571 45:-0.951613 46:-1 47:-1 48:-1 49:-1 50:-1 51:-0.782051 52:0.740113 53:-0.974684 54:-1 55:-1 56:-1 57:-1 58:-0.981735 59:-0.862857 60:0.0104167 61:-0.987013 62:-1 63:-1 64:-1 65:-0.982609 66:-0.96347 67:-0.718121 68:0.104895 69:-1 70:-1 71:-1 72:-1 73:-0.946903 74:-0.948936 75:-0.6625 76:0.22488 77:-0.960159 78:-0.987342 79:-0.967213 80:-0.955056 81:-0.990291 82:-0.925926 83:-0.72973 84:0.262032 85:-1 86:-1 87:-1 88:-1 89:-0.986395 90:-0.972727 91:-0.754386 92:0.2 93:-0.972973 94:-0.987805 95:-1 96:-1 97:-0.846154 98:-0.922078 99:-0.719298 100:0.0935961 101:-0.990698 102:-1 103:-0.986486 104:-0.975535 105:-1 106:-0.988889 107:-0.918129 108:-0.0738255 109:-0.473684 110:-0.975904 111:-1 112:-1 113:-0.576923 114:-0.6 115:-0.274854 116:-0.639344 117:-0.981132 118:-1 119:-0.99 120:-0.958549 121:-0.395833 122:-0.669565 123:-0.298246 124:-0.652632 125:-0.983471 126:-1 127:-1 128:-0.95 129:-0.684848 130:-0.747826 131:-0.169591 132:-0.684729 133:-0.981481 134:-1 135:-0.985714 136:-0.956204 137:-0.575 138:-0.39645 139:-0.22807 140:-0.85 141:-0.96748 142:-0.989529 143:-0.990338 144:-0.950739 145:-0.692308 146:-0.71179 147:-0.3125 148:-0.715789 149:-0.981132 150:-0.990431 151:-0.957746 152:-0.968127 
2.7493761092499001 1:-0.971698 2:-0.953271 3:-0.884615 4:-0.842105 5:-0.939698 6:-0.981651 7:-1 8:-0.9625 9:-0.939759 10:-1 11:-1 12:-1 13:-0.792593 14:-0.881356 15:-0.523364 16:-0.527094 17:-0.702128 18:-0.582822 19:-0.329341 20:-0.900452 21:-1 22:-1 23:-1 24:-1 25:-0.746479 26:-0.667984 27:-0.3 28:-0.780591 29:-1 30:-1 31:-1 32:-1 33:-0.838926 34:-0.75 35:-0.314286 36:-0.643979 37:-1 38:-1 39:-1 40:-1 41:-0.548387 42:-0.42029 43:-0.081761 44:-0.714286 45:-1 46:-1 47:-1 48:-1 49:-0.781022 50:-0.762162 51:-0.205128 52:-0.502825 53:-1 54:-1 55:-1 56:-1 57:-0.577778 58:-0.780822 59:-0.657143 60:-0.229167 61:-1 62:-1 63:-1 64:-1 65:-0.391304 66:-0.890411 67:-0.852349 68:-0.398601 69:-0.891156 70:-1 71:-1 72:-0.990476 73:-0.699115 74:-0.86383 75:-0.325 76:-0.272727 77:-1 78:-1 79:-1 80:-1 81:-0.990291 82:-0.99177 83:-0.972973 84:-0.989305 85:-0.867647 86:-0.794393 87:-0.478261 88:-0.0882353 89:-0.863946 90:-0.890909 91:-0.274854 92:-0.19 93:-1 94:-1 95:-1 96:-1 97:-0.666667 98:-0.831169 99:-0.824561 100:-0.497537 101:-0.972093 102:-1 103:-1 104:-0.993884 105:-0.707317 106:-0.922222 107:-0.812865 108:-0.328859 109:-0.947368 110:-1 111:-1 112:-0.960526 113:-0.679487 114:-0.842857 115:-0.824561 116:-0.497268 117:-0.90566 118:-1 119:-1 120:-0.989637 121:-0.541667 122:-0.347826 123:-0.239766 124:-0.810526 125:-0.983471 126:-1 127:-1 128:-0.98 129:-0.563636 130:-0.608696 131:-0.0409357 132:-0.625616 133:-1 134:-1 135:-1 136:-1 137:-0.75 138:-0.408284 139:-0.0877193 140:-0.5 141:-1 142:-1 143:-1 144:-1 145:-0.64497 146:-0.842795 147:-0.583333 148:-0.284211 149:-0.981132 150:-1 151:-1 152:-1 
0.90112813504679279 1:-0.981132 2:-1 3:-1 4:-1 5:-1 6:-1 7:-0.245902 8:-0.05 9:-0.987952 10:-1 11:-1 12:-1 13:-1 14:-1 15:-0.672897 16:-0.133005 17:-0.971631 18:-1 19:-1 20:-1 21:-1 22:-1 23:-0.480916 24:-0.0212766 25:-0.985915 26:0.422925 27:-0.9 28:-1 29:-1 30:-1 31:-1 32:-1 33:-0.00671141 34:-0.8 35:-0.988571 36:-1 37:-1 38:-1 39:-1 40:-0.993808 41:0.241935 42:-0.826087 43:-0.974843 44:-0.971429 45:-1 46:-1 47:-1 48:-0.990698 49:-0.751825 50:-0.978378 51:-1 52:-0.988701 53:-0.962025 54:-0.881481 55:-0.923372 56:-0.741176 57:-0.2 58:-0.287671 59:-0.988571 60:-1 61:-1 62:-1 63:-1 64:-0.980676 65:-0.982609 66:-1 67:-1 68:-1 69:-1 70:-1 71:-0.953271 72:1 73:-0.982301 74:-1 75:-1 76:-0.980861 77:-0.808765 78:-0.734177 79:1 80:-0.797753 81:-0.805825 82:-1 83:-1 84:-1 85:-0.985294 86:-0.775701 87:-0.869565 88:-0.754902 89:-0.945578 90:0.663636 91:-0.918129 92:-1 93:-1 94:-1 95:-1 96:-1 97:-1 98:0.324675 99:-0.520468 100:-1 101:-1 102:-1 103:-1 104:-1 105:-0.987805 106:1 107:-0.871345 108:-1 109:-1 110:-1 111:-1 112:-1 113:-0.935897 114:-1 115:-1 116:-1 117:-1 118:-1 119:-0.87 120:0.222798 121:-0.770833 122:-1 123:-1 124:-1 125:-1 126:-1 127:-0.872146 128:0.04 129:-0.878788 130:-0.982609 131:-1 132:-1 133:-1 134:-1 135:-0.842857 136:-0.284672 137:-0.725 138:-0.881657 139:-0.953216 140:-0.97 141:-0.886179 142:-0.958115 143:-0.980676 144:-0.881773 145:-1 146:-1 147:-1 148:-0.978947 149:-0.188679 150:-0.559809 151:0.464789 152:-0.888446 
2.0774362697581124 1:-0.990566 2:-0.990654 3:-0.932692 4:-0.0315789 5:-0.98995 6:-1 7:-1 8:-1 9:-1 10:-1 11:-0.980676 12:-0.978378 13:-0.259259 14:0.338983 15:-0.794393 16:-0.891626 17:-1 18:-0.95092 19:0.473054 20:-0.846154 21:-1 22:-1 23:-1 24:-1 25:-0.394366 26:-0.98419 27:-1 28:-0.991561 29:-0.982906 30:-0.988024 31:-0.97861 32:-0.867704 33:-0.973154 34:-0.916667 35:-0.725714 36:-0.675393 37:-0.988439 38:-1 39:-1 40:-1 41:-0.983871 42:-0.932367 43:-0.773585 44:-0.242857 45:-0.951613 46:-1 47:-1 48:-1 49:-0.985401 50:-0.967568 51:-0.820513 52:-0.175141 53:-0.962025 54:-1 55:-1 56:-1 57:0.688889 58:-0.625571 59:-0.988571 60:-1 61:-1 62:-1 63:-1 64:-0.990338 65:-0.113043 66:-0.570776 67:-0.932886 68:-1 69:-1 70:-1 71:-1 72:-0.971429 73:-0.982301 74:-1 75:-0.9625 76:-0.84689 77:-0.880478 78:-0.949367 79:-0.885246 80:-0.88764 81:-1 82:-1 83:-0.990991 84:-0.700535 85:-0.705882 86:-0.906542 87:-0.927536 88:-0.970588 89:-1 90:-1 91:-1 92:-0.98 93:-0.608108 94:-0.585366 95:-0.633333 96:-0.958549 97:-0.987179 98:-1 99:-1 100:-1 101:-0.460465 102:-0.491525 103:0.0675676 104:-0.82263 105:-1 106:-1 107:-1 108:-0.959732 109:0.245614 110:-0.216867 111:-0.931034 112:-1 113:-0.987179 114:-0.985714 115:-0.976608 116:-0.967213 117:-0.396226 118:-0.870968 119:-0.86 120:-0.834197 121:-0.979167 122:-0.973913 123:-0.953216 124:-0.905263 125:-0.404959 126:-0.880795 127:-0.917808 128:-0.9 129:-1 130:-1 131:-1 132:-0.990148 133:0.518519 134:0.297872 135:-0.828571 136:-0.970803 137:-1 138:-1 139:-1 140:-1 141:-0.626016 142:-0.65445 143:-0.603865 144:-0.881773 145:-1 146:-1 147:-1 148:-1 149:-0.415094 150:-0.22488 151:-0.760563 152:-0.992032 
