svm_type c_svc
kernel_type rbf
gamma 0.03125
nr_class 2
total_sv 157
rho 0.58256630534317455
label 1 2
nr_sv 40 117
SV
1.0489148218283124 1:-1 2:-1 3:-1 4:-1 5:-0.972222 6:-0.153153 7:-0.665306 8:-1 9:-1 10:-1 11:-1 12:-0.0619469 13:-0.216216 14:-0.991266 15:-1 16:-1 17:-1 18:-0.645161 19:-0.333333 20:-1 21:-1 22:-1 23:-1 24:-1 25:-1 26:-0.784387 27:-0.269504 28:-0.993671 29:-1 30:-1 31:-1 32:-1 33:-0.991228 34:-0.818697 35:-0.410405 36:-0.987261 37:-1 38:-1 39:-1 40:-1 41:-1 42:-0.99665 43:-0.416216 44:-0.440329 45:-1 46:-1 47:-1 48:-1 49:-1 50:-1 51:-0.708207 52:0.694268 53:-1 54:-1 55:-1 56:-1 57:-1 58:-0.992908 59:-0.296188 60:-0.3 61:-1 62:-1 63:-1 64:-1 65:-1 66:-0.989637 67:-0.285714 68:-0.426966 69:-1 70:-1 71:-1 72:-1 73:-1 74:-0.994924 75:-0.447826 76:-0.521472 77:-1 78:-1 79:-1 80:-1 81:-1 82:-0.989848 83:-0.0784983 84:-0.759336 85:-1 86:-1 87:-1 88:-1 89:-1 90:-0.979695 91:-0.186544 92:-0.664234 93:-1 94:-1 95:-1 96:-1 97:-1 98:-1 99:-0.993994 100:-0.349282 101:-0.785047 102:-1 103:-1 104:-0.992308 105:-0.668449 106:-0.954315 107:-0.993884 108:-0.989418 109:-1 110:-1 111:-1 112:-0.951807 113:-1 114:-1 115:-0.995012 116:0.0793651 117:-0.788546 118:-0.994048 119:-1 120:-1 121:-1 122:-0.989848 123:-0.149847 124:-0.719457 125:-1 126:-1 127:-1 128:-1 129:-1 130:-0.984772 131:-0.174312 132:-0.686869 133:-1 134:-1 135:-1 136:-1 137:-1 138:-1 139:-0.85258 140:-0.0769231 141:-1 142:-1 143:-1 144:-1 145:-1 146:-0.974619 147:-0.220339 148:-0.87931 149:-1 150:-1 151:-1 152:-1 
8 1:-0.965517 2:-0.987342 3:-0.980488 4:-0.888268 5:-0.972222 6:-1 7:-1 8:-0.978836 9:-0.924528 10:-0.970414 11:-0.98 12:-0.769912 13:-0.981982 14:-1 15:-1 16:-0.978947 17:-0.213115 18:-0.0967742 19:-0.971326 20:-1 21:-1 22:-1 23:-1 24:-1 25:-1 26:-1 27:-1 28:-1 29:-1 30:-0.988439 31:-0.730337 32:-0.0701754 33:-0.947368 34:-0.524079 35:-0.583815 36:-0.987261 37:-1 38:-1 39:-1 40:-1 41:-0.350993 42:-0.926298 43:-0.940541 44:-0.8107 45:-0.987692 46:-0.991736 47:-0.993827 48:-0.956284 49:-0.844037 50:-0.671378 51:-0.580547 52:-0.987261 53:-1 54:-1 55:-1 56:-1 57:-0.0574713 58:-0.539007 59:-0.929619 60:-1 61:-1 62:-1 63:-1 64:-1 65:-0.171014 66:-0.972366 67:-0.994048 68:-0.966292 69:-1 70:-1 71:-1 72:-0.960474 73:0.189873 74:-0.299492 75:-0.965217 76:-1 77:-1 78:-1 79:-1 80:-1 81:-0.0285714 82:-0.812183 83:-0.883959 84:-0.941909 85:-1 86:-1 87:-1 88:-0.992337 89:-0.508197 90:-0.80203 91:-0.883792 92:-0.883212 93:-1 94:-1 95:-1 96:-0.987805 97:-0.595628 98:-0.746193 99:-0.867868 100:-0.875598 101:-1 102:-1 103:-1 104:-0.992308 105:-0.614973 106:-0.720812 107:-0.828746 108:-0.84127 109:-1 110:-1 111:-1 112:-0.987952 113:-0.256831 114:0.0913706 115:-0.865337 116:-1 117:-1 118:-1 119:-1 120:-1 121:-0.278689 122:-0.0253807 123:-0.865443 124:-1 125:-1 126:-1 127:-1 128:-1 129:-0.508197 130:-0.538071 131:-0.785933 132:-0.989899 133:-1 134:-1 135:-1 136:-1 137:-0.639344 138:-0.527446 139:-0.710074 140:-0.923077 141:-1 142:-1 143:-1 144:-1 145:0.431694 146:-0.385787 147:-0.847458 148:-1 149:-1 150:-1 151:-1 152:-1 
8 1:-0.972414 2:-0.993671 3:-0.980488 4:-0.899441 5:-0.962963 6:-1 7:-0.991837 8:-0.978836 9:-0.933962 10:-0.982249 11:-0.98 12:-0.840708 13:-0.981982 14:-1 15:-1 16:-0.989474 17:-0.726776 18:0.177419 19:-0.956989 20:-1 21:-1 22:-1 23:-1 24:-1 25:-0.5 26:-0.0185874 27:-1 28:-1 29:-1 30:-1 31:-1 32:-1 33:-0.868421 34:-0.926346 35:-0.959538 36:-0.936306 37:-1 38:-1 39:-1 40:-0.991228 41:-0.81457 42:-0.953099 43:-0.902703 44:-0.82716 45:-1 46:-1 47:-1 48:-1 49:-0.366972 50:-0.681979 51:-0.963526 52:-1 53:-1 54:-1 55:-1 56:-1 57:-0.747126 58:-0.939716 59:-0.876833 60:-0.742857 61:-1 62:-1 63:-1 64:-0.991736 65:-0.750725 66:-0.468048 67:-0.97619 68:-1 69:-1 70:-1 71:-1 72:-1 73:-0.797468 74:-0.888325 75:-0.878261 76:-0.828221 77:-1 78:-1 79:-1 80:-1 81:-0.809524 82:-0.893401 83:-0.808874 84:-0.817427 85:-1 86:-1 87:-1 88:-0.992337 89:-0.901639 90:-0.893401 91:-0.859327 92:-0.649635 93:-1 94:-1 95:-1 96:-1 97:-1 98:-0.654822 99:-0.465465 100:-0.980861 101:-1 102:-1 103:-1 104:-1 105:-0.721925 106:-0.309645 107:-0.932722 108:-1 109:-1 110:-1 111:-1 112:-1 113:-0.956284 114:-0.979695 115:-0.950125 116:-0.253968 117:-0.955947 118:-0.994048 119:-1 120:-1 121:-1 122:-0.944162 123:-0.24159 124:-0.900452 125:-1 126:-1 127:-1 128:-1 129:-0.748634 130:-0.969543 131:-0.987768 132:-0.969697 133:-0.991489 134:-0.994898 135:-0.99361 136:-0.872727 137:-1 138:-1 139:-1 140:-1 141:-0.955056 142:-0.72093 143:-0.727273 144:-0.883212 145:-0.989071 146:-0.583756 147:-0.751412 148:-1 149:-1 150:-1 151:-1 152:-1 
7.009007165184161 1:-0.317241 2:-0.487342 3:-1 4:-1 5:-1 6:-1 7:-1 8:-1 9:-0.990566 10:-0.591716 11:-0.735 12:-1 13:-1 14:-1 15:-1 16:-1 17:-1 18:-0.983871 19:-0.311828 20:-0.282051 21:-1 22:-1 23:-1 24:-1 25:-0.989583 26:-0.122677 27:-0.921986 28:-1 29:-1 30:-1 31:-1 32:-1 33:0.45614 34:-0.699717 35:-1 36:-1 37:-1 38:-1 39:-1 40:-1 41:-1 42:-0.876047 44:-0.99177 45:-1 46:-1 47:-1 48:-1 49:-1 50:-0.971731 51:-0.325228 52:-0.898089 53:-1 54:-1 55:-1 56:-1 57:-0.988506 58:-0.957447 59:-0.41349 60:-0.885714 61:-1 62:-1 63:-1 64:-1 65:-1 66:-0.97582 67:-0.386905 68:-0.921348 69:-1 70:-1 71:-1 72:-1 73:-1 74:-0.93401 75:-0.582609 76:-0.889571 77:-1 78:-1 79:-1 80:-1 81:-0.6 82:-0.994924 83:-1 84:-1 85:-1 86:-0.993243 87:-0.994269 88:-0.578544 89:-0.989071 90:-0.862944 91:-0.437309 92:-0.927007 93:-1 94:-1 95:-1 96:-1 97:-1 98:-0.913706 99:-0.327327 100:-0.980861 101:-1 102:-1 103:-1 104:-1 105:-1 106:-0.781726 107:0.247706 108:-0.989418 109:-1 110:-1 111:-1 112:-1 113:-0.989071 114:-0.903553 115:-0.406484 116:-0.920635 117:-1 118:-1 119:-1 120:-1 121:-1 122:-0.944162 123:-0.217125 124:-0.918552 125:-1 126:-1 127:-1 128:-1 129:-0.704918 130:-0.568528 131:-0.908257 132:-0.979798 133:-1 134:-1 135:-1 136:-0.981818 137:-0.803279 138:-0.980907 139:-0.97543 140:-0.964497 141:-0.977528 142:-1 143:-0.993506 144:-0.79562 145:-0.989071 146:-0.761421 147:-0.497175 148:-1 149:-1 150:-1 151:-1 152:-1 
7.2650820560029814 1:-1 2:-1 3:-1 4:-1 5:-1 6:-0.477477 7:-0.404082 8:-0.957672 9:-1 10:-0.994083 11:-0.485 12:0.0265487 13:-1 14:-1 15:-1 16:-1 17:-0.857923 18:-0.967742 19:-0.971326 20:-0.948718 21:-1 22:-1 23:-0.986301 24:-0.73617 25:-1 26:-0.895911 27:-0.297872 28:-0.78481 29:-1 30:-1 31:-1 32:-1 33:-1 34:-1 35:-1 36:-1 37:-0.962617 38:-0.136986 39:-0.861314 40:-1 41:-1 42:-1 43:-0.945946 44:-0.308642 45:-0.809231 46:-0.983471 47:-0.993827 48:-0.989071 49:-1 50:-1 51:-1 52:-1 53:-1 54:0.475248 55:-0.389937 56:-1 57:-1 58:-1 59:-1 60:-1 61:-0.957704 62:-0.314465 63:-0.828383 64:-1 65:-1 66:-0.996546 67:-0.779762 68:0.831461 69:-1 70:-1 71:-1 72:-1 73:-0.987342 74:-0.994924 75:-0.995652 76:-0.754601 77:-0.738562 78:-0.994236 79:-1 80:-0.99115 81:-1 82:-1 83:-1 84:-0.834025 85:-0.687316 86:-0.993243 87:-1 88:-0.992337 89:-1 90:-1 91:-1 92:-0.854015 93:-0.275862 94:-0.994169 95:-1 96:-1 97:-1 98:-1 99:-1 100:-1 101:-0.728972 102:0.0690909 103:-0.97561 104:-1 105:-0.796791 106:-1 107:-1 108:-1 109:-1 110:-1 111:-0.987616 112:0.240964 113:-1 114:-1 115:-1 116:-0.984127 117:-0.938326 118:-0.785714 119:-0.762712 120:-0.905325 121:-1 122:-1 123:-1 124:-0.972851 125:-0.523438 126:-0.895062 127:-0.972414 128:-0.987578 129:-1 130:-1 131:-1 132:-0.969697 133:-0.114894 134:-0.933673 135:-0.980831 136:-0.990909 137:-1 138:-1 139:-1 140:-0.994083 141:0.393258 142:-0.94186 143:-0.993506 144:-1 145:-0.989071 146:-0.878173 147:-0.745763 148:-0.663793 149:-0.991701 150:-1 151:-1 152:-1 
8 1:-0.993103 2:-0.974684 3:-0.960976 4:-0.988827 5:-0.777778 6:0.144144 7:-0.746939 8:-0.94709 9:-0.981132 10:-0.982249 11:-0.92 12:-0.752212 13:-0.441441 14:-0.283843 15:-0.967638 16:-0.978947 17:-1 18:-0.991935 19:-0.971326 20:-0.884615 21:-0.445026 22:0.0438247 23:-0.90411 24:-0.931915 25:-0.989583 26:-0.947955 27:-0.992908 28:-0.993671 29:-0.913043 30:-0.208092 31:-0.670412 32:-0.947368 33:-1 34:-0.988669 35:-0.924855 36:-0.821656 37:-0.429907 38:-0.431507 39:-0.963504 40:-0.982456 41:-0.986755 42:-0.9933 43:-0.935135 44:-0.925926 45:-0.606154 46:-0.322314 47:-0.969136 48:-0.989071 49:-0.926606 50:-0.978799 51:-0.914894 52:-0.88535 53:-0.93578 54:-0.920792 55:-0.987421 56:-0.993333 57:-1 58:-1 59:-1 60:-0.857143 61:-0.444109 62:-0.157233 63:-0.947195 64:-0.876033 65:-0.994203 66:-0.996546 67:-0.964286 68:-0.955056 69:-0.384615 70:-0.335593 71:-0.972527 72:-0.992095 73:-0.987342 74:-0.994924 75:-0.982609 76:-0.95092 77:-0.588235 78:-0.429395 79:-0.966667 80:-0.99115 81:-1 82:-1 83:-1 84:-0.966805 85:-0.174041 86:-0.277027 87:-0.994269 88:-0.992337 89:-0.912568 90:-0.913706 91:-0.859327 92:-0.883212 93:-0.956897 94:-0.970845 95:-0.989446 96:-0.987805 97:-1 98:-0.964467 99:-0.381381 100:-0.358852 101:-0.990654 102:-1 103:-1 104:-1 105:-1 106:-1 107:-0.926606 108:-0.756614 109:-0.150327 110:-0.738806 111:-0.993808 112:-1 113:-1 114:-0.994924 115:-0.9202 116:-0.634921 117:-0.53304 118:-0.75 119:-0.99322 120:-1 121:-1 122:-0.994924 123:-0.565749 124:-0.21267 125:-1 126:-1 127:-1 128:-1 129:-0.989071 130:-0.979695 131:-0.87156 132:-0.808081 133:-0.676596 134:-0.75 135:-0.98722 136:-0.990909 137:-1 138:-1 139:-0.995086 140:-0.804734 141:0.325843 142:-0.52907 143:-0.987013 144:-1 145:-1 146:-1 147:-0.983051 148:-0.646552 149:-0.0954357 150:-0.493902 151:-0.983193 152:-1 
2.9412330148730197 1:-1 2:-0.993671 3:-0.0243902 4:-0.441341 5:-1 6:-1 7:-1 8:-1 9:-1 10:-1 11:-1 12:-1 13:-0.378378 14:-0.441048 15:-0.987055 16:-1 17:-1 18:-1 19:-1 20:-1 21:-0.434555 22:-0.426295 23:-0.993151 24:-1 25:-1 26:-0.977695 27:-0.64539 28:-0.575949 29:-0.886957 30:-0.99422 31:-1 32:-1 33:-1 34:-1 35:-0.99422 36:-0.987261 37:-0.654206 38:-0.452055 39:-0.978102 40:-1 41:-1 42:-1 43:-1 44:-0.983539 45:-0.464615 46:0.0991736 47:-0.981481 48:-1 49:-1 50:-1 51:-1 52:-0.961783 53:-0.0733945 54:0.0990099 55:-0.981132 56:-0.993333 57:-1 58:-1 59:-0.970674 60:-0.1 61:0.172205 62:-0.968553 63:-0.993399 64:-1 65:-1 66:-0.996546 67:-0.994048 68:-0.898876 69:0.0769231 70:-0.322034 71:-0.983516 72:-0.992095 73:-1 74:-0.979695 75:-0.991304 76:-0.386503 77:-0.222222 78:-0.930836 79:-0.994444 80:-1 81:-1 82:-1 83:-0.96587 84:-0.576763 85:0.19764 86:-0.966216 87:-0.994269 88:-1 89:-1 90:-0.989848 91:-0.987768 92:-0.781022 93:0.00862069 94:-0.737609 95:-0.989446 96:-0.987805 97:-1 98:-1 99:-1 100:-1 101:-0.878505 102:0.185455 103:-0.835366 104:-0.969231 105:-0.989305 106:-0.994924 107:-0.969419 108:-0.587302 109:0.464052 110:-0.910448 111:-1 112:-0.987952 113:-0.978142 114:-1 115:-1 116:-0.984127 117:-0.911894 118:-0.934524 119:-0.945763 120:-0.905325 121:-1 122:-1 123:-1 124:-1 125:-0.898438 126:0.728395 127:-0.931034 128:-0.975155 129:-1 130:-1 131:-0.993884 132:-0.878788 133:-0.531915 134:-0.540816 135:-0.904153 136:-0.981818 137:-1 138:-1 139:-0.995086 140:-0.928994 141:-0.382022 142:-0.476744 143:-0.902597 144:-0.970803 145:-1 146:-1 147:-0.99435 148:-0.896552 149:-0.543568 150:-0.45122 151:-0.87395 152:-0.982063 
7.6849556538743098 1:-1 2:-0.740506 3:-0.239024 4:-0.988827 5:-1 6:-1 7:-1 8:-1 9:-0.924528 10:-0.982249 11:-1 12:-0.80531 13:-0.567568 14:-0.834061 15:-0.954693 16:-0.642105 17:-1 18:-1 19:-1 20:-1 21:-0.989529 22:-0.0199203 23:-0.280822 24:-0.931915 25:-1 26:-1 27:-1 28:-1 29:-0.982609 30:-0.277457 31:-0.205993 32:-0.921053 33:-1 34:-1 35:-1 36:-1 37:-0.598131 38:-0.335616 39:-0.635036 40:-0.912281 41:-1 42:-1 43:-1 44:-1 45:-0.661538 46:-0.231405 47:-0.703704 48:-0.868852 49:-1 50:-1 51:-1 52:-1 53:-0.706422 54:-0.346535 55:-0.811321 56:-0.88 57:-0.977011 58:-1 59:-0.994135 60:-0.928571 61:-0.673716 62:-0.880503 63:-0.927393 64:-0.495868 65:-1 66:-1 67:-1 68:-1 69:-0.884615 70:-0.308475 71:-0.423077 72:-0.699605 73:-1 74:-1 75:-1 76:-1 77:-0.810458 78:-0.602305 79:-0.755556 80:-0.513274 81:-1 82:-1 83:-1 84:-1 85:-0.669617 86:-0.290541 87:-0.805158 88:-0.869732 89:-1 90:-1 91:-1 92:-1 93:-0.836207 94:0.183673 95:-0.720317 96:-0.902439 97:-1 98:-1 99:-1 100:-1 101:-0.803738 102:0.294545 103:-0.646341 104:-0.907692 105:-1 106:-1 107:-1 108:-1 109:-0.908497 110:0.0820896 111:-0.00309598 112:-0.843373 113:-1 114:-1 115:-1 116:-0.984127 117:-0.603524 118:-0.321429 119:-0.749153 120:-0.786982 121:-1 122:-1 123:-1 124:-1 125:-0.945313 126:0.41358 127:-0.372414 128:-0.925466 129:-1 130:-1 131:-1 132:-1 133:-0.906383 134:0.0459184 135:-0.392971 136:-0.945455 137:-1 138:-1 139:-1 140:-1 141:-0.977528 142:-0.209302 143:-0.551948 144:-0.89781 145:-1 146:-1 147:-1 148:-1 149:-0.792531 150:-0.29878 151:-0.386555 152:-0.874439 
1.1954982944641241 1:-0.986207 2:-1 3:-1 4:-1 5:-1 6:-0.828829 7:-0.591837 8:-0.862434 9:-0.867925 10:-1 11:-1 12:-1 13:-1 14:-1 15:-0.97411 16:0.336842 17:-0.989071 18:-1 19:-1 20:-1 21:-0.989529 22:-0.944223 23:-0.226027 24:-0.787234 25:-1 26:-1 27:-1 28:-1 29:-0.991304 30:-0.66474 31:-0.543071 32:-0.991228 33:-0.859649 34:-0.966006 35:-0.99422 36:-1 37:-0.990654 38:-0.972603 39:-0.912409 40:-0.824561 41:-0.986755 42:-1 43:-1 44:-0.950617 45:-0.864615 46:-0.157025 47:0.598765 48:-0.989071 49:-1 50:-1 51:-1 52:-1 53:-0.972477 54:-0.574257 55:-0.691824 56:-0.96 57:-0.931034 58:-1 59:-1 60:-1 61:-1 62:-0.987421 63:-0.623762 64:-0.173554 65:-1 66:-1 67:-1 68:-0.94382 69:-0.798077 70:-0.315254 71:0.450549 72:-0.98419 73:-0.987342 74:-1 75:-0.995652 76:-0.889571 77:-0.941176 78:-0.78098 79:0.6 80:-0.893805 81:-0.980952 82:-1 83:-0.993174 84:-0.958506 85:-0.935103 86:-0.695946 87:0.707736 88:-0.923372 89:-1 90:-1 91:-1 92:-0.854015 93:-0.862069 94:-0.48688 95:0.30343 96:-0.97561 97:-0.945355 98:-0.994924 99:-0.987988 100:-0.894737 101:-0.850467 102:-0.694545 103:0.158537 104:-0.8 105:-0.989305 106:-0.994924 107:-0.993884 108:-0.925926 109:-0.843137 110:-0.567164 111:0.820433 112:-0.771084 113:-0.989071 114:-1 115:-1 116:-0.968254 117:-0.876652 118:-0.238095 119:0.579661 120:-0.810651 121:-0.912568 122:-0.979695 123:-0.981651 124:-0.936652 125:-0.929688 126:-0.839506 127:0.889655 128:-0.614907 129:-0.956284 130:-0.984772 131:-1 132:-1 133:-0.974468 134:-0.867347 135:1 136:-0.854545 137:-0.967213 138:-0.98568 139:-1 140:-1 141:-1 142:-0.906977 143:1 144:-0.79562 145:-0.934426 146:-0.979695 147:-0.988701 148:-1 149:-1 150:-0.97561 151:0.722689 152:-0.488789 
2.9233209204908595 1:-1 2:-1 3:-1 4:-1 5:-1 6:-0.972973 7:0.534694 8:-0.619048 9:-1 10:-1 11:-1 12:-1 13:0.891892 14:-0.842795 15:-1 16:-1 17:-1 18:-1 19:-1 20:-1 21:-0.989529 22:-0.577689 23:-0.671233 24:-0.948936 25:-1 26:-0.858736 27:-0.297872 28:-0.987342 29:-1 30:-1 31:-1 32:-1 33:-1 34:-1 35:-1 36:-1 37:1 38:-0.90411 39:-1 40:-1 41:-0.880795 42:-0.946399 43:-0.810811 44:-0.481481 45:-0.784615 46:-0.991736 47:-1 48:-0.989071 49:-0.990826 50:-0.996466 51:-0.981763 52:-0.159236 53:0.0366972 54:-0.930693 55:-0.993711 56:-0.966667 57:-0.988506 58:-0.985816 59:-0.923754 60:1 61:-0.661631 62:-1 63:-1 64:-1 65:-0.994203 66:-1 67:-0.994048 68:-0.359551 69:0.336538 70:-0.972881 71:-0.994505 72:-0.968379 73:-0.936709 74:-0.939086 75:-0.917391 76:-0.141104 77:-0.705882 78:-1 79:-1 80:-1 81:-1 82:-0.994924 83:-0.945392 84:0.0954357 85:-0.610619 86:-0.993243 87:-1 88:-0.992337 89:-1 90:-1 91:-0.95107 92:0.824818 93:-0.396552 94:-0.994169 95:-1 96:-1 97:-0.989071 98:-0.923858 99:-0.561562 100:-0.282297 101:-0.88785 102:-1 103:-1 104:-1 105:-0.989305 106:-0.979695 107:-0.914373 108:-0.513228 109:-0.385621 110:-0.970149 111:-1 112:-0.987952 113:-0.989071 114:-0.949239 115:-0.790524 116:0.142857 117:-0.806167 118:-1 119:-1 120:-1 121:-0.989071 122:-0.969543 123:-0.82263 124:-0.375566 125:-0.835938 126:-1 127:-1 128:-0.987578 129:-1 130:-1 131:-0.993884 132:-0.767677 133:0.131915 134:-0.943878 135:-0.99361 136:-1 137:-0.989071 138:-0.97136 139:-0.5086 140:-0.136095 141:-0.977528 142:-1 143:-1 144:-1 145:-1 146:-1 147:-1 148:-1 149:-0.701245 150:-0.0609756 151:-0.915966 152:-1 
1.5954565964464928 1:-0.910345 2:-0.993671 3:-1 4:-0.921788 5:-0.962963 6:-0.945946 7:-0.665306 8:-0.650794 9:-0.792453 10:-0.988166 11:-1 12:-0.787611 13:-0.981982 14:-0.930131 15:-0.838188 16:-0.694737 17:-0.989071 18:-0.846774 19:-0.792115 20:-0.461538 21:-0.968586 22:-1 23:-1 24:-0.991489 25:-0.760417 26:-0.895911 27:-0.992908 28:-0.936709 29:-0.991304 30:-0.971098 31:-0.947566 32:-0.701754 33:-0.710526 34:-0.954674 35:-0.976879 36:-0.783439 37:-0.990654 38:-0.993151 39:-0.927007 40:-0.754386 41:-1 42:-1 43:-1 44:-1 45:-1 46:-0.909091 47:-0.0555556 48:-1 49:-1 50:-1 51:-1 52:-1 53:-1 54:-0.970297 55:0.955975 56:-0.926667 57:-1 58:-1 59:-1 60:-1 61:-0.993958 62:-0.616352 63:1 64:-0.950413 65:-1 66:-1 67:-1 68:-1 69:-0.990385 70:-0.586441 71:1 72:-0.960474 73:-1 74:-1 75:-1 76:-1 77:-1 78:-0.930836 79:1 80:-0.80531 81:-1 82:-1 83:-1 84:-1 85:-1 86:-0.702703 87:-0.65616 88:-0.992337 89:-1 90:-1 91:-1 92:-1 93:-0.991379 94:-0.609329 95:1 96:-0.926829 97:-1 98:-1 99:-1 100:-1 101:-0.981308 102:-0.498182 103:0.95122 104:-0.938462 105:-0.839572 106:-0.984772 107:-1 108:-1 109:-0.960784 110:-0.701493 111:1 112:-0.566265 113:-0.879781 114:-0.949239 115:-0.990025 116:-0.984127 117:-0.973568 118:-0.744048 119:1 120:-0.526627 121:-1 122:-1 123:-1 124:-1 125:-0.984375 126:-0.851852 127:0.986207 128:-0.838509 129:-0.945355 130:-1 131:-1 132:-0.989899 133:-0.974468 134:-0.857143 135:-0.303514 136:-0.509091 137:-0.989071 138:-1 139:-1 140:-0.994083 141:-0.977528 142:-0.860465 143:-0.181818 144:-0.372263 145:-1 146:-1 147:-1 148:-1 149:-0.991701 150:-0.841463 151:0.117647 152:-0.695067 
1.6004178308951376 1:-1 2:-1 3:-0.473171 4:0.00558659 5:-1 6:-1 7:-1 8:-1 9:-1 10:-1 11:-0.965 12:-0.59292 13:-0.477477 14:-0.947598 15:-0.967638 16:-0.978947 17:-0.693989 18:-0.91129 19:-0.985663 20:-0.974359 21:-0.874346 22:-0.864542 23:-0.938356 24:-0.753191 25:-0.989583 26:-0.851301 27:0.120567 28:-0.829114 29:-1 30:-1 31:-1 32:-1 33:-1 34:-0.886686 35:1 36:-0.936306 37:-1 38:-1 39:-1 40:-1 41:-1 42:-0.946399 43:0.832432 44:-0.934156 45:-1 46:-1 47:-1 48:-1 49:-1 50:-0.932862 51:1 52:-0.974522 53:-1 54:-1 55:-1 56:-1 57:-1 58:-0.939716 59:1 60:-0.914286 61:-1 62:-1 63:-1 64:-1 65:-0.994203 66:-0.540587 67:-0.119048 68:-0.88764 69:-1 70:-1 71:-1 72:-1 73:-0.949367 74:-0.477157 75:0.456522 76:-0.90184 77:-0.986928 78:-1 79:-1 80:-0.893805 81:-0.961905 82:-0.664975 83:1 84:-0.759336 85:-1 86:-1 87:-1 88:-1 89:-0.978142 90:-0.634518 91:1 92:-0.547445 93:-0.991379 94:-1 95:-1 96:-1 97:-0.978142 98:-0.634518 99:0.963964 100:-0.703349 101:-0.990654 102:-1 103:-1 104:-1 105:-0.97861 106:-0.634518 107:1 108:-0.671958 109:-0.986928 110:-1 111:-1 112:-1 113:-0.978142 114:-0.634518 115:0.630923 116:-0.507937 117:-0.991189 118:-1 119:-1 120:-1 121:-0.978142 122:-0.634518 123:1 124:-0.719457 125:-0.992188 126:-1 127:-1 128:-1 129:-0.978142 130:-0.634518 131:1 132:-0.686869 133:-0.991489 134:-1 135:-1 136:-1 137:-0.978142 138:-0.656325 139:0.60688 140:-0.816568 141:-0.988764 142:-1 143:-1 144:-1 145:-0.978142 146:-0.634518 147:0.847458 148:-0.732759 149:-0.991701 150:-1 151:-1 152:-1 
1.8765581755782421 1:-0.97931 2:-0.993671 3:-0.990244 4:-0.932961 5:-0.944444 6:-0.990991 7:-0.991837 8:-0.978836 9:-1 10:-1 11:-1 12:-1 13:-1 14:-0.484716 15:-0.624595 16:-1 17:-1 18:-1 19:-1 20:-1 21:-0.989529 22:-0.984064 23:0.321918 24:-0.719149 25:-1 26:-1 27:-1 28:-1 29:-0.547826 30:-0.445087 31:-0.992509 32:-1 33:-1 34:-1 35:-1 36:-1 37:-0.925234 38:0.424658 39:-0.985401 40:-0.991228 41:-1 42:-1 43:-1 44:-1 45:-1 46:-0.900826 47:-0.0740741 48:-0.114754 49:-1 50:-1 51:-1 52:-1 53:-0.990826 54:0.039604 55:-0.0125786 56:-0.993333 57:-1 58:-1 59:-1 60:-1 61:-0.903323 62:0.100629 63:-0.973597 64:-0.991736 65:-1 66:-1 67:-1 68:-1 69:-0.826923 70:0.186441 71:-0.989011 72:-1 73:-1 74:-1 75:-1 76:-1 77:-0.993464 78:-0.988473 79:-0.172222 80:-0.707965 81:-0.942857 82:-0.994924 83:-1 84:-1 85:-1 86:-0.993243 87:-0.891117 88:-0.295019 89:-0.967213 90:-0.994924 91:-1 92:-1 93:-1 94:-0.994169 95:-0.862797 97:-1 98:-1 99:-1 100:-0.990431 101:-0.766355 102:0.207273 103:-0.993902 104:-0.992308 105:-1 106:-1 107:-1 108:-1 109:-0.594771 110:0.186567 111:-0.993808 112:-0.987952 113:-1 114:-1 115:-1 116:-1 117:-0.964758 118:-0.910714 119:0.159322 120:-0.254438 121:-0.978142 122:-0.994924 123:-1 124:-1 125:-1 126:-0.987654 127:-0.813793 128:-0.118012 129:-0.967213 130:-1 131:-1 132:-1 133:-1 134:-0.994898 135:-0.789137 136:-0.409091 137:-0.978142 138:-0.995227 139:-1 140:-1 141:-1 142:-0.994186 143:-0.831169 144:0.109489 145:-1 146:-1 147:-1 148:-1 149:-0.983402 150:-0.426829 151:-0.462185 152:-0.991031 
4.4819501311554015 1:-1 2:-1 3:-1 4:-1 5:-1 6:-0.396396 7:0.510204 8:-0.978836 9:-1 10:-1 11:-1 12:-1 13:-0.990991 14:-0.729258 15:1 16:-0.978947 17:-1 18:-1 19:-1 20:-1 21:-1 22:-0.649402 23:0.39726 24:-0.965957 25:-1 26:-1 27:-1 28:-1 29:-0.973913 30:-0.323699 31:-0.7603 32:-0.991228 33:-1 34:-1 35:-1 36:-1 37:-0.990654 38:-0.171233 39:-0.846715 40:-0.991228 41:-1 42:-1 43:-1 44:-1 45:-1 46:-0.958678 47:0.197531 48:-0.803279 49:-1 50:-0.992933 51:-0.379939 52:-0.630573 53:-1 54:-1 55:-1 56:-1 57:-1 58:-1 59:-1 60:-1 61:-0.993958 62:-0.465409 63:-0.656766 64:-1 65:-1 66:-1 67:-1 68:-1 69:-1 70:-0.966102 71:-0.489011 72:-0.968379 73:-1 74:-1 75:-1 76:-1 77:-0.973856 78:0.054755 79:-0.388889 80:-0.911504 81:-0.619048 82:-0.86802 83:-0.972696 84:-1 85:-1 86:-1 87:-1 88:-0.992337 89:-1 90:-1 91:-1 92:-1 93:-1 94:-0.994169 95:-0.0976253 96:-0.0243902 97:-1 98:-1 99:-1 100:-0.942584 101:-0.616822 102:-0.985455 103:-1 104:-0.992308 105:-1 106:-1 107:-1 108:-1 109:-0.986928 110:-0.223881 111:0.399381 112:-0.987952 113:-1 114:-1 115:-1 116:-1 117:-0.991189 118:0.458333 119:-0.735593 120:-0.976331 121:-1 122:-1 123:-1 124:-1 125:-1 126:-0.969136 127:0.655172 128:-0.950311 129:-1 130:-1 131:-1 132:-1 133:-1 134:-0.0255102 135:-0.43131 136:-0.990909 137:-1 138:-1 139:-1 140:-1 141:-0.988764 142:-0.0290698 143:-0.62987 144:-0.985401 145:-1 146:-1 147:-1 148:-1 149:-1 150:-0.969512 151:0.352941 152:-0.802691 
1.1095191793625516 1:-1 2:-0.993671 3:-0.141463 4:1 5:-1 6:-1 7:-1 8:-1 9:-1 10:-1 11:-1 12:-1 13:-0.594595 14:0.432314 15:-0.987055 16:-0.989474 17:-0.989071 18:-1 19:-1 20:-1 21:0.989529 22:-0.896414 23:-0.931507 24:-0.948936 25:-1 26:-1 27:-1 28:-0.981013 29:-0.382609 30:-0.855491 31:-1 32:-1 33:-1 34:-1 35:-1 36:-1 37:0.925234 38:-0.924658 39:-1 40:-1 41:-1 42:-1 43:-1 44:-0.720165 45:0.0338462 46:-0.991736 47:-1 48:-1 49:-1 50:-1 51:-0.993921 52:0.210191 53:-0.981651 54:-1 55:-1 56:-1 57:-1 58:-1 59:-1 60:-1 61:0.299094 62:-0.968553 63:-1 64:-1 65:-1 66:-1 67:-1 68:-1 69:-0.798077 70:0.0711864 71:-0.972527 72:-1 73:-1 74:-1 75:-1 76:-0.828221 77:-0.0784314 78:-1 79:-1 80:-1 81:-1 82:-0.944162 83:-0.774744 84:1 85:-0.9941 86:-1 87:-1 88:-1 89:-1 90:-0.944162 91:-0.798165 92:-0.751825 93:-1 94:-1 95:-1 96:-1 97:-1 98:-1 99:-1 100:-1 101:0.383178 102:-0.890909 103:-1 104:-1 105:-1 106:-0.949239 107:-0.571865 108:1 109:-1 110:-1 111:-1 112:-1 113:-1 114:-1 115:-1 116:-1 117:-0.621145 118:0.107143 119:-0.979661 120:-1 121:-1 122:-1 123:-1 124:-1 125:-0.664063 126:0.148148 127:-0.97931 128:-1 129:-1 130:-1 131:-1 132:-1 133:-0.634043 134:-0.0510204 135:-0.980831 136:-1 137:-1 138:-1 139:-1 140:-1 141:-0.516854 142:0.0813953 143:-0.980519 144:-1 145:-1 146:-1 147:-1 148:-1 149:-0.643154 150:0.134146 151:-0.97479 152:-1 
2.5037743921957651 1:0.0482759 2:-1 3:-1 4:-1 5:-1 6:-1 7:-1 8:0.0793651 9:0.415094 10:-1 11:-1 12:-1 13:-1 14:-1 15:-1 16:0.0736842 17:1 18:-1 19:-1 20:-1 21:-1 22:-1 23:-1 24:-0.353191 25:-0.239583 26:-0.95539 27:-1 28:-1 29:-1 30:-1 31:-1 32:-0.403509 33:-0.991228 34:-1 35:-1 36:-1 37:-1 38:-1 39:-0.80292 40:0.45614 41:-0.97351 42:-1 43:-1 44:-1 45:-1 46:-1 47:-0.888889 48:1 49:-0.972477 50:-1 51:-1 52:-1 53:-1 54:-1 55:-0.987421 56:1 57:-0.91954 58:-0.939716 59:-0.947214 60:-0.842857 61:-0.740181 62:-0.987421 63:-0.986799 64:-0.983471 65:1 66:-0.958549 67:-1 68:-1 69:-1 70:-1 71:-1 72:-0.992095 73:-0.493671 74:-1 75:-1 76:-1 77:-1 78:-0.994236 79:-0.983333 80:0.548673 81:-0.942857 82:-1 83:-1 84:-0.925311 85:-0.876106 86:-0.986486 87:-0.982808 88:1 89:0.431694 90:-1 91:-1 92:-1 93:-1 94:-1 95:-0.984169 96:0.341463 97:-0.0491803 98:-0.553299 99:-0.927928 100:-0.933014 101:-0.990654 102:-1 103:-1 104:-1 105:0.379679 106:-0.989848 107:-1 108:-1 109:-0.986928 110:-0.992537 111:-0.950464 112:0.204819 113:0.956284 114:-0.984772 115:-0.985037 116:-0.634921 117:-0.982379 118:-1 119:-0.99322 120:0.0177515 121:0.836066 122:-0.949239 123:-0.969419 124:-0.819005 125:-0.96875 126:-1 127:-0.993103 128:-0.10559 129:0.650273 130:-0.923858 131:-0.957187 132:-0.777778 133:-0.974468 134:-0.994898 135:-0.98722 136:-0.290909 137:-0.125683 138:-0.995227 139:-0.995086 140:-0.970414 141:-0.752809 142:-0.953488 143:-0.87013 144:1 145:-0.0491803 146:-0.786802 147:-0.988701 148:-0.982759 149:-1 150:-1 151:-1 152:-0.991031 
8 1:-0.682759 2:-1 3:-1 4:-1 5:-1 6:-1 7:-1 8:-0.544974 9:-0.915094 10:-0.485207 11:-0.995 12:-1 13:-1 14:-1 15:-1 16:-1 17:-0.311475 18:-0.83871 19:-1 20:-1 21:-1 22:-1 23:-1 24:-1 25:-0.510417 26:-0.784387 27:-1 28:-1 29:-1 30:-1 31:-1 32:-1 33:-0.938596 34:-0.988669 35:-0.99422 36:-0.961783 37:-0.990654 38:-0.993151 39:-0.985401 40:-0.973684 41:-1 42:-1 43:-1 44:-0.753086 45:-0.895385 46:-0.991736 47:-1 48:-1 49:-1 50:-1 51:-1 52:-0.66879 53:-0.853211 54:-0.980198 55:-1 56:-1 57:-0.965517 58:-0.996454 59:-1 60:-0.985714 61:-0.987915 62:-0.993711 63:-0.993399 64:-0.966942 65:-1 66:-1 67:-1 68:-0.764045 69:-0.846154 70:-0.959322 71:-1 72:-0.992095 73:-1 74:-1 75:-1 76:-1 77:-0.816993 78:-0.769452 79:-0.983333 80:-1 81:-1 82:-1 83:-1 84:-1 85:-1 86:-0.831081 87:-0.805158 88:-0.992337 89:-0.967213 90:-0.852792 91:-0.908257 92:-0.985401 93:-1 94:-1 95:-1 96:-0.97561 97:-0.978142 98:-0.852792 99:-0.927928 100:-0.980861 101:-0.990654 102:-1 103:-0.993902 104:-0.976923 105:-0.97861 106:-0.822335 107:-0.932722 108:-0.989418 109:-1 110:-1 111:-1 112:-0.975904 113:-0.978142 114:-0.852792 115:-0.945137 116:-0.984127 117:-1 118:-1 119:-0.99322 120:-0.964497 121:-0.180328 122:-0.979695 123:-1 124:-1 125:-1 126:-1 127:-1 128:-0.850932 129:-0.945355 130:-0.994924 131:-1 132:-0.989899 133:-0.982979 134:-0.979592 135:-0.929712 136:-0.954545 137:-0.978142 138:-0.842482 139:-0.955774 140:-0.988166 141:-1 142:-1 143:-0.993506 144:-0.941606 145:0.0710383 146:-0.969543 147:-1 148:-1 149:-1 150:-1 151:-1 152:-1 
8 1:-1 2:-1 3:-1 4:-1 5:-1 6:-0.684685 7:-0.820408 8:-1 9:-1 10:-0.857988 11:-0.87 12:-0.982301 13:-1 14:-1 15:-1 16:-1 17:-1 18:-1 19:-1 20:-0.987179 21:-0.968586 22:-0.968127 23:-0.979452 24:-0.965957 25:-1 26:-1 27:-1 28:-1 29:-1 30:-0.99422 31:-0.625468 32:-0.754386 33:-0.991228 34:-1 35:-1 36:-0.987261 37:-0.943925 38:-0.958904 39:-0.963504 40:-0.938596 41:-1 42:-1 43:-1 44:-1 45:-0.963077 46:-0.826446 47:-0.864198 48:-0.879781 49:-1 50:-1 51:-1 52:-1 53:-0.825688 54:-0.49505 55:-0.955975 56:-1 57:-0.965517 58:-0.978723 59:-0.953079 60:-0.957143 61:-0.975831 62:-0.993711 63:-1 64:-1 65:-0.976812 66:-1 67:-1 68:-1 69:-1 70:-0.986441 71:-0.89011 72:-0.747036 73:-0.962025 74:-0.969543 75:-0.973913 76:-0.98773 77:-0.973856 78:-0.994236 79:-0.994444 80:-0.982301 81:-1 82:-1 83:-1 84:-1 85:-1 86:-0.986486 87:-0.896848 88:-0.708812 89:-0.967213 90:-0.964467 91:-0.969419 92:-0.985401 93:-0.974138 94:-0.982507 95:-0.989446 96:-0.987805 97:-1 98:-1 99:-1 100:-1 101:-0.626168 102:-0.869091 103:-0.987805 104:-0.992308 105:-0.957219 106:-0.969543 107:-0.957187 108:-0.989418 109:-0.947712 110:-0.977612 111:-0.993808 112:-0.987952 113:-1 114:-1 115:-1 116:-1 117:-0.991189 118:-0.89881 119:-0.559322 120:-0.775148 121:-0.945355 122:-0.964467 123:-0.95107 124:-0.9819 125:-0.984375 126:-0.993827 127:-0.993103 128:-0.975155 129:-0.989071 130:-1 131:-1 132:-1 133:-1 134:-0.989796 135:-0.910543 136:-0.618182 137:-1 138:-1 139:-1 140:-1 141:-0.955056 142:-0.906977 143:-0.922078 144:-0.941606 145:-0.989071 146:-1 147:-1 148:-1 149:-1 150:-0.993902 151:-0.89916 152:-0.605381 
8 1:-1 2:-1 3:-0.619512 4:-0.664804 5:-1 6:-1 7:-1 8:-1 9:-0.660377 10:-0.828402 11:-1 12:-1 13:-1 14:-1 15:-1 16:-1 17:-1 18:-1 19:-1 20:-1 21:-1 22:-0.984064 23:-0.671233 24:-0.880851 25:-1 26:-1 27:-1 28:-1 29:-1 30:-0.988439 31:-0.670412 32:-0.850877 33:-1 34:-1 35:-1 36:-0.643312 37:-0.775701 38:-1 39:-1 40:-1 41:-1 42:-1 43:-1 44:-1 45:-0.993846 46:-0.818182 47:-0.753086 48:-0.967213 49:-1 50:-1 51:-0.993921 52:-0.936306 53:-0.944954 54:-0.980198 55:-0.987421 56:-0.993333 57:-0.885057 58:-1 59:-1 60:-1 61:-1 62:-1 63:-0.993399 64:-0.735537 65:-1 66:-1 67:-1 68:-1 69:-1 70:-0.972881 71:-0.686813 72:-0.952569 73:-1 74:-1 75:-0.926087 76:-0.435583 77:-1 78:-1 79:-1 80:-1 81:-0.92381 82:-1 83:-1 84:-1 85:-0.9941 86:-0.993243 87:-0.977077 88:-0.793103 89:-0.737705 90:-0.913706 91:-0.987768 92:-1 93:-1 94:-1 95:-1 96:-0.987805 97:-0.967213 98:-1 99:-1 100:-1 101:-0.981308 102:-0.978182 103:-0.963415 104:-0.838462 105:-1 106:-1 107:-1 108:-0.936508 109:-0.830065 110:-0.925373 111:-0.987616 112:-0.975904 113:-0.989071 114:-0.923858 115:-0.945137 116:-0.968254 117:-0.947137 118:-0.982143 119:-0.986441 120:-0.940828 121:-0.967213 122:-1 123:-1 124:-0.99095 125:-0.976563 126:-0.981481 127:-0.944828 128:-0.78882 129:-0.672131 130:-0.969543 131:-0.993884 132:-1 133:-1 134:-1 135:-1 136:-0.945455 137:-0.857923 138:-0.966587 139:-0.985258 140:-0.988166 141:-1 142:-1 143:-1 144:-0.927007 145:-0.978142 146:-1 147:-1 148:-1 149:-0.950207 150:-0.902439 151:-0.915966 152:-0.93722 
8 1:-1 2:-1 3:-1 4:-1 5:-0.5 6:-0.864865 7:-1 8:-1 9:-1 10:-1 11:-1 12:-1 13:-0.990991 14:-0.755459 15:-0.935275 16:-0.978947 17:-0.978142 18:-0.733871 19:-0.741935 20:-1 21:-1 22:-1 23:-1 24:-1 25:-0.9375 26:-0.94052 27:-0.943262 28:-0.936709 29:-1 30:-1 31:-1 32:-1 33:-1 34:-0.8017 35:-0.768786 36:-1 37:-1 38:-1 39:-1 40:-1 41:-0.986755 42:-0.899497 43:-0.497297 44:-0.975309 45:-1 46:-1 47:-1 48:-1 49:-1 50:-0.989399 51:-0.568389 52:-0.757962 53:-1 54:-1 55:-1 56:-1 57:-1 58:-0.851064 59:-0.583578 60:-0.985714 61:-1 62:-1 63:-1 64:-1 65:-0.95942 66:-0.962003 67:-0.928571 68:-0.842697 69:-1 70:-1 71:-1 72:-1 73:-0.987342 74:-1 75:-1 76:-0.95092 77:-0.934641 78:-0.982709 79:-0.983333 80:-0.938053 81:-0.92381 82:-0.944162 83:-0.897611 84:-0.892116 85:-1 86:-1 87:-1 88:-1 89:-1 90:-0.989848 91:-0.571865 92:-0.678832 93:-1 94:-1 95:-1 96:-1 97:-0.989071 98:-1 99:-0.96997 100:-0.473684 101:-0.981308 102:-1 103:-1 104:-1 105:-1 106:-1 107:-1 108:-0.89418 109:-0.503268 110:-0.947761 111:-0.993808 112:-1 113:-0.89071 114:-0.888325 115:-0.975062 116:-0.984127 117:-1 118:-1 119:-1 120:-0.988166 121:-1 122:-0.989848 123:-0.620795 124:-0.773756 125:-1 126:-1 127:-1 128:-1 129:-1 130:-0.994924 131:-0.584098 132:-0.808081 133:-1 134:-1 135:-1 136:-1 137:-0.879781 138:-0.980907 139:-0.985258 140:-0.905325 141:-1 142:-1 143:-1 144:-0.985401 145:-0.934426 146:-0.974619 147:-0.971751 148:-0.844828 149:-1 150:-1 151:-1 152:-0.991031 
8 1:-1 2:-1 3:-1 4:-0.955307 5:-0.657407 6:-0.936937 7:-0.991837 8:-0.989418 9:-1 10:-1 11:-0.995 12:-0.787611 13:-0.756757 14:-0.930131 15:-0.993528 16:-1 17:-0.989071 18:-0.991935 19:-0.964158 20:-0.717949 21:-0.874346 22:-0.968127 23:-1 24:-0.982979 25:-0.96875 26:-0.977695 27:-0.93617 28:-0.740506 29:-0.921739 30:-0.99422 31:-1 32:-0.982456 33:-0.938596 34:-0.796034 35:-0.820809 36:-0.910828 37:-0.990654 38:-1 39:-1 40:-1 41:-0.94702 42:-0.966499 43:-0.886486 44:-0.8107 45:-0.975385 46:-0.991736 47:-1 48:-0.989071 49:-0.981651 50:-0.989399 51:-0.969605 52:-0.66879 53:-0.862385 54:-0.990099 55:-0.993711 56:-0.986667 57:-0.965517 58:-0.91844 59:-0.835777 60:-0.928571 61:-1 62:-1 63:-1 64:-1 65:-1 66:-1 67:-1 68:-1 69:-0.951923 70:-0.437288 71:-0.994505 72:-1 73:-0.987342 74:-0.989848 75:-0.895652 76:-0.374233 77:-0.993464 78:-1 79:-1 80:-1 81:-0.942857 82:-0.979695 83:-0.890785 84:-0.900415 85:-0.911504 86:-0.986486 87:-1 88:-1 89:-0.989071 90:-0.959391 91:-0.834862 92:-0.620438 93:-0.991379 94:-1 95:-1 96:-1 97:-0.989071 98:-0.994924 99:-0.987988 100:-0.789474 101:-0.691589 102:-0.978182 103:-1 104:-1 105:-1 106:-0.994924 107:-0.944954 108:-0.693122 109:-0.620915 110:-0.992537 111:-1 112:-1 113:-0.989071 114:-0.959391 115:-0.885287 116:-0.571429 117:-0.982379 118:-1 119:-1 120:-1 121:-0.989071 122:-0.984772 123:-0.865443 124:-0.538462 125:-0.945313 126:-1 127:-1 128:-1 129:-1 130:-0.994924 131:-0.963303 132:-0.777778 133:-0.685106 134:-0.989796 135:-1 136:-1 137:-0.978142 138:-0.990453 139:-0.965602 140:-0.946746 141:-0.730337 142:-0.976744 143:-1 144:-1 145:-0.978142 146:-0.989848 147:-0.960452 148:-0.922414 149:-0.80083 150:-0.97561 151:-1 152:-1 
8 1:-1 2:-1 3:-0.990244 4:-0.944134 5:-0.796296 6:-0.837838 7:-0.836735 8:-0.873016 9:-0.981132 10:-0.976331 11:-0.95 12:-0.929204 13:-0.963964 14:-0.973799 15:-0.935275 16:-0.926316 17:-0.978142 18:-1 19:-0.971326 20:-0.974359 21:-0.884817 22:-0.928287 23:-0.931507 24:-0.914894 25:-1 26:-1 27:-1 28:-0.993671 29:-0.652174 30:-0.861272 31:-0.88015 32:-0.964912 33:-0.991228 34:-0.994334 35:-0.99422 36:-0.770701 37:-0.813084 38:-0.952055 39:-0.992701 40:-1 41:-0.97351 42:-1 43:-1 44:-0.934156 45:-0.778462 46:-0.92562 47:-0.987654 48:-0.956284 49:-1 50:-1 51:-1 52:-1 53:-0.944954 54:-0.712871 55:-0.289308 56:-0.953333 57:-1 58:-1 59:-1 60:-1 61:-0.981873 62:-0.641509 63:-0.70297 64:-0.958678 65:-1 66:-1 67:-1 68:-1 69:-0.951923 70:-0.477966 71:-0.730769 72:-0.968379 73:-1 74:-1 75:-1 76:-1 77:-0.928105 78:-0.740634 79:-0.555556 80:-0.920354 81:-1 82:-1 83:-1 84:-1 85:-0.970501 86:-0.824324 87:-0.455587 88:-0.908046 89:-1 90:-1 91:-1 92:-1 93:-0.965517 94:-0.778426 95:-0.440633 96:-0.914634 97:-1 98:-1 99:-1 100:-1 101:-0.981308 102:-0.752727 103:-0.426829 104:-0.930769 105:-1 106:-1 107:-1 108:-1 109:-0.921569 110:-0.574627 111:-0.578947 112:-0.915663 113:-1 114:-1 115:-1 116:-1 117:-1 118:-0.797619 119:-0.823729 120:-1 121:-1 122:-1 123:-1 124:-1 125:-0.976563 126:-0.604938 127:-0.572414 128:-0.950311 129:-1 130:-1 131:-1 132:-1 133:-0.974468 134:-0.80102 135:-0.686901 136:-0.927273 137:-0.945355 138:-0.995227 139:-1 140:-1 141:-1 142:-0.988372 143:-0.883117 144:-0.430657 145:-0.759563 146:-0.93401 147:-0.966102 148:-0.974138 149:-1 150:-1 151:-0.991597 152:-0.847534 
7.953682296786976 1:-1 2:-1 3:-1 4:-1 5:-0.972222 6:-0.153153 7:-0.665306 8:-1 9:-1 10:-1 11:-1 12:-0.0619469 13:-0.216216 14:-0.991266 15:-1 16:-1 17:-1 18:-0.645161 19:-0.333333 20:-1 21:-1 22:-1 23:-1 24:-1 25:-1 26:-0.784387 27:-0.269504 28:-0.993671 29:-1 30:-1 31:-1 32:-1 33:-0.991228 34:-0.818697 35:-0.410405 36:-0.987261 37:-1 38:-1 39:-1 40:-1 41:-1 42:-0.99665 43:-0.416216 44:-0.440329 45:-1 46:-1 47:-1 48:-1 49:-1 50:-1 51:-0.708207 52:0.694268 53:-1 54:-1 55:-1 56:-1 57:-1 58:-0.992908 59:-0.296188 60:-0.3 61:-1 62:-1 63:-1 64:-1 65:-1 66:-0.989637 67:-0.285714 68:-0.426966 69:-1 70:-1 71:-1 72:-1 73:-1 74:-0.994924 75:-0.447826 76:-0.521472 77:-1 78:-1 79:-1 80:-1 81:-1 82:-0.989848 83:-0.0784983 84:-0.759336 85:-1 86:-1 87:-1 88:-1 89:-1 90:-0.979695 91:-0.186544 92:-0.664234 93:-1 94:-1 95:-1 96:-1 97:-1 98:-1 99:-0.993994 100:-0.349282 101:-0.785047 102:-1 103:-1 104:-0.992308 105:-0.668449 106:-0.954315 107:-0.993884 108:-0.989418 109:-1 110:-1 111:-1 112:-0.951807 113:-1 114:-1 115:-0.995012 116:0.0793651 117:-0.788546 118:-0.994048 119:-1 120:-1 121:-1 122:-0.989848 123:-0.149847 124:-0.719457 125:-1 126:-1 127:-1 128:-1 129:-1 130:-0.984772 131:-0.174312 132:-0.686869 133:-1 134:-1 135:-1 136:-1 137:-1 138:-1 139:-0.85258 140:-0.0769231 141:-1 142:-1 143:-1 144:-1 145:-1 146:-0.974619 147:-0.220339 148:-0.87931 149:-1 150:-1 151:-1 152:-1 
4.0373651817718672 1:-0.965517 2:-0.987342 3:-0.980488 4:-0.955307 5:-0.972222 6:-0.990991 7:-1 8:-0.978836 9:-1 10:-1 11:-1 12:-1 13:-1 14:-0.720524 15:-0.521036 16:-1 17:-0.945355 18:-0.975806 19:-0.985663 20:-0.974359 21:-0.979058 22:-0.992032 23:-1 24:-0.982979 25:-1 26:-1 27:-1 28:-1 29:-1 30:-0.693642 31:-0.535581 32:-1 33:-1 34:-1 35:-1 36:-1 37:-0.35514 38:-0.458904 39:-1 40:-1 41:-1 42:-1 43:-1 44:-1 45:-1 46:-1 47:-0.450617 48:-0.311475 49:-1 50:-1 51:-1 52:-1 53:-0.862385 54:0.247525 55:-1 56:-1 57:-1 58:-1 59:-1 60:-1 61:-0.752266 62:-0.308176 63:-1 64:-1 65:-1 66:-1 67:-1 68:-1 69:-1 70:-0.552542 71:-0.17033 72:-1 73:-1 74:-1 75:-0.995652 76:-0.386503 77:-0.660131 78:-1 79:-1 80:-1 81:-1 82:-1 83:-1 84:-1 85:-1 86:-0.932432 87:-0.404011 88:-1 89:-1 90:-1 91:-1 92:-1 93:0.818966 94:-0.959184 95:-1 96:-1 97:-1 98:-1 99:-1 100:-0.990431 101:1 102:-0.963636 103:-1 104:-1 105:-1 106:-1 107:-1 108:-1 109:-1 110:-0.522388 111:-0.0464396 112:-0.987952 113:-0.47541 114:-0.994924 115:-1 116:-1 117:-1 118:-1 119:-1 120:-0.195266 121:-1 122:-1 123:-1 124:-1 125:-0.890625 126:-0.185185 127:-1 128:-1 129:-1 130:-1 131:-1 132:-1 133:-1 134:-0.989796 135:0.603834 136:-0.972727 137:-1 138:-1 139:-1 140:-1 141:-1 142:-0.709302 143:-0.480519 144:-1 145:-1 146:-1 147:-1 148:-0.551724 149:-0.435685 150:-1 151:-1 152:-1 
8 1:-1 2:-1 3:-1 4:-0.988827 5:-0.305556 6:-0.837838 7:-1 8:-1 9:-0.556604 10:-0.95858 11:-0.995 12:-0.982301 13:-1 14:-1 15:-1 16:-0.936842 17:-1 18:-1 19:-1 20:-0.974359 21:-0.21466 22:-0.896414 23:-1 24:-1 25:-0.96875 26:-0.933086 27:-0.843972 28:-0.936709 29:-0.991304 30:-1 31:-1 32:-0.991228 33:-0.973684 34:-0.903683 35:-0.872832 36:-0.88535 37:-0.962617 38:-0.993151 39:-1 40:-0.991228 41:-1 42:-1 43:-0.983784 44:-0.835391 45:-0.698462 46:-0.958678 47:-1 48:-1 49:-0.981651 50:-1 51:-1 52:-0.987261 53:-0.981651 54:-0.980198 55:-0.987421 56:-0.966667 57:-0.988506 58:-0.939716 59:-0.718475 60:-0.914286 61:-1 62:-1 63:-1 64:-1 65:-1 66:-1 67:-1 68:-0.988764 69:-0.846154 70:-0.810169 71:-0.895604 72:-0.992095 73:-1 74:-0.93401 75:-0.765217 76:-0.889571 77:-1 78:-1 79:-1 80:-1 81:-0.542857 82:-0.715736 83:-0.979522 84:-0.991701 85:-1 86:-1 87:-1 88:-0.992337 89:-0.748634 90:-0.705584 91:-0.987768 92:-0.970803 93:-1 94:-1 95:-1 96:-0.987805 97:-0.989071 98:-0.913706 99:-0.693694 100:-0.923445 101:-1 102:-1 103:-1 104:-1 105:-0.989305 106:-0.893401 107:-0.755352 108:-0.915344 109:-1 110:-1 111:-1 112:-1 113:-1 114:-1 115:-0.98005 116:-0.539683 117:-0.603524 118:-0.988095 119:-1 120:-1 121:-1 122:-1 123:-1 124:-0.9819 125:-0.59375 126:-0.746914 127:-0.993103 128:-1 129:-1 130:-1 131:-0.987768 132:-0.828283 133:-0.608511 134:-0.964286 135:-1 136:-1 137:-0.978142 138:-1 139:-1 140:-0.988166 141:-0.977528 142:-0.988372 143:-0.987013 144:-0.927007 145:-1 146:-1 147:-1 148:-0.965517 149:-0.526971 150:-0.914634 151:-0.983193 152:-1 
1.5376214896080058 1:-1 2:-1 3:-1 4:-1 5:-0.157407 6:-0.63964 7:-1 8:-1 9:-1 10:-1 11:-1 12:-1 13:-1 14:-0.179039 15:-0.495146 16:-1 17:-1 18:-1 19:-1 20:-1 21:-1 22:0.163347 23:-0.335616 24:-0.991489 25:-1 26:-1 27:-1 28:-1 29:-1 30:-1 31:-0.430712 32:-0.491228 33:-1 34:-1 35:-1 36:-1 37:-0.168224 38:-0.691781 39:-1 40:-1 41:-1 42:-1 43:-1 44:-1 45:-0.458462 46:-0.636364 47:-1 48:-1 49:-1 50:-1 51:-1 52:-1 53:-0.201835 54:-0.554455 55:-1 56:-1 57:-1 58:-1 59:-1 60:-0.985714 61:0.154079 62:-0.962264 63:-1 64:-1 65:-0.895652 66:-0.996546 67:-1 68:-1 69:-0.423077 70:0.369492 71:-0.989011 72:-0.960474 73:-1 74:-1 75:-1 76:-1 77:0.339869 78:-0.994236 79:-1 80:-1 81:-1 82:-1 83:-1 84:-1 85:-1 86:-0.22973 87:-0.581662 88:-1 89:-1 90:-1 91:-0.993884 92:-0.124088 93:-0.672414 94:-1 95:-1 96:-1 97:-1 98:-1 99:-1 100:-0.990431 101:0.878505 102:-0.970909 103:-1 104:-1 105:-1 106:-1 107:-1 108:-1 109:-1 110:-0.985075 111:0.20743 112:-0.963855 113:-1 114:-1 115:-0.995012 116:0.0634921 117:-0.674009 118:-0.994048 119:-1 120:-1 121:-1 122:-1 123:-1 124:-1 125:-1 126:-0.419753 127:-0.448276 128:-1 129:-1 130:-1 131:-1 132:-1 133:-0.87234 134:-0.0816327 135:-0.974441 136:-1 137:-1 138:-1 139:-1 140:-1 141:-0.0786517 142:-0.680233 143:-1 144:-1 145:-1 146:-1 147:-1 148:-0.413793 149:-0.73444 150:-1 151:-1 152:-1 
3.1403067032967882 1:-0.993103 2:-0.670886 3:-0.717073 4:-0.977654 5:-1 6:-1 7:-1 8:-1 9:-0.292453 10:-0.704142 11:-1 12:-1 13:-1 14:-1 15:-1 16:-1 17:-1 18:-0.209677 19:-0.433692 20:-1 21:-1 22:-1 23:-1 24:-1 25:-1 26:1 27:-0.985816 28:-1 29:-1 30:-1 31:-1 32:-1 33:-0.394737 34:-0.665722 35:-1 36:-1 37:-1 38:-1 39:-1 40:-1 41:-1 42:-0.731993 43:-0.416216 44:-1 45:-1 46:-1 47:-1 48:-1 49:-1 50:-1 51:-1 52:-1 53:-1 54:-1 55:-0.616352 56:-0.453333 57:-1 58:-1 59:-1 60:-1 61:-1 62:-1 63:-0.511551 64:-0.429752 65:-0.507246 66:-1 67:-1 68:-1 69:-1 70:-1 71:-1 72:-0.0909091 73:-1 74:-1 75:-1 76:-1 77:-1 78:-1 79:-0.511111 80:-0.486726 81:0.752381 82:-0.827411 83:-0.993174 84:-1 85:-1 86:-1 87:-1 88:-1 89:-0.945355 90:-1 91:-1 92:-1 93:-1 94:-1 95:-0.994723 96:0.146341 97:-1 98:-1 99:-1 100:-1 101:-1 102:-1 103:-0.207317 104:-0.792308 105:-1 106:-1 107:-1 108:-1 109:-1 110:-1 111:0.23839 112:-0.277108 113:-0.879781 114:-0.989848 115:-1 116:-1 117:-0.84141 118:-0.410714 119:0.19322 120:0.195266 121:-0.879781 122:-0.989848 123:-0.993884 124:-0.99095 125:-0.898438 126:-0.246914 127:0.227586 128:0.142857 129:-0.814208 130:-0.989848 131:-1 132:-0.989899 133:-0.87234 134:-0.204082 135:-0.239617 136:-0.0818182 137:-1 138:-1 139:-1 140:-1 141:-1 142:-1 143:-0.11039 144:0.649635 145:-0.825137 146:-0.989848 147:-1 148:-1 149:-0.93361 150:-0.0487805 151:0.0756303 152:-0.0403587 
5.8880379524649733 1:-1 2:-0.987342 3:0.229268 4:-0.810056 5:-1 6:-1 7:-1 8:-1 9:-1 10:-1 11:-1 12:-0.185841 13:-0.774775 14:-1 15:-1 16:-1 17:-1 18:-1 19:-0.605735 20:0.589744 21:-1 22:-1 23:-1 24:-1 25:-1 26:-1 27:-1 28:-1 29:-0.00869565 30:-0.682081 31:-1 32:-1 33:-0.921053 34:-0.994334 35:-0.988439 36:-0.834395 37:-0.953271 38:-0.986301 39:-0.963504 40:-0.912281 41:-0.89404 42:-0.99665 43:-0.994595 44:-0.942387 45:-0.975385 46:-0.983471 47:-0.950617 48:-0.584699 49:-1 50:-1 51:-1 52:-1 53:-0.963303 54:0.128713 55:-0.761006 56:-0.973333 57:-0.873563 58:-0.943262 59:-0.835777 60:-0.714286 61:-0.993958 62:-0.993711 63:-0.940594 64:-0.92562 65:-0.95942 66:-0.993092 67:-0.988095 68:-0.966292 69:-0.980769 70:-0.99322 71:-0.989011 72:-0.944664 73:-0.987342 74:-1 75:-1 76:-1 77:-0.986928 78:-0.976945 79:-0.716667 80:-0.221239 81:-0.961905 82:-1 83:-1 84:-1 85:-0.988201 86:-0.972973 87:-0.679083 88:-0.333333 89:-0.89071 90:-0.84264 91:-0.902141 92:-0.79562 93:-0.991379 94:-0.994169 95:-0.899736 96:-0.817073 97:-1 98:-1 99:-1 100:-0.971292 101:-0.775701 102:-0.905455 103:-0.804878 104:-0.861538 105:-0.989305 106:-1 107:-0.993884 108:-0.925926 109:-0.660131 110:-0.895522 111:-0.869969 112:-0.86747 113:-0.978142 114:-1 115:-1 116:-0.253968 117:-0.110132 118:-0.916667 119:-0.99322 120:-0.988166 121:-0.584699 122:-0.994924 123:-1 124:-1 125:-1 126:-1 127:-0.855172 128:0.254658 129:-1 130:-1 131:-1 132:-1 133:-0.991489 134:-0.00510204 135:-0.71885 136:-0.990909 137:-0.814208 138:-1 139:-1 140:-0.994083 141:-0.966292 142:-0.994186 143:-0.824675 144:-0.167883 145:-0.748634 146:-0.80203 147:-0.864407 148:-0.905172 149:-1 150:-1 151:-0.932773 152:-0.928251 
8 1:-1 2:-1 3:-1 4:-1 5:-0.5 6:-0.864865 7:-1 8:-1 9:-1 10:-1 11:-1 12:-1 13:-0.990991 14:-0.755459 15:-0.935275 16:-0.978947 17:-0.978142 18:-0.733871 19:-0.741935 20:-1 21:-1 22:-1 23:-1 24:-1 25:-0.9375 26:-0.94052 27:-0.943262 28:-0.936709 29:-1 30:-1 31:-1 32:-1 33:-1 34:-0.8017 35:-0.768786 36:-1 37:-1 38:-1 39:-1 40:-1 41:-0.986755 42:-0.899497 43:-0.497297 44:-0.975309 45:-1 46:-1 47:-1 48:-1 49:-1 50:-0.989399 51:-0.568389 52:-0.757962 53:-1 54:-1 55:-1 56:-1 57:-1 58:-0.851064 59:-0.583578 60:-0.985714 61:-1 62:-1 63:-1 64:-1 65:-0.95942 66:-0.962003 67:-0.928571 68:-0.842697 69:-1 70:-1 71:-1 72:-1 73:-0.987342 74:-1 75:-1 76:-0.95092 77:-0.934641 78:-0.982709 79:-0.983333 80:-0.938053 81:-0.92381 82:-0.944162 83:-0.897611 84:-0.892116 85:-1 86:-1 87:-1 88:-1 89:-1 90:-0.989848 91:-0.571865 92:-0.678832 93:-1 94:-1 95:-1 96:-1 97:-0.989071 98:-1 99:-0.96997 100:-0.473684 101:-0.981308 102:-1 103:-1 104:-1 105:-1 106:-1 107:-1 108:-0.89418 109:-0.503268 110:-0.947761 111:-0.993808 112:-1 113:-0.89071 114:-0.888325 115:-0.975062 116:-0.984127 117:-1 118:-1 119:-1 120:-0.988166 121:-1 122:-0.989848 123:-0.620795 124:-0.773756 125:-1 126:-1 127:-1 128:-1 129:-1 130:-0.994924 131:-0.584098 132:-0.808081 133:-1 134:-1 135:-1 136:-1 137:-0.879781 138:-0.980907 139:-0.985258 140:-0.905325 141:-1 142:-1 143:-1 144:-0.985401 145:-0.934426 146:-0.974619 147:-0.971751 148:-0.844828 149:-1 150:-1 151:-1 152:-0.991031 
2.4772885682032881 1:-1 2:-1 3:-1 4:-0.340782 5:-0.361111 6:-1 7:-1 8:-1 9:-1 10:-1 11:-1 12:-1 13:-1 14:-0.598253 15:-0.488673 16:-1 17:-0.737705 18:-0.629032 19:-0.103943 20:-0.75641 21:-0.989529 22:-0.992032 23:-0.986301 24:-0.778723 25:-0.916667 26:-1 27:-1 28:-1 29:-0.573913 30:-0.104046 31:-0.977528 32:-0.982456 33:-1 34:-1 35:-1 36:-0.987261 37:0.485981 38:-0.979452 39:-1 40:-1 41:-1 42:-1 43:-1 44:-0.99177 45:-0.00923077 46:-0.966942 47:-1 48:-1 49:-1 50:-0.989399 51:0.142857 52:-0.961783 53:-1 54:-1 55:-1 56:-1 57:-0.988506 58:-0.932624 59:0.278592 60:-0.942857 61:-0.987915 62:-0.993711 63:-0.993399 64:-1 65:-0.994203 66:-0.917098 67:0.202381 68:-0.921348 69:-0.971154 70:-0.99322 71:-0.994505 72:-0.992095 73:-0.974684 74:-0.857868 75:-0.256522 76:-0.730061 77:-0.980392 78:-0.994236 79:-0.927778 80:-0.902655 81:-0.885714 82:-0.84264 83:0.16041 84:-0.892116 85:-0.976401 86:-1 87:-0.954155 88:-0.885057 89:-0.945355 90:-0.786802 91:-0.137615 92:-0.708029 93:-0.974138 94:-0.994169 95:-0.952507 96:-0.804878 97:-0.956284 98:-0.77665 99:-0.153153 100:-0.741627 101:-0.981308 102:-0.992727 103:-0.945122 104:-0.923077 105:-0.679144 106:-0.781726 107:-0.449541 108:-0.767196 109:-0.986928 110:-0.992537 111:-0.993808 112:-0.686747 113:-0.79235 114:-0.791878 115:-0.361596 116:-0.571429 117:-0.982379 118:-0.994048 119:-0.986441 120:-0.715976 121:-0.803279 122:-0.761421 123:-0.333333 124:-0.746606 125:-0.984375 126:-0.993827 127:-0.986207 128:-0.726708 129:-0.715847 130:-0.771574 131:-0.510703 132:-0.787879 133:-0.982979 134:-0.994898 135:-0.99361 136:-0.8 137:-0.803279 138:-0.756563 139:-0.479115 140:-0.828402 141:-0.988764 142:-0.994186 143:-0.993506 144:-0.547445 145:-0.803279 146:-0.832487 147:-0.237288 148:-0.784483 149:-0.991701 150:-0.987805 151:-0.94958 152:-0.829596 
2.7006171898877471 1:-0.993103 2:0.588608 3:-0.873171 4:-0.988827 5:-1 6:-1 7:-1 8:-1 9:-0.990566 10:-0.95858 11:0.305 12:-0.982301 13:-1 14:-1 15:-1 16:-1 17:-0.846995 18:1 19:-1 20:-1 21:-1 22:-1 23:-1 24:-1 25:-0.989583 26:0.33829 27:-0.170213 28:-0.993671 29:-1 30:-1 31:-1 32:-1 33:-0.991228 34:-0.478754 35:-0.260116 36:-1 37:-1 38:-1 39:-1 40:-1 41:-1 42:-0.654941 43:-0.356757 44:-0.99177 45:-1 46:-1 47:-1 48:-1 49:-1 50:-0.522968 51:-0.483283 52:-0.987261 53:-1 54:-1 55:-1 56:-1 57:-0.988506 58:-0.691489 59:-0.278592 60:-0.971429 61:-1 62:-1 63:-1 64:-1 65:-0.982609 66:-0.993092 67:-0.994048 68:-0.977528 69:-0.942308 70:0.294915 71:-0.637363 72:-0.960474 73:-1 74:-1 75:-1 76:-1 77:-0.986928 78:0.481268 79:-0.966667 80:-1 81:-1 82:-1 83:-1 84:-1 85:-0.9941 86:1 87:-0.942693 88:-0.984674 89:-1 90:-1 91:-1 92:-1 93:-0.75 94:0.03207 95:-0.989446 96:-1 97:-0.978142 98:-0.928934 99:-0.75976 100:-0.894737 101:-0.981308 102:-0.992727 103:-1 104:-0.992308 105:-1 106:-0.913706 107:-0.400612 108:-0.957672 109:-1 110:-1 111:-1 112:-1 113:-0.846995 114:0.167513 115:-0.990025 116:-1 117:-1 118:-1 119:-1 120:-1 121:-0.857923 123:-0.969419 124:-1 125:-1 126:-1 127:-1 128:-1 129:-0.748634 130:-0.177665 131:-0.981651 132:-1 133:-1 134:-1 135:-1 136:-1 137:-1 138:-0.804296 139:-0.562654 140:-0.994083 141:-1 142:-1 143:-1 144:-1 145:-1 146:-0.791878 147:-0.497175 148:-0.991379 149:-1 150:-1 151:-1 152:-1 
1.9212352601071685 1:-1 2:-1 3:-1 4:0.463687 5:-0.444444 6:-1 7:-1 8:-1 9:-1 10:-1 11:-1 12:0.663717 13:-0.702703 14:-1 15:-1 16:-1 17:-1 18:-1 19:-1 20:-0.987179 21:1 22:-0.976096 23:-1 24:-1 25:-1 26:-1 27:-1 28:-0.272152 29:-0.191304 30:-1 31:-1 32:-1 33:-1 34:-1 35:-1 36:-1 37:0.046729 38:-0.527397 39:-1 40:-1 41:-1 42:-1 43:-0.972973 44:-0.958848 45:-0.04 46:-0.92562 47:-0.993827 48:-1 49:-1 50:-1 51:-1 52:-1 53:0.495413 54:-0.920792 55:-1 56:-1 57:-0.988506 58:-0.996454 59:-1 60:-1 61:-0.957704 62:0.628931 63:-0.788779 64:-0.975207 65:-0.866667 66:-0.972366 67:-0.988095 68:-0.988764 69:-0.942308 70:-0.301695 71:-0.208791 72:-0.715415 73:-0.746835 74:-0.989848 75:-0.991304 76:-0.98773 77:-0.954248 78:-0.331412 79:-0.233333 80:-0.787611 81:-0.542857 82:-0.944162 83:-1 84:-1 85:-0.970501 86:-0.304054 87:-0.260745 88:-0.793103 89:-0.989071 90:-1 91:-1 92:-1 93:-0.931034 94:-0.183673 95:-0.240106 96:-0.597561 97:-1 98:-1 99:-1 100:-1 101:-0.897196 102:0.992727 103:-0.926829 104:-0.992308 105:-0.989305 106:-0.994924 107:-1 108:-1 109:-0.686275 110:0.19403 111:-0.467492 112:-0.698795 113:-0.978142 114:-0.974619 115:-0.970075 116:-0.873016 117:-0.154185 118:-0.994048 119:-1 120:-0.988166 121:-1 122:-1 123:-1 124:-1 125:-0.507813 126:0.203704 127:-0.986207 128:-0.987578 129:-1 130:-1 131:-1 132:-1 133:-0.438298 134:-0.0204082 135:-0.98722 136:-1 137:-1 138:-1 139:-1 140:-1 141:1 142:-0.680233 143:-0.993506 144:-1 145:-1 146:-1 147:-1 148:-1 149:0.0871369 150:-0.810976 151:-0.991597 152:-1 
3.0899084002952031 1:-1 2:-1 3:-1 4:-1 5:-1 6:-0.576577 7:-0.57551 8:-1 9:-1 10:-1 11:-1 12:-1 13:-1 14:-0.973799 15:0.177994 16:-0.894737 17:-1 18:-1 19:-1 20:-1 21:-0.989529 22:0.386454 23:-0.931507 24:-1 25:-1 26:-1 27:-1 28:-1 29:-1 30:-0.757225 31:-0.423221 32:-0.947368 33:-1 34:-1 35:-1 36:-1 37:-1 38:-0.965753 39:1 40:-0.842105 41:-1 42:-1 43:-1 44:-1 45:-1 46:-0.958678 47:0.796296 48:-0.836066 49:-1 50:-1 51:-1 52:-1 53:-0.990826 54:-0.465347 55:-0.301887 56:-0.946667 57:-0.83908 58:-1 59:-1 60:-1 61:-1 62:-0.981132 63:-0.531353 64:-0.561983 65:-0.982609 66:-0.865285 67:-0.738095 68:-0.988764 69:-1 70:-1 71:-1 72:-1 73:-0.962025 74:-1 75:-1 76:-1 77:-1 78:-0.965418 79:-0.0277778 80:-0.80531 81:-0.980952 82:-1 83:-0.986348 84:-0.991701 85:-0.9941 86:-0.554054 87:1 88:-0.977011 89:-0.595628 90:-0.974619 91:-0.993884 92:-0.985401 93:-0.991379 94:-0.982507 95:-0.883905 96:-0.353659 97:-1 98:-1 99:-1 100:-1 101:-0.981308 102:0.549091 103:-0.817073 104:-1 105:-1 106:-1 107:-1 108:-1 109:-1 110:-0.597015 111:-0.256966 112:-0.915663 113:-1 114:-1 115:-1 116:-1 117:-1 118:-0.988095 119:0.667797 120:-0.680473 121:-1 122:-1 123:-1 124:-1 125:-1 126:-0.993827 127:-0.337931 128:0.36646 129:-0.879781 130:-1 131:-1 132:-1 133:-1 134:-0.979592 135:-0.821086 136:-0.509091 137:-1 138:-1 139:-1 140:-1 141:-0.966292 142:-0.0755814 143:-0.467532 144:-1 145:-1 146:-1 147:-1 148:-1 149:-0.975104 150:-0.0304878 151:-0.310924 152:-1 
4.5857876241501847 1:-1 2:-1 3:-0.990244 4:0.787709 5:-0.990741 6:-1 7:-1 8:-1 9:-0.990566 10:-1 11:-1 12:-1 13:-0.936937 14:-0.956332 15:-0.961165 16:-0.894737 17:-0.923497 18:-0.967742 19:-0.978495 20:-0.794872 21:-0.591623 22:-0.593625 23:-0.739726 24:-0.744681 25:-1 26:-0.486989 27:0.198582 28:-0.993671 29:-1 30:-1 31:-1 32:-1 33:-0.929825 34:-0.977337 35:-0.971098 36:-0.808917 37:-0.579439 38:-0.643836 39:-0.49635 40:-0.859649 41:-0.417219 42:-0.882747 43:-0.821622 44:-0.728395 45:-0.901538 46:-0.991736 47:-0.987654 48:-0.956284 49:-0.963303 50:-0.420495 51:-0.586626 52:-0.987261 53:-1 54:-1 55:-1 56:-1 57:-0.977011 58:-0.769504 59:0.44868 60:-0.971429 61:-1 62:-1 63:-1 64:-1 65:-0.982609 66:-0.340242 67:-0.839286 68:-1 69:-1 70:-1 71:-1 72:-1 73:-0.987342 74:-0.35533 75:-0.552174 76:-0.98773 77:-1 78:-1 79:-1 80:-1 81:-0.714286 82:-0.969543 83:-0.924915 84:-0.809129 85:-0.740413 86:-0.777027 87:-0.868195 88:-0.639847 89:-0.868852 90:-0.177665 91:-0.571865 92:-0.985401 93:-1 94:-1 95:-1 96:-1 97:-0.530055 98:-0.609137 99:-0.915916 100:-1 101:-1 102:-1 103:-1 104:-1 105:-0.433155 106:-0.822335 107:-0.993884 108:-1 109:-1 110:-1 111:-1 112:-0.987952 113:-0.989071 114:0.0913706 115:-0.705736 116:-0.984127 117:-1 118:-1 119:-1 120:-1 121:-0.47541 122:0.0558376 123:-0.957187 124:-0.99095 125:-1 126:-1 127:-1 128:-1 129:-0.202186 130:-0.51269 131:-0.993884 132:-1 133:-1 134:-1 135:-1 136:-1 137:-0.202186 138:-0.541766 139:-0.995086 140:-1 141:-1 142:-1 143:-1 144:-1 145:-0.202186 146:-0.51269 147:-0.99435 148:-1 149:-1 150:-1 151:-1 152:-1 
3.1739686298083365 1:-0.0965517 2:-0.993671 3:-1 4:-1 5:-1 6:-1 7:-0.991837 8:-0.693122 9:0.801887 10:-1 11:-1 12:-1 13:-1 14:-1 15:-0.993528 16:-0.252632 17:0.901639 18:0.177419 19:-0.978495 20:-1 21:-1 22:-0.992032 23:-1 24:-1 25:-0.927083 26:-0.977695 27:-0.964539 28:-0.810127 29:-0.852174 30:-1 31:-1 32:-0.973684 33:-0.526316 34:-0.96034 35:-0.99422 36:-0.987261 37:-0.990654 38:-1 39:-0.992701 40:-0.964912 41:0.430464 42:-0.735343 43:-0.994595 44:-1 45:-1 46:-1 47:-1 48:-1 49:0.238532 50:-0.784452 51:-1 52:-1 53:-1 54:-1 55:-1 56:-0.993333 57:-0.988506 58:-1 59:-1 60:-1 61:-1 62:-0.993711 63:-0.775578 64:0.107438 65:-0.333333 66:-0.996546 67:-1 68:-1 69:-1 70:-1 71:-1 72:-0.699605 73:-0.987342 74:-1 75:-1 76:-1 77:-0.993464 78:-0.89049 79:-0.666667 80:-0.690265 81:-1 82:-1 83:-1 84:-1 85:-1 86:-0.993243 87:-0.856734 88:0.149425 89:-0.584699 90:-0.964467 91:-0.975535 92:-0.970803 93:-0.991379 94:-0.994169 95:-0.994723 96:-0.926829 97:-0.0928962 98:-0.472081 99:-0.987988 100:-1 101:-1 102:-1 103:-1 104:-1 105:-1 106:-1 107:-1 108:-1 109:-1 110:-0.985075 111:0.263158 112:-0.819277 113:-1 114:-1 115:-1 116:-1 117:-1 118:-0.988095 119:-0.823729 120:0.83432 121:-1 122:-1 123:-1 124:-1 125:-0.984375 126:-0.685185 127:-0.682759 128:-0.937888 129:0.0491803 130:-0.994924 131:-1 132:-0.989899 133:-1 134:-1 135:-1 136:-0.9 137:-1 138:-1 139:-1 140:-1 141:-0.0224719 142:-0.622093 143:-0.993506 144:-1 145:-0.693989 146:-0.416244 147:-0.954802 148:-1 149:-1 150:-1 151:-1 152:-1 
1.5402157208028964 1:-1 2:-1 3:-1 4:-0.988827 5:-0.12037 6:0.036036 7:-0.983673 8:-1 9:-1 10:-1 11:-1 12:-1 13:-0.990991 14:0.449782 15:-0.119741 16:-1 17:-1 18:-1 19:-1 20:-0.987179 21:-0.989529 22:0.10757 23:-0.0273973 24:-0.974468 25:-1 26:-0.98513 27:-0.964539 28:1 29:-0.965217 30:-1 31:-1 32:-1 33:-1 34:-1 35:-1 36:-1 37:-0.953271 38:-0.116438 39:-0.613139 40:-0.991228 41:-1 42:-1 43:-1 44:-1 45:1 46:-0.826446 47:-0.993827 48:-1 49:-1 50:-1 51:-1 52:-0.656051 53:0.46789 54:-0.930693 55:-0.993711 56:-1 57:-1 58:-1 59:-1 60:-1 61:1 62:-0.773585 63:-0.993399 64:-1 65:-1 66:-1 67:-1 68:-1 69:0.403846 70:-0.118644 71:-0.978022 72:-1 73:-1 74:-1 75:-1 76:-0.680982 77:1 78:-0.988473 79:-1 80:-1 81:-1 82:-1 83:-1 84:-1 85:1 86:-0.682432 87:-0.994269 88:-1 89:-1 90:-1 91:-1 92:-0.912409 93:1 94:-0.900875 95:-0.994723 96:-1 97:-1 98:-1 99:-0.981982 100:0.263158 101:-0.0373832 102:-0.978182 103:-0.993902 104:-1 105:-1 106:-1 107:-1 108:-1 109:-0.45098 110:0.791045 111:-0.869969 112:-0.987952 113:-1 114:-1 115:-1 116:-1 117:-0.911894 118:-0.434524 119:-0.484746 120:-0.881657 121:-1 122:-1 123:-1 124:-0.99095 125:1 126:-0.487654 127:-0.993103 128:-1 129:-0.989071 130:-1 131:-1 132:-0.989899 133:-0.795745 134:1 135:-0.814696 136:-0.863636 137:-1 138:-1 139:-1 140:-1 141:-0.988764 142:0.22093 143:-0.0324675 144:-0.970803 145:-1 146:-1 147:-1 148:-0.982759 149:0.253112 150:-0.695122 151:-0.957983 152:-1 
3.6851887412801991 1:-1 2:-1 3:-1 4:-0.363128 5:-0.462963 6:-1 7:-1 8:-1 9:-1 10:-1 11:-1 12:-0.362832 13:-0.351351 14:-0.991266 15:-1 16:-1 17:-0.978142 18:-0.266129 19:-0.842294 20:-1 21:-1 22:-1 23:-1 24:-1 25:-1 26:-1 27:-1 28:-0.816456 29:-0.46087 30:-0.99422 31:-1 32:-1 33:-0.991228 34:-1 35:-1 36:-0.719745 37:-0.448598 38:-0.979452 39:-1 40:-1 41:-1 42:-1 43:-1 44:-1 45:-0.981538 46:-0.570248 47:-0.475309 48:-0.989071 49:-1 50:-0.961131 51:-0.343465 52:-0.936306 53:-1 54:-1 55:-1 56:-1 57:-0.988506 58:-1 59:-1 60:-0.771429 61:-0.8429 62:-0.962264 63:-0.980198 64:-0.983471 65:-1 66:-1 67:-1 68:-0.539326 69:0.00961538 70:-0.99322 71:-1 72:-1 73:-1 74:-1 75:-1 76:-0.570552 77:-0.405229 78:-0.988473 79:-1 80:-1 81:-1 82:-1 83:-1 84:-0.767635 85:-0.327434 86:-0.986486 87:-1 88:-1 89:-1 90:-1 91:-1 92:-0.649635 93:0.0258621 94:-0.988338 95:-0.994723 96:-0.987805 97:-1 98:-1 99:-1 100:-1 101:-0.850467 102:-0.28 103:-0.75 104:-0.976923 105:-0.97861 106:-0.807107 107:-0.0458716 108:-0.989418 109:-1 110:-1 111:-1 112:-1 113:-0.989071 114:-1 115:-1 116:-0.825397 117:-0.101322 118:-0.982143 119:-1 120:-1 121:-1 122:-1 123:-1 124:-1 125:-0.96875 126:-0.561728 127:-0.558621 128:-0.987578 129:-1 130:-1 131:-1 132:-1 133:-0.923404 134:-0.540816 135:-0.70607 136:-0.936364 137:-1 138:-1 139:-1 140:-1 141:-0.910112 142:-0.401163 143:-0.746753 144:-0.970803 145:-0.912568 146:-1 147:-1 148:-0.991379 149:-0.991701 150:-0.993902 151:-0.890756 152:-0.569507 
4.2454374785178821 1:-1 2:-0.221519 3:-0.209756 4:-0.988827 5:-1 6:-1 7:-1 8:-1 9:-0.990566 10:1 11:-0.845 12:-0.982301 13:-1 14:-0.991266 15:-1 16:-1 17:-1 18:-0.879032 19:0.562724 20:-0.974359 21:-1 22:-1 23:-1 24:-1 25:-0.90625 26:0.851301 27:-0.964539 28:-0.993671 29:-1 30:-1 31:-1 32:-1 33:-0.991228 34:-0.246459 35:-0.65896 36:-0.987261 37:-1 38:-1 39:-1 40:-1 41:-1 42:-0.380235 43:-0.486486 44:-1 45:-1 46:-1 47:-1 48:-1 49:-1 51:-0.884498 52:-0.987261 53:-1 54:-1 55:-1 56:-1 57:-0.977011 58:0.0248227 59:-0.894428 60:-0.985714 61:-1 62:-1 63:-1 64:-1 65:-1 66:-0.91019 67:1 68:-0.977528 69:-1 70:-1 71:-1 72:-1 73:-1 74:-0.213198 75:-0.6 76:-0.98773 77:-1 78:-1 79:-1 80:-1 81:-0.980952 82:0.0406091 83:-0.324232 84:-0.991701 85:-1 86:-1 87:-1 88:-1 89:-0.989071 90:0.604061 91:-0.95107 92:-1 93:-1 94:-1 95:-1 96:-1 97:-1 98:0.335025 99:-0.453453 100:-0.990431 101:-1 102:-1 103:-1 104:-1 105:-1 106:0.228426 107:-0.64526 108:-0.989418 109:-1 110:-1 111:-1 112:-1 113:-1 114:-0.918782 115:0.147132 116:-0.746032 117:-1 118:-1 119:-1 120:-1 121:-0.967213 122:0.573604 123:-0.95107 124:-1 125:-1 126:-1 127:-1 128:-1 129:-1 130:-0.187817 131:-0.149847 132:-0.989899 133:-1 134:-1 135:-1 136:-1 137:-0.989071 138:0.389021 139:-0.916462 140:-0.994083 141:-1 142:-1 143:-1 144:-1 145:-1 146:0.360406 147:-0.463277 148:-1 149:-1 150:-1 151:-1 152:-1 
8 1:-0.931034 2:-0.626582 3:-0.502439 4:-1 5:-1 6:-1 7:-1 8:-1 9:-0.698113 10:-0.414201 11:-0.61 12:-0.504425 13:-0.90991 14:-0.868996 15:-0.81877 16:-0.4 17:-0.956284 18:-0.830645 19:-0.713262 20:-0.717949 21:-0.664921 22:-0.912351 23:-0.869863 24:-0.931915 25:-0.895833 26:-0.873606 27:-0.914894 28:-0.879747 29:-0.930435 30:-0.99422 31:-1 32:-0.973684 33:-0.912281 34:-0.796034 35:-0.901734 36:-0.783439 37:-0.981308 38:-1 39:-1 40:-1 41:-0.94702 42:-1 43:-1 44:-1 45:-0.993846 46:-0.900826 47:-0.277778 48:-0.737705 49:-0.825688 50:-0.978799 51:-1 52:-1 53:-0.990826 54:-0.792079 55:-0.641509 56:-0.88 57:-0.643678 58:-0.833333 59:-0.771261 60:-0.3 61:-0.879154 62:-0.880503 63:-0.874587 64:-0.528926 65:-1 66:-1 67:-1 68:-1 69:-0.990385 70:-0.186441 71:-0.43956 72:-0.976285 73:-0.987342 74:-0.994924 75:-0.995652 76:-0.96319 77:-0.777778 78:-0.360231 79:-0.861111 80:-0.982301 81:-0.980952 82:-1 83:-1 84:-1 85:-0.9941 86:-0.871622 87:-0.00286533 88:-0.693487 89:-0.846995 90:-0.989848 91:-1 92:-1 93:-0.991379 94:-0.755102 95:-0.503958 96:-0.731707 97:-0.989071 98:-0.964467 99:-0.825826 100:-0.818182 101:-0.579439 102:-0.84 103:-0.963415 104:-1 105:-0.828877 106:-0.685279 107:-0.792049 108:-0.798942 109:-0.921569 110:-0.955224 111:-0.981424 112:-0.759036 113:-0.945355 114:-0.979695 115:-0.995012 116:-0.984127 117:-0.929515 118:-0.547619 119:-0.572881 120:-0.928994 121:-0.901639 122:-0.903553 123:-0.993884 124:-1 125:-0.976563 126:-0.82716 127:-0.544828 128:-0.838509 129:-0.781421 130:-0.563452 131:-0.553517 132:-0.939394 133:-0.821277 134:-0.913265 135:-0.827476 136:-0.563636 137:-0.989071 138:-1 139:-1 140:-1 141:-0.955056 142:-0.377907 143:-0.37013 144:-0.985401 145:-0.989071 146:-0.923858 147:-0.926554 148:-0.974138 149:-0.775934 150:-0.731707 151:-0.680672 152:-0.964126 
4.7065872589973958 1:-1 2:-0.601266 3:-0.404878 4:-0.977654 5:-1 6:-1 7:-1 8:-1 9:-0.990566 10:-1 11:-0.99 12:0.557522 13:-0.765766 14:-1 15:-1 16:-1 17:-0.0273224 18:-0.943548 19:-0.985663 20:-0.974359 21:-1 22:-1 23:-1 24:-0.965957 25:-0.645833 26:-0.0557621 27:-0.886525 28:-0.993671 29:-1 30:-1 31:-1 32:-1 33:-0.921053 34:-0.626062 35:-0.514451 36:-0.88535 37:-1 38:-1 39:-1 40:-1 41:-0.97351 42:-0.648241 43:0.2 44:-0.958848 45:-1 46:-1 47:-1 48:-1 49:-1 50:-0.639576 51:-0.37386 52:-0.949045 53:-1 54:-1 55:-1 56:-1 57:-0.83908 58:-0.588652 59:-0.818182 60:-0.985714 61:-1 62:-1 63:-1 64:-1 65:-0.976812 66:-0.861831 67:-0.904762 68:-0.707865 69:-0.971154 70:-1 71:-1 72:-1 73:-1 74:-0.969543 75:-0.430435 76:-0.325153 77:-1 78:-1 79:-1 80:-1 81:-0.980952 82:-0.588832 83:-0.412969 84:-0.958506 85:-1 86:-1 87:-1 88:-1 89:-0.989071 90:-0.532995 91:-0.474006 92:-0.927007 93:-1 94:-1 95:-1 96:-1 97:-0.89071 98:-0.827411 99:-0.867868 100:-0.827751 101:-0.990654 102:-1 103:-1 104:-1 105:-1 106:-0.84264 107:0.266055 108:-0.798942 109:-1 110:-1 111:-1 112:-1 113:-0.868852 114:-0.0152284 115:-0.13217 116:-0.904762 117:-1 118:-1 119:-1 120:-1 121:-1 122:-0.690355 123:0.143731 124:-0.945701 125:-1 126:-1 127:-1 128:-1 129:-0.989071 130:0.0101523 131:-0.547401 132:-0.969697 133:-1 134:-1 135:-1 136:-1 137:-1 138:-0.704057 139:0.036855 140:-0.952663 141:-1 142:-1 143:-1 144:-1 145:-0.989071 146:-0.203046 147:-0.661017 148:-0.991379 149:-1 150:-1 151:-1 152:-1 
-0.50373237870019949 1:-0.468966 2:-1 3:-1 4:-1 5:-1 6:-1 7:-1 8:-0.619048 9:-0.40566 10:-0.414201 11:-0.995 12:-1 13:-1 14:-1 15:-1 16:-1 17:0.322404 18:-0.741935 19:-0.978495 20:-1 21:-1 22:-1 23:-1 24:-1 25:-0.666667 26:-0.464684 27:-0.893617 28:-0.987342 29:-1 30:-1 31:-1 32:-1 33:-0.850877 34:-0.733711 35:-0.843931 36:-0.859873 37:-1 38:-1 39:-1 40:-1 41:-0.748344 42:-1 43:-1 44:-1 45:-1 46:-1 47:-1 48:0.989071 49:-1 50:-1 51:-1 52:-1 53:-0.963303 54:-0.930693 55:-0.81761 56:-0.626667 57:0.54023 58:-0.975177 59:-0.994135 60:-1 61:-1 62:-1 63:-1 64:-0.942149 65:-0.391304 66:-0.962003 67:-0.988095 68:-1 69:-1 70:-1 71:-1 72:-0.928854 73:0.303797 74:-0.959391 75:-0.995652 76:-1 77:-1 78:-1 79:-1 80:-0.867257 81:1 82:-0.959391 83:-0.986348 84:-1 85:-1 86:-1 87:-1 88:-0.931034 89:-0.967213 90:-1 91:-1 92:-1 93:-0.913793 94:-0.813411 95:-0.883905 96:-0.731707 97:-1 98:-1 99:-1 100:-1 101:-0.869159 102:0.2 103:-0.890244 104:-0.992308 105:-0.508021 106:-0.0913706 107:-0.975535 108:-1 109:-1 110:-1 111:-1 112:-1 113:-0.901639 114:-1 115:-1 116:-1 117:-1 118:-1 119:-0.986441 120:1 121:-0.945355 122:-1 123:-1 124:-0.99095 125:-0.632813 126:-0.876543 127:-0.951724 128:-0.900621 129:-0.956284 130:-1 131:-1 132:-0.979798 133:-0.685106 134:-0.892857 135:-0.948882 136:-0.945455 137:-1 138:-1 139:-1 140:-1 141:-1 142:-0.918605 143:-0.136364 144:-0.489051 145:0.234973 146:-0.832487 147:-0.988701 148:-1 149:-1 150:-1 151:-1 152:-1 
-0.59715444660984163 1:-0.903448 2:-0.987342 3:-0.980488 4:-0.96648 5:-0.990741 6:-1 7:-1 8:-0.94709 9:-0.886792 10:-0.946746 11:-0.955 12:-0.539823 13:-0.981982 14:-1 15:-1 16:-0.989474 17:-1 18:-1 19:-1 20:-1 21:-1 22:-0.665339 23:0.30137 24:-1 25:-1 26:-1 27:-1 28:-1 29:-1 30:-1 31:-0.872659 32:0.649123 33:-1 34:-1 35:-1 36:-1 37:-0.990654 38:0.349315 39:-0.773723 40:-1 41:-1 42:-1 43:-1 44:-1 45:-0.926154 46:-0.256198 47:-0.901235 48:-1 49:-0.899083 50:-0.968198 51:-0.93921 52:-0.707006 53:-0.963303 54:-1 55:-1 56:-0.986667 57:-0.885057 58:-0.985816 59:-0.958944 60:-0.5 61:-0.981873 62:-1 63:-1 64:-0.991736 65:-1 66:-1 67:-1 68:-0.88764 69:-0.538462 70:-0.742373 71:-0.950549 72:-0.968379 73:-0.911392 74:-0.329949 75:-0.934783 76:-1 77:-1 78:-1 79:-1 80:-1 81:-1 82:-1 83:-0.993174 84:-0.784232 85:-0.675516 86:-0.993243 87:-1 88:-1 89:-0.989071 90:-1 91:-1 92:-0.766423 93:-0.431034 94:-0.976676 95:-0.994723 96:-1 97:-1 98:-1 99:-1 100:-0.856459 101:-0.485981 102:-0.956364 103:-0.993902 104:-0.992308 105:-0.989305 106:-0.994924 107:-0.993884 108:-0.78836 109:-0.464052 110:-0.955224 111:-0.993808 112:-0.987952 113:-0.989071 114:-0.756345 115:-0.63591 116:-0.809524 117:-1 118:-1 119:-1 120:-1 121:-1 122:-1 123:-1 124:-1 125:-0.984375 126:-0.641975 127:-0.572414 128:-0.925466 129:-0.726776 130:-0.974619 131:-0.981651 132:-0.919192 133:-0.974468 134:-0.994898 135:-0.99361 136:-0.954545 137:-0.989071 138:-0.498807 139:-0.749386 140:-0.994083 141:-1 142:-1 143:-1 144:-1 145:-1 146:-1 147:-1 148:-1 149:-1 150:-0.804878 151:-0.588235 152:-0.811659 
-0.35650438030387832 1:0.2 2:-0.886076 3:-1 4:-1 5:-1 6:-1 7:-1 8:-0.978836 9:-0.981132 10:-0.840237 11:-0.635 12:-0.823009 13:-1 14:-1 15:-1 16:-1 17:-0.978142 18:-0.991935 19:-0.992832 20:-0.871795 21:-0.759162 22:-0.952191 23:-0.972603 24:-0.948936 25:-0.333333 26:-0.479554 27:-0.992908 28:-1 29:-1 30:-1 31:-1 32:-1 33:-1 34:-0.563739 35:-0.317919 36:-0.987261 37:-1 38:-1 39:-1 40:-1 41:-0.0860927 42:-0.822446 43:-0.983784 44:-0.99177 45:-1 46:-1 47:-1 48:-1 49:-1 50:-1 51:-1 52:-1 54:-0.594059 55:-1 56:-1 57:-1 58:-1 59:-1 60:-0.985714 61:-0.63142 62:-0.893082 63:-0.920792 64:-0.867769 65:-0.750725 66:-0.948187 67:-0.994048 68:-0.898876 69:-0.817308 70:-0.972881 71:-0.983516 72:-0.849802 73:-1 74:-1 75:-1 76:-1 77:-0.48366 78:-0.763689 79:-0.894444 80:-0.80531 81:-0.866667 82:-1 83:-1 84:-1 85:-0.988201 86:-0.777027 87:-0.787966 88:-0.0651341 89:-1 90:-1 91:-1 92:-0.985401 93:-0.491379 94:-0.702624 95:-0.889182 96:-0.829268 97:-1 98:-1 99:-1 100:-0.990431 101:-0.411215 102:-0.730909 103:-0.902439 104:-0.915385 105:-1 106:-1 107:-1 108:-0.978836 109:-0.228758 110:-0.761194 111:-0.931889 112:-0.86747 113:-0.617486 114:-0.908629 115:-0.9202 116:-0.920635 117:-1 118:-1 119:-0.99322 120:-0.91716 121:-1 122:-1 123:-1 124:-1 125:-0.984375 126:-0.703704 127:-0.296552 128:-0.73913 129:-0.945355 130:-0.93401 131:-0.798165 132:-0.535354 133:-1 134:-0.994898 135:-1 136:-1 137:-1 138:-1 139:-1 140:-1 141:-0.94382 142:-0.703488 143:-0.720779 144:-1 145:-0.945355 146:-0.832487 147:-0.723164 148:-0.905172 149:-1 150:-1 151:-1 152:-1 
-1.3710677221016994 1:-1 2:-1 3:-1 4:-1 5:-0.240741 6:-0.108108 7:-0.991837 8:-1 9:-1 10:-1 11:-1 12:-1 13:-0.990991 14:-0.572052 15:-0.501618 16:-1 17:-1 18:-1 19:-1 20:-1 21:-0.905759 22:-0.61753 23:-0.732877 24:-0.974468 25:-0.9375 26:-0.962825 27:-0.87234 28:-0.924051 29:-0.965217 30:-0.988439 31:-0.992509 32:-0.991228 33:-1 34:-1 35:-1 36:-1 37:-0.990654 38:-0.520548 39:-0.766423 40:-1 41:-1 42:-1 43:-1 44:-1 45:-1 46:-0.421488 47:-0.783951 48:-0.967213 49:-1 50:-0.978799 51:0.404255 52:-0.363057 53:-1 54:-1 55:-1 56:-1 57:-0.137931 58:-0.648936 59:-0.994135 60:-1 61:-1 62:-1 63:-1 64:-1 65:-1 66:-1 67:-1 68:-1 69:-1 70:-0.986441 71:-0.401099 72:-0.454545 73:-1 74:-1 75:-1 76:-0.693252 77:-0.496732 78:-0.988473 79:-1 80:-1 81:-1 82:-1 83:-1 84:-1 85:-0.899705 86:-0.0405405 87:-0.959885 88:-1 89:-1 90:-0.974619 91:-0.59633 92:-0.124088 93:-1 94:-1 95:-1 96:-1 97:-1 98:-1 99:-1 100:-1 101:-0.943925 102:-0.0254545 103:-0.884146 104:-1 105:-1 106:-0.994924 107:-0.810398 108:0.492063 109:-0.79085 110:-1 111:-1 112:-1 113:-1 114:-1 115:-1 116:-1 117:-0.955947 118:-0.291667 119:-0.776271 120:-1 121:-0.989071 122:-0.994924 123:-0.993884 124:-0.900452 125:-0.71875 126:-0.932099 127:-0.97931 128:-0.975155 129:-1 130:-1 131:-0.993884 132:-0.878788 133:-0.710638 134:-0.943878 135:-0.98722 136:-0.990909 137:-1 138:-1 139:-1 140:-1 141:-0.921348 142:-0.337209 143:-0.837662 144:-1 145:-1 146:-0.918782 147:-0.548023 148:-0.758621 149:-1 150:-1 151:-1 152:-1 
-2.4453970169353858 1:-1 2:-0.64557 3:-0.385366 4:-0.988827 5:-1 6:-1 7:-1 8:-1 9:-1 10:-1 11:-1 12:-0.451327 13:-0.0810811 14:-1 15:-1 16:-1 17:-0.551913 18:-0.0725806 19:-1 20:-1 21:-1 22:-1 23:-1 24:-1 25:-0.208333 26:-0.32342 27:-0.992908 28:-1 29:-1 30:-1 31:-1 32:-0.991228 33:-0.359649 34:-1 35:-1 36:-1 37:-1 38:-1 39:-1 40:-0.657895 41:-1 42:-0.829146 43:-0.578378 44:-0.99177 45:-1 46:-1 47:-1 48:-1 49:-0.522936 50:-0.583039 51:-0.993921 52:-1 53:-1 54:-1 55:-1 56:-1 57:-1 58:-0.751773 59:-0.624633 60:-0.985714 61:-1 62:-1 63:-1 64:-1 65:-0.994203 66:-0.799655 67:-0.613095 68:-0.988764 69:-1 70:-1 71:-1 72:-1 73:-1 74:-0.675127 75:-0.7 76:-0.98773 77:-1 78:-1 79:-1 80:-1 81:0.52381 82:-0.492386 83:-0.972696 84:-1 85:-1 86:-1 87:-1 88:-1 89:-1 90:-1 91:-0.535168 92:0.664234 93:-1 94:-1 95:-1 96:-1 97:-1 98:-0.796954 99:-0.435435 100:-0.990431 101:-1 102:-1 103:-1 104:-1 105:-0.989305 106:0.274112 107:-0.834862 108:-1 109:-1 110:-1 111:-1 112:-1 113:-0.825137 114:-0.274112 115:-0.9601 116:-1 117:-1 118:-1 119:-1 120:-1 121:-0.278689 122:-0.979695 123:-0.993884 124:-1 125:-1 126:-1 127:-1 128:-0.975155 129:-0.278689 130:-0.979695 131:-0.993884 132:-1 133:-1 134:-1 135:-1 136:-0.981818 137:-0.278689 138:-0.980907 139:-0.995086 140:-1 141:-1 142:-1 143:-1 144:-0.970803 145:-0.278689 146:-0.979695 147:-0.99435 148:-1 149:-1 150:-1 151:-1 152:-0.982063 
-0.20531221653022483 1:-1 2:-1 3:-0.980488 4:-0.675978 5:-0.657407 6:-0.981982 7:-0.991837 8:-0.989418 9:-1 10:-0.727811 11:-0.155 12:-0.893805 13:-1 14:-1 15:-1 16:-1 17:-1 18:-0.991935 19:-0.856631 20:1 21:-0.989529 22:-1 23:-1 24:-1 25:-0.989583 26:-0.925651 27:-0.446809 28:-0.759494 29:-1 30:-1 31:-1 32:-1 33:-1 34:-1 35:-1 36:-1 37:-0.542056 38:-0.417808 39:-0.956204 40:-1 41:-1 42:-0.979899 43:-0.52973 44:-0.596708 45:-1 46:-1 47:-1 48:-1 49:-1 50:-1 51:-1 52:-0.987261 53:-0.798165 54:-0.881188 55:-0.981132 56:-0.986667 57:-0.977011 58:-0.698582 59:-0.571848 60:-0.971429 61:-1 62:-1 63:-1 64:-1 65:-0.994203 66:-0.734024 67:-0.5 68:-0.977528 69:-1 70:-1 71:-1 72:-1 73:-0.962025 74:0.279188 75:-0.882609 76:-1 77:-1 78:-1 79:-1 80:-1 81:-0.980952 82:-0.898477 83:-0.795222 84:-0.825726 85:-0.9941 86:-1 87:-1 88:-1 89:-0.989071 90:-0.898477 91:-0.865443 92:-0.547445 93:-1 94:-1 95:-1 96:-1 97:-1 98:-1 99:-1 100:-1 101:-0.766355 102:-0.716364 103:-0.957317 104:-0.992308 105:-1 106:-1 107:-0.95107 108:0.534392 109:-0.934641 110:-1 111:-1 112:-1 113:-1 114:-1 115:-1 116:-0.984127 117:-0.735683 118:-0.857143 119:-0.952542 120:-0.988166 121:-1 122:-1 123:-0.963303 124:0.393665 125:-0.984375 126:-1 127:-1 128:-1 129:-1 130:-1 131:-1 132:-1 133:-0.982979 134:-0.469388 135:-0.648562 136:-1 137:-1 138:-0.904535 139:-0.695332 140:-0.91716 141:-1 142:-1 143:-1 144:-1 145:-0.300546 146:-0.680203 147:-0.977401 148:-1 149:-1 150:-1 151:-1 152:-1 
-0.24209690512674761 1:-1 2:-1 3:-1 4:-1 5:-1 6:-0.522523 7:-0.395918 8:-0.989418 9:-1 10:-1 11:-1 12:0.345133 13:-0.504505 14:-0.982533 15:-0.993528 16:-1 17:-1 18:-1 19:-1 20:-1 21:-0.989529 22:-0.585657 23:-0.575342 24:-0.982979 25:-1 26:-1 27:-1 28:-0.449367 29:-0.721739 30:-1 31:-1 32:-1 33:-1 34:-1 35:-1 36:-1 37:-1 38:-0.349315 39:-0.0875912 40:-1 41:-0.854305 42:-0.976549 43:-0.962162 44:-0.925926 45:-0.987692 46:-1 47:-1 48:-1 49:-0.00917431 50:-0.996466 51:-1 52:-1 53:-1 54:-1 55:-1 56:-0.866667 57:-0.83908 58:-0.971631 59:-0.964809 60:-0.942857 61:-1 62:-1 63:-1 64:-0.991736 65:-0.936232 66:-0.982729 67:-0.97619 68:-0.94382 69:-0.990385 70:-1 71:-1 72:-0.992095 73:-1 74:-1 75:-1 76:-0.803681 77:-0.339869 78:-1 79:-1 80:-1 81:-1 82:-0.736041 83:-0.569966 84:-1 85:-1 86:-1 87:-1 88:-1 89:-1 90:-0.736041 91:-0.663609 92:-1 93:-1 94:-1 95:-1 96:-1 97:-1 98:-1 99:-1 100:-0.69378 101:-0.186916 102:-0.956364 103:-1 104:-1 105:-0.989305 106:-1 107:-1 108:-0.989418 109:-0.947712 110:-0.955224 111:-0.93808 112:-0.831325 113:-0.879781 114:-0.984772 115:-0.985037 116:-0.825397 117:-0.938326 118:-1 119:-0.99322 120:-0.976331 121:-0.978142 122:-0.700508 123:-0.737003 124:-0.99095 125:-1 126:-1 127:-1 128:-1 129:-1 130:-1 131:-1 132:-0.989899 133:-0.0638298 134:-0.994898 135:-1 136:-1 137:-0.945355 138:-0.675418 139:-0.837838 140:-0.994083 141:-1 142:-1 143:-1 144:-1 145:-0.945355 146:-0.563452 147:-0.892655 148:-1 149:-1 150:-1 151:-1 152:-1 
-0.4920084973578851 1:-0.972414 2:-1 3:-1 4:-0.977654 5:-0.87963 6:-0.954955 7:-0.967347 8:-0.89418 9:-1 10:-1 11:-1 12:-1 13:-0.990991 14:-0.842795 15:-0.734628 16:-0.694737 17:-1 18:-1 19:-0.741935 20:0.384615 21:-1 22:-1 23:-1 24:-1 25:-1 26:-0.992565 27:-0.787234 28:-0.392405 29:-1 30:-1 31:-1 32:-1 33:-1 34:-0.932011 35:0.0462428 36:-0.898089 37:-1 38:-1 39:-1 40:-1 41:-1 42:-1 43:-0.389189 44:-0.0534979 45:-1 46:-1 47:-1 48:-1 49:-1 50:-0.879859 51:-0.106383 52:-0.974522 53:-1 54:-1 55:-1 56:-1 57:-1 58:-0.755319 59:-0.360704 60:-0.957143 61:-1 62:-1 63:-1 64:-1 65:-1 66:-1 67:-1 68:-1 69:-0.778846 70:-0.823729 71:-0.901099 72:-0.960474 73:-1 74:-1 75:-1 76:-1 77:-0.862745 78:-0.89049 79:-0.9 80:-0.911504 81:-1 82:-1 83:-1 84:-1 85:-0.846608 86:-0.864865 87:-0.891117 88:-0.954023 89:-1 90:-0.527919 91:-0.449541 92:-0.985401 93:-1 94:-1 95:-1 96:-1 97:0.464481 98:-1 99:-1 100:-1 101:-1 102:-1 103:-1 104:-0.9 105:-0.97861 106:-1 107:-1 108:-1 109:-0.777778 110:-0.880597 111:-0.919505 112:-0.843373 113:-1 114:-1 115:-0.945137 116:1 117:-1 118:-1 119:-1 120:-1 121:-1 122:-1 123:-0.932722 124:0.140271 125:-1 126:-1 127:-1 128:-1 129:-1 130:-1 131:-0.932722 132:0.272727 133:-1 134:-1 135:-1 136:-1 137:-1 138:-1 139:-0.945946 140:-0.254438 141:-1 142:-1 143:-1 144:-1 145:-1 146:-1 147:-0.937853 148:0.0862069 149:-1 150:-1 151:-1 152:-1 
-0.34462674434420043 1:-0.634483 2:-0.373418 3:-1 4:-1 5:-1 6:-1 7:-1 8:-1 9:-0.990566 10:-1 11:-1 12:-1 13:-1 14:-0.982533 15:-0.184466 16:-0.673684 17:-0.879781 18:-0.991935 19:-1 20:-1 21:-0.989529 22:-1 23:-0.993151 24:-0.489362 25:-0.427083 26:-1 27:-1 28:-1 29:-1 30:-1 31:-0.992509 32:-0.00877193 33:-0.95614 34:-1 35:-1 36:-1 37:-0.962617 38:-0.993151 39:-0.978102 40:-0.587719 41:-0.97351 42:-0.725293 43:-0.864865 44:-0.99177 45:-1 46:-1 47:-1 48:-1 49:-0.954128 50:-1 51:-1 52:-0.987261 53:-0.917431 54:-0.980198 55:-0.968553 56:-0.82 57:-0.781609 58:-1 59:-1 60:-1 61:-1 62:-1 63:-1 64:-0.140496 65:-0.889855 66:-1 67:-1 68:-1 69:-1 70:-1 71:-1 72:-0.177866 73:-0.759494 74:-1 75:-1 76:-1 77:-1 78:-1 79:-1 80:-0.079646 81:-0.638095 82:-1 83:-1 84:-1 85:-1 86:-1 87:-1 88:-0.203065 89:-0.79235 90:-1 91:-1 92:-1 93:-1 94:-1 95:-1 96:0.268293 97:-0.79235 98:-1 99:-1 100:-1 101:-1 102:-1 103:-1 104:-0.2 105:-0.796791 106:-1 107:-1 108:-1 109:-1 110:-1 111:-1 112:0.253012 113:-0.79235 114:-1 115:-1 116:-1 117:-1 118:-1 119:-1 120:0.230769 121:-0.79235 122:-1 123:-1 124:-1 125:-1 126:-1 127:-1 128:0.291925 129:-0.79235 130:-1 131:-1 132:-1 133:-1 134:-1 135:-1 136:-0.0545455 137:-0.79235 138:-1 139:-1 140:-1 141:-1 142:-1 143:-1 144:0.518248 145:-0.79235 146:-1 147:-1 148:-1 149:-1 150:-1 151:-1 152:-0.0672646 
-0.047891874971006693 1:0.248276 2:-0.708861 3:-1 4:-1 5:-1 6:-1 7:-1 8:-1 9:-1 10:-1 11:-1 12:-1 13:-1 14:-1 15:-0.786408 16:1 17:-1 18:-1 19:-1 20:-1 21:-1 22:-0.904382 23:-0.212329 24:-0.855319 25:-0.927083 26:-1 27:-1 28:-1 29:-0.991304 30:-1 31:-0.985019 32:-0.596491 33:-1 34:-1 35:-1 36:-1 37:-1 38:-1 39:-0.50365 40:0.263158 41:-0.443709 42:-0.262982 43:-0.994595 44:-1 45:-1 46:-1 47:-1 48:-1 49:-1 50:-1 51:-1 52:-1 53:-1 54:-1 55:-0.534591 56:-0.226667 57:-0.988506 58:-1 59:-1 60:-1 61:-0.981873 62:-0.987421 63:-0.940594 64:-0.619835 65:-1 66:-1 67:-1 68:-1 69:-1 70:-0.498305 71:0.0824176 72:-1 73:-0.544304 74:-1 75:-1 76:-1 77:-1 78:-1 79:-0.983333 80:0.0265487 81:-0.371429 82:-1 83:-1 84:-1 85:-1 86:-1 87:-0.994269 88:-0.0651341 89:-1 90:-1 91:-1 92:-1 93:-1 94:-0.801749 95:-0.366755 96:-0.987805 97:-0.989071 98:-1 99:-1 100:-1 101:-0.971963 102:-0.985455 103:-0.939024 104:-0.676923 105:-1 106:-1 107:-1 108:-1 109:-0.973856 110:-0.80597 111:-0.20743 112:-0.939759 113:-1 114:-1 115:-1 116:-1 117:-0.991189 118:-0.869048 119:-0.111864 120:-0.857988 121:-1 122:-1 123:-1 124:-1 125:-1 126:-0.87037 127:-0.0758621 128:-0.888199 129:-1 130:-1 131:-1 132:-1 133:-1 134:-0.882653 135:-0.105431 136:-0.963636 137:-1 138:-1 139:-1 140:-1 141:-1 142:-1 143:-0.61039 144:0.956204 145:-0.857923 146:-1 147:-1 148:-1 149:-1 150:-1 151:-0.983193 152:0.246637 
-1.1604897071300586 1:-0.993103 2:-0.506329 3:-0.482927 4:-1 5:-1 6:-1 7:-1 8:-1 9:-0.943396 10:-0.994083 11:-1 12:-0.929204 13:-0.972973 14:-0.991266 15:-0.993528 16:-0.894737 17:-0.934426 18:-1 19:-1 20:-0.987179 21:-0.979058 22:-0.992032 23:-0.986301 24:-0.87234 25:-0.9375 26:-1 27:-1 28:-0.993671 29:-0.982609 30:-0.99422 31:-0.985019 32:-0.868421 33:-0.973684 34:-1 35:-1 36:-0.974522 37:-0.962617 38:-0.986301 39:-0.978102 40:-0.850877 41:0.509934 42:-0.99665 43:-1 44:-1 45:-1 46:-1 47:-1 48:-0.956284 49:-0.146789 50:-0.742049 51:-0.987842 52:-1 53:-1 54:-1 55:-1 56:-1 57:-0.988506 58:-0.829787 59:-0.630499 60:-0.971429 61:-1 62:-1 63:-1 64:-1 65:-1 66:-0.896373 67:-0.547619 68:-0.932584 69:-1 70:-1 71:-1 72:-1 73:-0.987342 74:-1 75:-1 76:-1 77:-1 78:-0.994236 79:-0.983333 80:-0.300885 81:-0.961905 82:-1 83:-1 84:-1 85:-1 86:-1 87:-0.988539 88:-0.386973 89:0.836066 90:-0.873096 91:-1 92:-1 93:-1 94:-1 95:-1 96:-1 97:-0.759563 98:-0.604061 99:-0.921922 100:-1 101:-1 102:-1 103:-1 104:-1 105:-0.957219 106:-1 107:-1 108:-1 109:-1 110:-1 111:-1 112:0.722892 113:0.311475 114:-0.994924 115:-1 116:-1 117:-1 118:-1 119:-1 120:-0.952663 121:-0.956284 122:-0.664975 123:-0.785933 124:-0.9819 125:-1 126:-1 127:-1 128:-1 129:-0.934426 130:-0.71066 131:-0.749235 132:-0.989899 133:-1 134:-1 135:-1 136:-1 137:-0.923497 138:-0.670644 139:-0.818182 140:-0.988166 141:-1 142:-1 143:-1 144:-1 145:-0.901639 146:-1 147:-1 148:-1 149:-1 150:-1 151:-0.991597 152:-0.0313901 
-1.083720092370601 1:-1 2:-1 3:-1 4:-0.329609 5:-0.314815 6:-1 7:-1 8:-1 9:-1 10:-1 11:-1 12:-1 13:-0.972973 14:-0.30131 15:-0.669903 16:-1 17:-1 18:-1 19:-1 20:-0.987179 21:-0.518325 22:-0.729084 23:-0.876712 24:-0.991489 25:-1 26:-1 27:-1 28:-0.563291 29:-0.295652 30:-1 31:-1 32:-1 33:-1 34:-1 35:-1 36:0.0191083 37:-0.336449 38:-1 39:-1 40:-1 41:-1 42:-1 43:-1 44:-0.374486 45:-0.575385 46:-1 47:-1 48:-1 49:-1 50:-1 51:-1 52:-1 53:-0.944954 54:-0.158416 55:-0.72327 56:-1 57:-1 58:-1 59:-1 60:-0.0571429 61:-0.540785 62:-1 63:-1 64:-1 65:-1 66:-1 67:-1 68:-1 69:-0.971154 70:-0.410169 71:-0.730769 72:-1 73:-1 74:-1 75:-1 76:-0.288344 77:-0.477124 78:-1 79:-1 80:-1 81:-1 82:-1 83:-1 84:-1 85:-0.988201 86:-0.533784 87:-0.638968 88:-1 89:-1 90:-1 91:-1 92:-1 93:-0.232759 94:-0.440233 95:-0.994723 96:-1 97:-0.934426 98:-1 99:-1 100:-0.961722 101:-0.934579 102:-0.992727 103:-0.987805 104:-0.876923 105:-1 106:-1 107:-1 108:-0.957672 109:1 110:-0.88806 111:-1 112:-1 113:-1 114:-1 115:-0.421446 116:-0.349206 117:-1 118:-1 119:-1 120:-1 121:-1 122:-1 123:-1 124:-1 125:-0.671875 126:-0.240741 127:-0.97931 128:-1 129:-1 130:-1 131:-1 132:-0.292929 133:0.2 134:-1 135:-1 136:-1 137:-1 138:-1 139:-1 140:1 141:-0.910112 142:-1 143:-1 144:-1 145:-1 146:-1 147:-0.983051 148:1 149:-0.991701 150:-1 151:-1 152:-1 
-0.48848472779978491 1:-0.289655 2:-0.468354 3:-1 4:-1 5:-1 6:-1 7:-1 8:-1 9:-0.971698 10:-0.952663 11:-0.86 12:-0.20354 13:-1 14:-1 15:-1 16:-1 17:-1 18:0.41129 19:-0.469534 20:-1 21:-1 22:-1 23:-1 24:-1 25:-0.875 26:-0.992565 27:-1 28:-0.993671 29:-0.991304 30:-0.99422 31:-0.992509 32:-0.815789 33:-1 34:-0.983003 35:-0.445087 36:-0.312102 37:-1 38:-1 39:-1 40:-1 41:-1 42:-1 43:-0.0162162 44:0.037037 45:-1 46:-1 47:-1 48:-1 49:-1 50:-0.975265 51:0.428571 52:-0.974522 53:-1 54:-1 55:-1 56:-1 57:-0.988506 58:-1 59:-1 60:-0.885714 61:-0.480363 62:-1 63:-1 64:-1 65:-0.171014 66:-0.854922 67:-1 68:-1 69:-1 70:-1 71:-1 72:-1 73:-1 74:-0.137056 75:-0.73913 76:-1 77:-1 78:-1 79:-1 80:-1 81:-1 82:-0.817259 83:0.0238908 84:-0.950207 85:-1 86:-1 87:-1 88:-1 89:-1 90:-0.213198 91:-0.577982 92:-1 93:-1 94:-1 95:-1 96:-1 97:0.530055 98:-0.796954 99:-0.993994 100:-1 101:-1 102:-1 103:-1 104:-1 105:0.368984 106:-0.751269 107:-1 108:-1 109:-1 110:-1 111:-1 112:-1 113:-0.978142 114:-1 115:-1 116:-1 117:-0.955947 118:-0.982143 119:-0.972881 120:-0.798817 121:-0.978142 122:-0.994924 123:-1 124:-1 125:-0.953125 126:-0.981481 127:-0.965517 128:-0.813665 129:0.464481 130:-0.771574 131:-1 132:-1 133:-1 134:-1 135:-1 136:-1 137:0.519126 138:-0.823389 139:-1 140:-1 141:-1 142:-1 143:-1 144:-1 145:-1 146:-0.345178 147:-0.491525 148:-1 149:-1 150:-1 151:-1 152:-1 
-1.1640742203814638 1:0.827586 2:-0.898734 3:-1 4:-1 5:-1 6:-1 7:-1 8:-1 9:-0.415094 10:-1 11:-1 12:-1 13:-1 14:-1 15:-1 16:-0.263158 17:-0.89071 18:-0.983871 19:-0.992832 20:-0.948718 21:-0.989529 22:-1 23:-0.993151 24:-0.957447 25:-0.145833 26:-1 27:-1 28:-1 29:-1 30:-1 31:-1 32:-0.535088 33:-0.973684 34:-0.575071 35:-0.641618 36:-1 37:-1 38:-1 39:-1 40:-1 41:-1 42:-1 43:-1 44:-0.399177 45:-0.815385 46:-1 47:-1 48:-1 49:-0.990826 50:-0.893993 51:-0.294833 52:-0.910828 53:-1 54:-1 55:-1 56:-1 57:-1 58:-1 59:-1 60:-0.2 61:-0.812689 62:-1 63:-1 64:-1 65:-0.994203 66:-0.906736 67:-0.261905 68:-0.921348 69:-1 70:-1 71:-1 72:-1 73:-0.987342 74:-0.959391 75:-0.943478 76:-0.472393 77:-0.973856 78:-0.994236 79:-1 80:-0.99115 81:-0.942857 82:-0.969543 83:-0.890785 84:-0.643154 85:-0.982301 86:-0.993243 87:-1 88:-1 89:-0.989071 90:-0.857868 91:-0.278287 92:-0.912409 93:-1 94:-1 95:-1 96:-1 97:-1 98:-1 99:-1 100:-1 101:-0.598131 102:-0.665455 103:-0.939024 104:-0.992308 105:-0.989305 106:-0.857868 107:-0.253823 108:-0.925926 109:-1 110:-1 111:-1 112:-1 113:-0.989071 114:-0.979695 115:-0.955112 116:-0.15873 117:-0.929515 118:-0.988095 119:-1 120:-1 121:-0.956284 122:-0.979695 123:-0.963303 124:-0.638009 125:-0.929688 126:-0.987654 127:-0.993103 128:-0.987578 129:-0.989071 130:-0.959391 131:-0.29052 132:-0.646465 133:-0.991489 134:-1 135:-1 136:-1 137:-0.945355 138:-0.976134 139:-0.945946 140:-0.786982 141:-0.94382 142:-0.988372 143:-1 144:-0.985401 145:-0.989071 146:-0.588832 147:-0.0564972 148:-1 149:-1 150:-1 151:-1 152:-1 
-2.5192469377831106 1:-1 2:-1 3:-1 4:-1 5:-1 6:0.0900901 7:0.044898 8:-1 9:-0.95283 10:-0.994083 11:-0.995 12:-0.911504 13:-0.954955 14:-0.991266 15:-0.993528 16:-0.968421 17:-1 18:-1 19:-1 20:-1 21:-1 22:-0.426295 23:-0.561644 24:-1 25:-1 26:-1 27:-1 28:-1 29:-1 30:-0.566474 31:-0.505618 32:-1 33:-0.991228 34:-1 35:-0.99422 36:-0.872611 37:-0.728972 38:-0.993151 39:-1 40:-0.991228 41:-1 42:-1 43:-1 44:-1 45:-1 46:-0.561983 47:-0.506173 48:-1 49:-1 50:-0.710247 51:-0.696049 52:-1 53:-1 54:-1 55:-1 56:-1 57:-0.0689655 58:-1 59:-1 60:-1 61:-1 62:-1 63:-1 64:-0.520661 65:-1 66:-1 67:-1 68:-1 69:-1 70:-0.633898 71:-0.582418 72:-1 73:-1 74:-1 75:-1 76:-1 77:-1 78:-0.688761 79:-0.577778 80:-1 81:-1 82:-1 83:-1 84:-1 85:-1 86:-0.635135 87:-0.56447 88:-1 89:-1 90:-1 91:-1 92:-1 93:-1 94:-0.685131 95:-0.598945 96:-1 97:-1 98:-1 99:-1 100:-1 101:-1 102:-0.607273 103:-0.536585 104:-1 105:-1 106:-1 107:-1 108:-1 109:-1 110:-0.597015 111:-0.529412 112:-1 113:-1 114:-1 115:-1 116:-1 117:-1 118:-0.678571 119:-0.484746 120:-1 121:-1 122:-1 123:-1 124:-1 125:-1 126:-0.666667 127:-0.475862 128:-1 129:-1 130:-1 131:-1 132:-1 133:-1 134:-0.72449 135:-0.514377 136:-1 137:-1 138:-1 139:-1 140:-1 141:-1 142:-0.686047 143:-0.506494 144:-1 145:-1 146:-1 147:-1 148:-1 149:-1 150:-0.670732 151:-0.361345 152:-1 
-0.25501995662457921 1:-1 2:-1 3:-1 4:-1 5:-1 6:-1 7:-0.885714 8:1 9:-1 10:-1 11:-1 12:-1 13:-1 14:-0.982533 15:-0.294498 16:-0.789474 17:-1 18:-1 19:-1 20:-1 21:-1 22:-1 23:-0.958904 24:0.693617 25:-0.395833 26:-0.992565 27:-1 28:-0.993671 29:-1 30:-1 31:-1 32:-0.938596 33:-0.54386 34:-0.994334 35:-0.99422 36:-0.987261 37:-1 38:-1 39:-1 40:-0.921053 41:-0.986755 42:-1 43:-1 44:-1 45:-1 46:-1 47:-0.820988 48:0.825137 49:-0.917431 50:-0.996466 51:-0.993921 52:-0.961783 53:-0.972477 54:-0.990099 55:-0.993711 56:-0.96 57:-1 58:-1 59:-1 60:-1 61:-1 62:-1 63:-0.782178 64:0.471074 65:-0.994203 66:-1 67:-1 68:-1 69:-1 70:-1 71:-0.461538 72:1 73:-1 74:-1 75:-1 76:-1 77:-1 78:-0.994236 79:-0.788889 80:0.513274 81:-0.904762 82:-1 83:-1 84:-0.991701 85:-0.976401 86:-0.993243 87:-0.988539 88:-0.64751 89:-0.912568 90:-1 91:-1 92:-1 93:-0.974138 94:-0.994169 95:-0.989446 96:-0.414634 97:-1 98:-1 99:-1 100:-1 101:-0.925234 102:-0.0763636 103:-0.902439 104:-1 105:-0.893048 106:-1 107:-1 108:-1 109:-0.986928 110:-1 111:-0.993808 112:-0.26506 113:-0.912568 114:-1 115:-1 116:-1 117:-0.991189 118:-0.994048 119:-0.986441 120:-0.207101 121:-1 122:-1 123:-1 124:-1 125:-1 126:-1 127:0.648276 128:-0.167702 129:-1 130:-1 131:-1 132:-1 133:-1 134:-0.943878 135:-0.175719 136:-0.790909 137:-0.814208 138:-0.990453 139:-0.995086 140:-0.988166 141:-0.988764 142:-1 143:-1 144:-0.912409 145:-1 146:-1 147:-1 148:-1 149:-1 150:-1 151:-0.798319 152:1 
-2.7966204659797955 1:-1 2:-1 3:-1 4:-1 5:-0.444444 6:0.00900901 7:-1 8:-1 9:-0.915094 10:-0.994083 11:-0.995 12:-0.929204 13:-0.972973 14:-1 15:-0.993528 16:-0.957895 17:-0.868852 18:-0.991935 19:-0.992832 20:-0.948718 21:-0.968586 22:-1 23:-0.993151 24:-0.931915 25:-1 26:-1 27:-1 28:-1 29:-1 30:-0.99422 31:0.932584 32:-0.885965 33:-1 34:-1 35:-1 36:-1 37:-1 38:-0.753425 39:-0.262774 40:-0.991228 41:-0.86755 42:-0.9866 43:-0.972973 44:-0.761317 45:-0.993846 46:-1 47:-1 48:-1 49:-1 50:-1 51:-1 52:-1 53:-1 54:-1 55:-0.616352 56:-0.04 57:-0.931034 58:-0.702128 59:-0.806452 60:-1 61:-1 62:-1 63:-1 64:-1 65:-1 66:-1 67:-1 68:-1 69:-1 70:0.667797 71:-0.879121 72:-1 73:-1 74:-1 75:-1 76:-0.98773 77:-0.431373 78:-0.988473 79:-1 80:-1 81:-0.980952 82:-1 83:-1 84:-1 85:-0.9941 86:-0.986486 87:-0.959885 88:-0.777778 89:-1 90:-1 91:-1 92:-1 93:-1 94:-1 95:0.493404 96:-0.853659 97:-1 98:-1 99:-1 100:-1 101:-1 102:-0.723636 103:-0.335366 104:-0.992308 105:-1 106:-1 107:-1 108:-1 109:-1 110:-0.992537 111:0.764706 112:-0.951807 113:-0.879781 114:-0.974619 115:-0.965087 116:-0.571429 117:-0.982379 118:-1 119:-1 120:-0.988166 121:-1 122:-1 123:-1 124:-1 125:-1 126:-0.716049 127:-0.234483 128:-0.987578 129:-1 130:-1 131:-1 132:-1 133:-1 134:-0.617347 135:-0.456869 136:-0.990909 137:-1 138:-1 139:-1 140:-1 141:-1 142:-1 143:-0.025974 144:-0.372263 145:-1 146:-1 147:-1 148:-1 149:-1 150:-1 151:0.252101 152:-0.61435 
-0.080508968934332847 1:-1 2:-1 3:-0.180488 4:0.0391061 5:-1 6:-1 7:-1 8:-1 9:-0.962264 10:-0.994083 11:-0.995 12:-0.823009 13:-0.954955 14:-0.991266 15:-0.993528 16:-0.968421 17:-1 18:-0.967742 19:1 20:-0.487179 21:-1 22:-1 23:-1 24:-1 25:-1 26:-1 27:-0.659574 28:-0.151899 29:-1 30:-1 31:-1 32:-1 33:-1 34:-1 35:-0.83237 36:1 37:-1 38:-1 39:-1 40:-1 41:-1 42:-0.912898 43:-0.513514 44:-0.942387 45:-1 46:-1 47:-1 48:-1 49:-1 50:-0.908127 51:-0.428571 52:-0.936306 53:-1 54:-1 55:-1 56:-1 57:-1 58:-1 59:0.313783 60:-0.171429 61:-1 62:-1 63:-1 64:-1 65:-1 66:-0.979275 67:-0.339286 68:-0.853933 69:-1 70:-1 71:-1 72:-1 73:-1 74:-0.923858 75:-0.556522 76:-0.803681 77:-1 78:-1 79:-1 80:-1 81:-1 82:-0.939086 83:-0.262799 84:-0.825726 85:-1 86:-1 87:-1 88:-1 89:-1 90:-0.969543 91:-0.345566 92:-0.489051 93:-1 94:-1 95:-1 96:-1 97:-0.606557 98:-0.994924 99:-1 100:-0.961722 101:-0.981308 102:-1 103:-1 104:-0.892308 105:-1 106:-0.979695 107:0.834862 108:-0.661376 109:-1 110:-1 111:-1 112:-1 113:-0.519126 114:-0.994924 115:-1 116:-0.984127 117:-1 118:-1 119:-1 120:-0.810651 121:-1 122:-1 123:0.455657 124:-0.529412 125:-1 126:-1 127:-1 128:-1 129:-1 130:-1 131:0.431193 132:-0.434343 133:-1 134:-1 135:-1 136:-1 137:-1 138:-1 139:0.046683 140:-0.597633 141:-1 142:-1 143:-1 144:-1 145:-1 146:-1 147:0.0903955 148:-0.310345 149:-1 150:-1 151:-1 152:-1 
-0.43939260912530953 1:-0.958621 2:-0.993671 3:-0.990244 4:-0.955307 5:-0.962963 6:-0.990991 7:-0.991837 8:-0.936508 9:-0.943396 10:-0.988166 11:-0.995 12:-0.964602 13:-0.972973 14:-0.991266 15:-0.987055 16:-0.936842 17:-0.945355 18:-0.991935 19:-0.992832 20:-0.974359 21:-0.979058 22:-0.992032 23:-0.986301 24:-0.86383 25:-0.96875 26:-0.992565 27:-0.992908 28:-0.993671 29:-0.982609 30:-0.988439 31:-0.955056 32:-0.868421 33:-0.938596 34:-1 35:-1 36:-0.949045 37:-0.962617 38:-0.993151 39:-0.956204 40:-0.77193 41:-0.960265 42:-0.99665 43:-0.994595 44:-1 45:-0.993846 46:-0.983471 47:-0.944444 48:-0.628415 49:-1 50:-1 51:-1 52:-0.949045 53:-0.366972 54:-0.930693 55:-0.987421 56:-0.993333 57:-1 58:-1 59:-1 60:-0.928571 61:-0.63142 62:-0.955975 63:-0.986799 64:-1 65:-0.628986 66:-0.993092 67:-1 68:-1 69:-1 70:-1 71:-1 72:-0.0197628 73:-0.974684 74:-0.832487 75:-0.665217 76:-0.877301 77:-1 78:-1 79:-0.994444 80:-1 81:-0.980952 82:-1 83:-1 84:-0.93361 85:-0.769912 86:-0.97973 87:-0.988539 88:-0.969349 89:-0.978142 90:-1 91:-1 92:-0.781022 93:-0.775862 94:-0.994169 95:-0.994723 96:-0.939024 97:-0.978142 98:-1 99:-1 100:-0.837321 101:-0.785047 102:-0.992727 103:-0.993902 104:-0.976923 105:-0.97861 106:-1 107:-1 108:-0.883598 109:-0.673203 110:-0.985075 111:-0.993808 112:-0.975904 113:-0.989071 114:-1 115:-1 116:-0.888889 117:-0.744493 118:-0.97619 119:-0.986441 120:-0.928994 121:-1 122:-1 123:-1 124:-1 125:-0.992188 126:-0.364198 127:-0.648276 128:-1 129:-1 130:-1 131:-1 132:-0.979798 133:-0.659574 134:-0.923469 135:-0.974441 136:-0.963636 137:-1 138:-1 139:-1 140:-0.982249 141:-0.662921 142:-0.872093 143:-0.922078 144:-0.941606 145:-0.989071 146:-1 147:-1 148:-1 149:-0.991701 150:-0.957317 151:-0.470588 152:-0.434978 
-0.59730598493160769 1:-0.944828 2:-0.981013 3:-0.980488 4:-0.932961 5:-0.981481 6:-0.990991 7:-1 8:-0.968254 9:-1 10:-0.56213 11:-0.655 12:-1 13:-1 14:-1 15:-1 16:-1 17:-0.912568 18:-0.951613 19:-0.964158 20:-0.897436 21:-0.989529 22:-0.992032 23:-1 24:-1 25:-0.958333 26:-0.977695 27:-0.957447 28:-0.873418 29:-0.982609 30:-1 31:-1 32:-1 33:-0.77193 34:-0.971671 35:-1 36:-0.987261 37:-0.981308 38:-0.993151 39:-0.985401 40:-0.692982 41:-1 42:-1 43:-1 44:-1 45:-1 46:-0.950413 47:-0.5 48:-0.508197 49:-0.715596 50:-0.985866 51:-0.981763 52:-0.923567 53:-1 54:-1 55:-1 56:-0.966667 57:-0.988506 58:-1 59:-1 60:-1 61:-1 62:-1 63:-0.986799 64:1 65:-0.965217 66:-0.996546 67:-0.988095 68:-0.820225 69:-0.923077 70:-0.99322 71:-1 72:-0.98419 73:-0.949367 74:-0.994924 75:-0.995652 76:-0.717791 77:-0.928105 78:-0.994236 79:-0.994444 80:-0.982301 81:-1 82:-1 83:-1 84:-1 85:-1 86:-0.939189 87:-0.426934 88:-0.793103 89:-0.923497 90:-0.309645 91:-0.944954 92:-1 93:-1 94:-1 95:-1 96:-1 97:-0.387978 98:-0.989848 99:-0.993994 100:-0.990431 101:-1 102:-1 103:-1 104:-0.946154 105:-0.989305 106:-0.918782 107:-0.529052 108:-0.851852 109:-1 110:-1 111:-1 112:-1 113:-0.508197 114:-0.979695 115:-0.995012 116:-0.968254 117:-1 118:-1 119:-1 120:-0.940828 121:-1 122:-1 123:-1 124:-1 125:-1 126:-0.592593 127:0.124138 128:-1 129:-0.836066 130:-0.994924 131:-0.993884 132:-0.989899 133:-0.991489 134:-1 135:-0.99361 136:-0.881818 137:0.180328 138:-0.708831 139:-0.990172 140:-1 141:-1 142:-1 143:-1 144:-1 145:-0.79235 146:-0.994924 147:-1 148:-0.991379 149:-1 150:-1 151:-0.991597 152:-0.058296 
-2.4286764659064941 1:-1 2:-1 3:-1 4:-1 5:-1 6:-0.441441 7:-0.428571 8:-1 9:-1 10:-1 11:-1 12:-0.646018 13:-0.108108 14:-0.912664 15:-0.993528 16:-1 17:-1 18:-1 19:-1 20:-1 21:-0.989529 22:-0.370518 23:-0.623288 24:-1 25:-1 26:-1 27:-1 28:-1 29:-0.991304 30:0.132948 31:0.220974 32:-1 33:-1 34:-1 35:-1 36:-1 37:-1 38:-0.260274 39:-0.722628 40:-1 41:-0.801325 42:-1 43:-1 44:-1 45:-1 46:-0.991736 47:-0.962963 48:-0.278689 49:-1 50:-1 51:-1 52:-1 53:-1 54:-0.871287 55:-0.0188679 56:-0.92 57:-1 58:-1 59:-1 60:-1 61:-1 62:-0.893082 63:0.0891089 64:-0.917355 65:-1 66:-1 67:-1 68:-1 69:-1 70:-0.898305 71:-0.0659341 72:-0.920949 73:-1 74:-1 75:-1 76:-1 77:-0.96732 78:-0.216138 79:-0.694444 80:-1 81:-1 82:-1 83:-1 84:-1 85:-0.9941 86:-0.371622 87:-0.575931 88:-0.992337 89:-1 90:-1 91:-1 92:-0.839416 93:0.12069 94:-0.941691 95:-1 96:-1 97:-0.989071 98:-1 99:-1 100:-0.952153 101:-0.691589 102:-0.847273 103:-0.926829 104:-0.976923 105:-1 106:-1 107:-1 108:-1 109:-1 110:-0.947761 111:-0.0154799 112:-0.746988 113:-1 114:-1 115:-1 116:-1 117:-1 118:-0.916667 119:-0.0372881 120:-0.715976 121:-1 122:-1 123:-1 124:-1 125:-1 126:-0.888889 127:-0.0206897 128:-0.875776 129:-1 130:-1 131:-1 132:-1 133:-1 134:-0.770408 135:-0.303514 136:-0.936364 137:-1 138:-1 139:-1 140:-0.911243 141:-0.292135 142:-0.94186 143:-0.987013 144:-0.985401 145:-1 146:-1 147:-1 148:-0.836207 149:-0.551867 150:-0.957317 151:-0.97479 152:-0.991031 
-2.008779701642005 1:-1 2:-1 3:-1 4:-1 5:-1 6:-0.297297 7:-0.502041 8:-1 9:-0.292453 10:-1 11:-1 12:-1 13:-1 14:-1 15:-1 16:0.315789 17:-0.956284 18:-1 19:-1 20:-1 21:-0.989529 22:-0.976096 23:-0.815068 24:-0.429787 25:-0.979167 26:-1 27:-1 28:-0.987342 29:-0.895652 30:-0.959538 31:-0.925094 32:-0.868421 33:-0.991228 34:-1 35:-1 36:-0.974522 37:-0.616822 38:-0.924658 39:-0.956204 40:-0.947368 41:-1 42:-1 43:-1 44:-1 45:-0.624615 46:-0.933884 47:-0.975309 48:-0.978142 49:-0.908257 50:-0.756184 51:-0.823708 52:-0.936306 53:-1 54:-1 55:-1 56:-1 57:-0.988506 58:-1 59:-1 60:-0.985714 61:-0.909366 62:-0.949686 63:-0.953795 64:-0.909091 65:-1 66:-1 67:-1 68:-1 69:-0.0288462 70:-0.369492 71:-0.994505 72:-1 73:-0.974684 74:-1 75:-0.995652 76:-0.852761 77:-0.856209 78:-0.976945 79:-0.983333 80:-0.929204 81:-1 82:-1 83:-1 84:-1 85:-0.9941 86:-0.506757 87:-0.684814 88:-1 89:-1 90:-1 91:-1 92:-1 93:-0.991379 94:-0.667638 95:-0.693931 96:-0.926829 97:-0.989071 98:-1 99:-1 100:-1 101:-1 102:-0.992727 103:-0.652439 104:-0.107692 105:-0.967914 106:-0.959391 107:-0.737003 108:-0.777778 109:-0.986928 110:-1 111:-1 112:-0.987952 113:-0.978142 114:-1 115:-1 116:-1 117:-1 118:-1 119:-0.769492 120:0.798817 121:-0.442623 122:-0.969543 123:-0.987768 124:-0.9819 125:-1 126:-1 127:-1 128:-0.987578 129:0.672131 130:-1 131:-1 132:-1 133:-1 134:-1 135:-1 136:-0.781818 137:-1 138:-1 139:-1 140:-1 141:-1 142:-0.767442 143:0.11039 144:-0.839416 145:-0.147541 146:-0.959391 147:-0.988701 148:-0.991379 149:-1 150:-1 151:-1 152:-0.982063 
-4.6506459981123678 1:-0.413793 2:-0.993671 3:-1 4:-1 5:-1 6:-1 7:-1 8:-0.407407 9:-0.990566 10:-0.739645 11:-0.455 12:-0.964602 13:-1 14:-1 15:-1 16:-1 17:0.180328 18:-1 19:-1 20:-1 21:-1 22:-1 23:-1 24:-0.582979 25:-0.96875 26:-0.182156 27:-0.702128 28:-1 29:-1 30:-1 31:-1 32:-1 33:0.289474 34:-0.552408 35:-1 36:-1 37:-1 38:-1 39:-1 40:-1 41:-1 42:-1 43:-1 44:-1 45:-1 46:-0.859504 47:-0.512346 48:-0.68306 49:-0.889908 50:-0.501767 51:-0.890578 52:-1 53:-1 54:-1 55:-1 56:-1 57:-0.873563 58:-0.985816 59:-0.953079 60:-0.542857 61:-0.993958 62:-1 63:-0.993399 64:-0.991736 65:-0.368116 66:-0.989637 67:-1 68:-1 69:-1 70:-1 71:-1 72:-0.889328 73:-0.139241 74:-0.969543 75:-1 76:-1 77:-1 78:-1 79:-0.994444 80:-0.80531 81:-0.771429 82:-1 83:-1 84:-1 85:-0.9941 86:-0.986486 87:-0.908309 88:-0.363985 89:-0.333333 90:-0.208122 91:-0.920489 92:-1 93:-1 94:-1 95:-1 96:-1 97:-0.978142 98:-0.64467 99:-0.429429 100:-1 101:-1 102:-1 103:-1 104:-1 105:-1 106:-0.690355 107:-0.455657 108:-0.936508 109:-1 110:-1 111:-1 112:-1 113:-1 114:-0.827411 115:-0.526185 116:-0.761905 117:-1 118:-1 119:-1 120:-1 121:-1 122:-0.624365 123:0.058104 124:-0.9819 125:-1 126:-1 127:-1 128:-1 129:-0.508197 130:-0.629442 131:-0.883792 132:-0.989899 133:-1 134:-1 135:-1 136:-1 137:0.639344 138:-0.76611 139:-1 140:-1 141:-1 142:-1 143:-1 144:-0.985401 145:-0.628415 146:-0.751269 147:-0.853107 148:-0.982759 149:-1 150:-1 151:-1 152:-0.991031 
-1.6382981264032068 1:-1 2:-1 3:-1 4:-0.631285 5:0.0277778 6:-0.981982 7:-1 8:-1 9:-1 10:-1 11:-1 12:-0.681416 13:0.198198 14:-0.956332 15:-1 16:-1 17:-1 18:-1 19:-1 20:-0.961538 21:0.65445 22:-0.952191 23:-1 24:-1 25:-1 26:-1 27:-0.985816 28:-0.196203 29:-0.773913 30:-1 31:-1 32:-1 33:-1 34:-1 35:-1 36:-1 37:-0.813084 38:-0.438356 39:-0.868613 40:-0.982456 41:-0.986755 42:-1 43:-1 44:-1 45:-0.975385 46:-0.942149 47:-0.407407 48:-0.562842 49:-1 50:-1 51:-1 52:-1 53:-0.807339 54:-0.029703 55:-0.81761 56:-0.993333 57:-1 58:-1 59:-1 60:-1 61:-0.885196 62:-0.283019 63:-0.841584 64:-1 65:-1 66:-1 67:-1 68:-1 69:0.451923 70:-0.369492 71:-0.994505 72:-1 73:-1 74:-1 75:-1 76:-1 77:-0.764706 78:-0.481268 79:-0.627778 80:-1 81:-1 82:-1 83:-1 84:-1 85:-0.781711 86:-0.128378 87:-0.954155 88:-1 89:-1 90:-1 91:-1 92:-1 93:-0.948276 94:-0.755102 95:-0.530343 96:-0.97561 97:-1 98:-1 99:-1 100:-1 101:-0.943925 102:-0.694545 103:-0.457317 104:-0.984615 105:-1 106:-1 107:-1 108:-1 109:-0.921569 110:-0.686567 111:-0.448916 112:-0.975904 113:-1 114:-1 115:-1 116:-1 117:-0.947137 118:-0.75 119:-0.39661 120:-0.976331 121:-1 122:-1 123:-1 124:-1 125:-0.953125 126:-0.740741 127:-0.386207 128:-0.975155 129:-1 130:-1 131:-1 132:-1 133:-0.948936 134:-0.785714 135:-0.43131 136:-0.981818 137:-1 138:-1 139:-1 140:-1 141:-0.932584 142:-0.755814 143:-0.422078 144:-0.970803 145:-1 146:-1 147:-1 148:-1 149:-0.950207 150:-0.743902 151:-0.252101 152:-0.982063 
-1.083408343587857 1:-0.289655 2:-0.126582 3:-0.863415 4:-0.977654 5:-0.981481 6:-0.990991 7:-0.991837 8:-0.671958 9:-0.0754717 10:-0.00591716 11:-0.935 12:-0.964602 13:-0.990991 14:-1 15:-1 16:-0.789474 17:-0.36612 18:0.620968 19:-0.878136 20:-0.974359 21:-1 22:-1 23:-1 24:-0.957447 25:0.208333 26:0.442379 27:-0.893617 28:-0.987342 29:-1 30:-1 31:-1 32:-0.991228 33:-0.552632 34:0.308782 35:-0.913295 36:-0.987261 37:-1 38:-1 39:-1 40:-1 41:0.735099 42:-0.383585 43:-0.902703 44:-1 45:-1 46:-1 47:-1 48:-1 49:-0.743119 50:-0.996466 51:-1 52:-1 53:-1 54:-0.990099 55:-0.930818 56:-0.506667 57:0.574713 58:-0.450355 59:-0.888563 60:-0.971429 61:-1 62:-1 63:-1 64:-0.983471 65:-0.455072 66:-0.52677 67:-0.892857 68:-0.977528 69:-1 70:-1 71:-1 72:-0.992095 73:-0.0886076 74:-0.0152284 75:-0.947826 76:-0.97546 77:-0.993464 78:-1 79:-0.994444 80:-0.929204 81:0.6 82:0.19797 83:-0.795222 84:-0.983402 85:-1 86:-1 87:-1 88:-0.931034 89:-0.825137 90:-0.111675 91:-0.559633 92:-0.956204 93:-0.991379 94:-1 95:-0.994723 96:-0.914634 97:-0.737705 98:-0.071066 99:-0.6997 100:-0.980861 101:-1 102:-1 103:-1 104:-1 105:-0.15508 106:0.0406091 107:-0.840979 108:-0.989418 109:-1 110:-1 111:-1 112:-1 113:-0.442623 114:-0.218274 115:-0.870324 116:-0.968254 117:-1 118:-1 119:-1 120:-0.976331 121:-0.759563 122:-0.294416 123:-0.669725 124:-0.9819 125:-1 126:-1 127:-1 128:-0.962733 129:-0.68306 130:-0.0304569 131:-0.602446 132:-0.969697 133:-1 134:-1 135:-1 136:-0.954545 137:-1 138:-1 139:-1 140:-1 141:-1 142:-0.988372 143:-0.0714286 144:-0.532847 145:-0.759563 146:-0.304569 147:-0.644068 148:-0.956897 149:-1 150:-1 151:-1 152:-0.982063 
-0.30407405627624617 1:-0.57931 2:-0.493671 3:-0.912195 4:-1 5:-1 6:-0.927928 7:-0.97551 8:-0.925926 9:-0.707547 10:-0.994083 11:-1 12:-1 13:-1 14:-1 15:-0.987055 16:-0.305263 17:-1 18:-1 19:-1 20:-0.987179 21:-0.874346 22:-0.434263 23:-0.726027 24:-0.897872 25:1 26:-0.98513 27:-1 28:-1 29:-1 30:-1 31:-1 32:-0.982456 33:-0.307018 34:-0.739377 35:-0.965318 36:-1 37:-1 38:-1 39:-1 40:-0.973684 41:-0.205298 42:-0.721943 43:-0.983784 44:-1 45:-1 46:-1 47:-0.981481 48:-0.923497 49:-0.761468 50:-0.265018 51:-0.975684 52:-0.987261 53:-1 54:-1 55:-1 56:-0.993333 57:-0.632184 58:-0.382979 59:-0.97654 60:-0.985714 61:-1 62:-1 63:-0.993399 64:-0.801653 65:-0.855072 66:-0.378238 67:-0.958333 68:-0.977528 69:-0.961538 70:-0.986441 71:-0.978022 72:-0.818182 73:-0.683544 74:-0.558376 75:-0.873913 76:-0.815951 77:-0.973856 78:-0.95389 79:-0.961111 80:-0.893805 81:-0.447619 82:-0.477157 83:-0.761092 84:-0.883817 85:-0.988201 86:-0.97973 87:-0.948424 88:-0.938697 89:-0.945355 90:-0.989848 91:-0.993884 92:-0.985401 93:-0.887931 94:-0.702624 95:-0.751979 96:-0.817073 97:-0.836066 98:-0.0507614 99:-0.657658 100:-0.980861 101:-1 102:-1 103:-0.993902 104:-0.846154 105:-0.775401 106:0.35533 107:-0.938838 108:-0.978836 109:-1 110:-1 111:-1 112:-0.795181 113:-0.770492 114:0.35533 115:-0.950125 116:-0.968254 117:-1 118:-1 119:-1 120:-0.798817 121:-0.770492 122:0.35533 123:-0.938838 124:-0.9819 125:-1 126:-1 127:-1 128:-0.78882 129:-0.770492 130:0.35533 131:-0.938838 132:-0.979798 133:-1 134:-1 135:-1 136:-0.845455 137:-0.770492 138:0.274463 139:-0.95086 140:-0.988166 141:-1 142:-1 143:-1 144:-0.751825 145:-0.770492 146:0.35533 147:-0.943503 148:-0.982759 149:-1 150:-1 151:-1 152:-0.847534 
