svm_type c_svc
kernel_type rbf
gamma 0.03125
nr_class 2
total_sv 199
rho -0.19931425751619164
label 2 1
nr_sv 130 69
SV
0.32333894955881209 1:-0.329609 2:-0.828877 3:-0.97561 4:-1 5:-1 6:-1 7:-1 8:-1 9:-0.590734 10:-0.764706 11:-0.964497 12:-0.993007 13:-1 14:-1 15:-1 16:-0.986486 17:-1 18:-0.527273 19:1 20:-0.957895 21:-1 22:-1 23:-1 24:-1 25:-0.989583 26:0.0163934 27:-0.0526316 28:-1 29:-1 30:-1 31:-1 32:-1 33:-1 34:-0.694323 35:1 36:-0.975 37:-1 38:-1 39:-1 40:-1 41:-1 42:-1 43:-0.636364 44:0.412587 45:-0.943503 46:-1 47:-1 48:-1 49:-1 50:-0.987179 51:-0.336585 52:-0.821429 53:-0.990783 54:-1 55:-1 56:-1 57:-1 58:-0.989899 59:-0.78744 60:-0.619469 61:-0.98895 62:-1 63:-1 64:-1 65:-0.986755 66:1 67:-0.9375 68:-1 69:-1 70:-1 71:-1 72:-1 73:-1 74:-0.928571 75:-0.631206 76:-0.511364 77:-0.995717 78:-1 79:-1 80:-1 81:-1 82:-0.977011 83:-0.487603 84:-0.527473 85:-1 86:-1 87:-1 88:-1 89:-1 90:-0.917355 91:0.519231 92:-0.957333 93:-1 94:-1 95:-1 96:-1 97:-1 98:-1 99:0.422222 100:-0.678788 101:-0.988372 102:-1 103:-1 104:-1 105:-1 106:-0.989362 107:0.0606061 108:-0.673469 109:-0.995272 110:-1 111:-1 112:-1 113:-1 114:-0.890547 115:0.657658 116:-0.851852 117:-0.987261 118:-1 119:-1 120:-1 121:-1 122:-0.370213 123:0.309524 124:-0.978723 125:-1 126:-1 127:-1 128:-1 129:-1 130:-0.753846 131:1 132:-0.993289 133:-1 134:-1 135:-1 136:-1 137:-1 138:-0.815385 139:1 140:-0.940928 141:-0.99061 142:-1 143:-1 144:-1 145:-1 146:-0.675159 147:0.693431 148:-0.969231 149:-1 150:-1 151:-1 152:-1 
0.25067916267887369 1:-1 2:-0.347594 3:0.243902 4:-1 5:-1 6:-1 7:-1 8:-1 9:-1 10:-0.967914 11:0.242604 12:-0.853147 13:-1 14:-1 15:-1 16:-1 17:-0.977654 18:-0.236364 19:0.149254 20:-1 21:-1 22:-1 23:-1 24:-0.990291 25:-1 26:-0.97541 27:0.929825 28:-0.844828 29:-1 30:-1 31:-1 32:-1 33:-1 34:-0.991266 35:-0.848485 36:-0.05 37:-1 38:-0.99187 39:-1 40:-0.989796 41:-1 42:-0.969697 43:1 44:-0.846154 45:-1 46:-1 47:-1 48:-1 49:-1 50:-1 51:-1 52:-0.988095 53:0.0875576 54:-0.894207 55:-1 56:-1 57:-0.988372 58:-0.989899 59:-0.990338 60:-0.707965 61:-0.745856 62:-0.981395 63:-0.985612 64:-0.971429 65:-1 66:-0.975904 67:1 68:-0.917874 69:-1 70:-1 71:-1 72:-1 73:-1 74:-1 75:-1 76:-0.602273 77:-0.862955 78:-0.984887 79:-1 80:-1 81:-0.987578 82:1 83:-0.719008 84:-0.989011 85:-1 86:-1 87:-1 88:-1 89:-1 90:-1 91:-1 92:-0.770667 93:-0.846774 94:-0.988304 95:-1 96:-0.994065 97:-1 98:-1 99:-1 100:-0.672727 101:-0.604651 102:-0.992958 103:-0.989362 104:-1 105:-1 106:-1 107:-1 108:-0.414966 109:-0.839243 110:-0.977528 111:-0.976744 112:-1 113:-1 114:-1 115:-1 116:-0.992593 117:-0.515924 118:-0.857143 119:-0.896552 120:-1 121:-0.230769 122:-0.87234 123:-0.988095 124:-1 125:-1 126:-1 127:-1 128:-0.982609 129:-1 130:-0.984615 131:0.303797 132:-0.758389 133:-1 134:-1 135:-1 136:-1 137:-0.651282 138:-0.153846 139:-0.962025 140:-0.991561 141:-1 142:-1 143:-1 144:-1 145:-1 146:-0.980892 147:0.708029 148:-0.887179 149:-1 150:-1 151:-1 152:-1 
0.1103737362795407 1:-0.988827 2:-0.989305 3:-0.987805 4:-0.94382 5:-0.947566 6:-0.96748 7:-0.977011 8:-0.982609 9:-0.969112 10:-0.989305 11:-0.988166 12:-0.972028 13:-0.980645 14:-0.986667 15:-0.980583 16:-0.959459 17:-0.96648 18:-1 19:-1 20:-1 21:-0.991416 22:-0.977401 23:-0.704225 24:-0.621359 25:0.770833 26:-0.983607 27:-1 28:-1 29:-1 30:-1 31:-1 32:-0.981308 33:-1 34:-0.650655 35:0.166667 36:-1 37:-1 38:-1 39:-1 40:-1 41:0.311111 42:-0.89899 43:-0.987879 44:-1 45:-1 46:-1 47:-1 48:-0.983871 49:-1 50:-0.025641 51:-0.560976 52:-1 53:-1 54:-1 55:-1 56:-1 57:-1 58:-0.959596 59:0.681159 60:-1 61:-1 62:-1 63:-1 64:-1 65:0.231788 66:-0.53012 67:-1 68:-1 69:-1 70:-1 71:-1 72:-1 73:-1 74:-0.607143 75:1 76:-1 77:-1 78:-1 79:-1 80:-1 81:-0.763975 82:-0.896552 83:-0.966942 84:-0.989011 85:-1 86:-1 87:-0.983471 88:-0.962617 89:-0.897436 90:-0.818182 91:-0.903846 92:-0.984 93:-1 94:-1 95:-1 96:-0.982196 97:-0.911647 98:-0.795699 99:-0.925926 100:-0.993939 101:-1 102:-1 103:-0.989362 104:-0.967213 105:-0.928205 106:-0.765957 107:-0.772727 108:-0.972789 109:-1 110:-1 111:-1 112:-0.985401 113:-0.989744 114:0.59204 115:-0.513514 116:-1 117:-1 118:-1 119:-1 120:-1 121:-1 122:-0.787234 123:1 124:-0.989362 125:-1 126:-1 127:-1 128:-1 129:-0.887179 130:-0.307692 131:-0.78481 132:-1 133:-1 134:-1 135:-1 136:-1 137:-0.384615 138:-0.784615 139:-0.987342 140:-1 141:-1 142:-1 143:-0.987879 144:-0.961783 145:-0.979487 146:-0.993631 147:-0.883212 148:-0.671795 149:-0.984848 150:-0.987342 151:-0.988889 152:-0.985714 
0.93345852018447695 1:-0.955307 2:-0.957219 3:-0.963415 4:-0.977528 5:-0.992509 6:-0.96748 7:-0.977011 8:-0.982609 9:-0.976834 10:-0.946524 11:-0.91716 12:-0.951049 13:-0.993548 14:-0.986667 15:-0.990291 16:-0.986486 17:-1 18:0.333333 19:-0.328358 20:-0.978947 21:-0.991416 22:-1 23:-1 24:-1 25:-1 26:-0.959016 27:1 28:-1 29:-1 30:-1 31:-1 32:-1 33:-0.962025 34:-0.868996 35:-0.742424 36:-0.983333 37:-1 38:-1 39:-0.989189 40:-0.989796 41:-0.588889 42:-0.959596 43:-0.987879 44:-0.986014 45:-0.988701 46:-0.995699 47:-0.975309 48:-0.870968 49:-0.988827 50:-1 51:-0.990244 52:-0.678571 53:-0.870968 54:-0.984887 55:-0.973154 56:-0.967213 57:-0.581395 58:0.40404 59:-0.980676 60:-1 61:-1 62:-1 63:-1 64:-0.971429 65:-0.993377 66:0.481928 67:-0.4375 68:-1 69:-1 70:-1 71:-1 72:-1 73:-0.553073 74:-0.892857 75:-0.971631 76:-0.988636 77:-1 78:-1 79:-1 80:-0.919355 81:-0.428571 82:-0.908046 83:-0.983471 84:-0.989011 85:-1 86:-1 87:-1 88:-0.981308 89:-0.671795 90:-0.85124 91:-0.961538 92:-0.989333 93:-0.991935 94:-1 95:-0.990385 96:-0.976261 97:-0.991968 98:0.0752688 99:-0.703704 100:-0.993939 101:-1 102:-1 103:-1 104:-1 105:-0.989744 106:-0.37234 107:0.363636 108:-0.959184 109:-1 110:-1 111:-1 112:-1 113:-0.958974 114:0.273632 115:-0.81982 116:-0.992593 117:-1 118:-1 119:-1 120:-1 121:-1 122:-0.829787 123:-0.0714286 124:-0.968085 125:-0.986486 126:-1 127:-1 128:-1 129:-0.661538 130:0.907692 131:-0.987342 132:-1 133:-1 134:-1 135:-1 136:-0.987261 137:-0.138462 138:-0.907692 139:-0.974684 140:-0.991561 141:-0.99061 142:-1 143:-0.987879 144:-0.974522 145:-1 146:-0.496815 147:-0.708029 148:-1 149:-1 150:-1 151:-1 152:-1 
0.13775708577294216 1:-1 2:-0.73262 3:-0.0365854 4:-1 5:-1 6:-1 7:-1 8:-1 9:-1 10:-0.97861 11:0.715976 12:-0.993007 13:-1 14:-1 15:-1 16:-1 17:-0.988827 18:0.187879 19:-0.626866 20:-1 21:-1 22:-1 23:-1 24:-1 25:-1 26:-0.95082 27:-0.22807 28:-0.689655 29:-1 30:-1 31:-1 32:-1 33:-0.607595 34:-0.196507 35:-0.969697 36:-1 37:-1 38:-1 39:-1 40:-1 41:-0.577778 42:-0.969697 43:-0.975758 44:-0.972028 45:-1 46:-1 47:-0.950617 48:-0.709677 49:-0.96648 50:-0.730769 51:-0.678049 52:-0.880952 53:-0.990783 54:-1 55:-1 56:-0.983607 57:-0.988372 58:-0.909091 59:-0.584541 60:-0.80531 61:-0.977901 62:-1 63:-1 64:-1 65:-0.966887 66:-0.963855 67:-0.925 68:-0.937198 69:-0.900552 70:-0.974684 71:-0.988764 72:-0.975 73:-1 74:-0.97619 75:0.0070922 76:-0.375 77:-0.995717 78:-1 79:-1 80:-1 81:-1 82:-0.977011 83:0.173554 84:-0.395604 85:-0.995575 86:-1 87:-1 88:-1 89:-1 90:-0.966942 91:0.365385 92:-0.706667 93:-0.995968 94:-1 95:-1 96:-1 97:-1 98:-0.978495 99:0.0518519 100:-0.666667 101:-0.988372 102:-1 103:-1 104:-1 105:-1 106:-0.978723 107:0.0757576 108:-0.251701 109:-0.995272 110:-1 111:-1 112:-1 113:-1 114:-0.9801 115:0.279279 116:-0.592593 117:-0.987261 118:-1 119:-1 120:-1 121:-1 122:-0.982979 123:-0.154762 124:-0.414894 125:-0.986486 126:-1 127:-1 128:-1 129:-1 130:-0.969231 131:-0.101266 132:-0.630872 133:-0.98913 134:-1 135:-1 136:-1 137:-1 138:-0.969231 139:-0.101266 140:-0.535865 141:-0.99061 142:-1 143:-1 144:-1 145:-1 146:-0.987261 147:0.0364964 148:-0.435897 149:-0.992424 150:-1 151:-1 152:-1 
3.2938523514082605 1:-0.284916 2:-0.871658 3:-0.987805 4:-1 5:-1 6:-1 7:-1 8:-1 9:-0.544402 10:-0.272727 11:-0.988166 12:-1 13:-1 14:-1 15:-1 16:-1 17:-0.586592 18:-0.660606 19:-0.970149 20:-1 21:-1 22:-1 23:-1 24:-1 25:-1 26:-1 27:-1 28:-0.448276 29:-0.210084 30:-1 31:-1 32:-1 33:-0.0126582 34:-0.528384 35:-1 36:-1 37:-1 38:-1 39:-1 40:-1 41:-1 42:-1 43:-1 44:-0.958042 45:-0.40113 46:-0.772043 47:-0.950617 48:-1 49:-0.988827 51:0.0146341 52:-1 53:-1 54:-1 55:-1 56:-1 57:-0.988372 58:-0.989899 59:-0.980676 60:-0.911504 61:-0.856354 62:-0.953488 63:-0.985612 64:-0.971429 65:-0.993377 66:-1 67:-0.9875 68:-0.971014 69:-0.801105 70:-0.955696 71:-0.966292 72:-0.975 73:-1 74:-1 75:-1 76:-0.931818 77:-0.468951 78:-1 79:-1 80:-1 81:-1 82:-1 83:-0.719008 84:1 85:-0.995575 86:-1 87:-1 88:-1 89:-1 90:-1 91:-0.673077 92:-0.0613333 93:-0.987903 94:-1 95:-1 96:-1 97:-0.550201 98:-0.784946 99:-0.985185 100:-1 101:-1 102:-1 103:-1 104:-0.868852 105:-1 106:-1 107:-1 108:-0.986395 109:-0.895981 110:-0.685393 111:-0.72093 112:-0.970803 113:-0.969231 114:-0.800995 115:-0.225225 116:-0.911111 117:-0.987261 118:-1 119:-1 120:-0.97619 121:-0.989744 122:-0.87234 123:-0.261905 124:-0.978723 125:-1 126:-1 127:-1 128:-1 129:-0.825641 130:-0.984615 131:-1 132:-1 133:-1 134:-0.991561 135:-0.970588 136:-0.745223 137:0.128205 138:-0.907692 139:-1 140:-1 141:-1 142:-1 143:-0.987879 144:-0.847134 145:-1 146:-0.687898 147:-0.532847 148:-0.774359 149:-0.939394 150:-1 151:-1 152:-1 
1.0377840601158237 1:-0.888268 2:-1 3:-1 4:-1 5:-1 6:-1 7:-0.965517 8:1 9:-1 10:-1 11:-1 12:-1 13:-1 14:-1 15:0.466019 16:-0.175676 17:-0.698324 18:-1 19:-1 20:-1 21:-1 22:-1 23:-0.971831 24:0.262136 25:-0.854167 26:-1 27:-1 28:-1 29:-1 30:-1 31:-0.990385 32:0.457944 33:-0.860759 34:-1 35:-1 36:-1 37:-1 38:-1 39:-0.956757 40:1 41:-0.433333 42:-0.989899 43:-0.987879 44:-0.972028 45:-0.988701 46:-0.982796 47:-0.876543 48:0.758065 49:-0.117318 50:-0.858974 51:-0.990244 52:-1 53:-1 54:-0.984887 55:-0.651007 56:-0.360656 57:-0.197674 58:-0.838384 59:-0.903382 60:-0.752212 61:-0.900552 62:-0.981395 63:-0.971223 64:-0.171429 65:-0.0662252 66:-0.891566 67:-1 68:-1 69:-1 70:-1 71:-1 72:-0.9625 73:-0.486034 74:-0.821429 75:-0.829787 76:-0.818182 77:-0.987152 78:-0.989924 79:-0.911504 80:-0.403226 81:-0.329193 82:-0.816092 83:-0.834711 84:-0.835165 85:-0.986726 86:-0.970149 87:-0.966942 88:-0.747664 89:-0.323077 90:-0.933884 91:-0.961538 92:-0.978667 93:-0.983871 94:-0.964912 95:-0.971154 96:-0.442136 97:-0.341365 98:-0.935484 99:-0.925926 100:-0.939394 101:-0.918605 102:-0.978873 103:-0.989362 104:-0.508197 105:-0.466667 106:-0.978723 107:-0.984848 108:-0.986395 109:-0.995272 110:-0.988764 111:-0.604651 112:0.489051 113:0.0871795 114:-0.970149 115:-0.981982 116:-0.948148 117:-0.859873 118:-0.980952 119:-0.982759 120:-0.642857 121:-0.497436 122:-0.991489 123:-0.988095 124:-0.957447 125:-0.959459 126:-0.988024 127:-0.989848 128:1 129:-0.435897 130:-0.969231 131:-0.987342 132:-0.979866 133:-0.967391 134:-1 135:-0.990196 136:0.350318 137:0.025641 138:-0.953846 139:-0.974684 140:-0.932489 141:-0.868545 142:-0.959459 143:-0.987879 144:-0.541401 145:-0.374359 146:-0.993631 147:-1 148:-1 149:-1 150:-1 151:-0.966667 152:0.714286 
0.61292355686979794 1:-0.284916 2:-0.871658 3:-0.987805 4:-1 5:-1 6:-1 7:-1 8:-1 9:-0.544402 10:-0.272727 11:-0.988166 12:-1 13:-1 14:-1 15:-1 16:-1 17:-0.586592 18:-0.660606 19:-0.970149 20:-1 21:-1 22:-1 23:-1 24:-1 25:-1 26:-1 27:-1 28:-0.448276 29:-0.210084 30:-1 31:-1 32:-1 33:-0.0126582 34:-0.528384 35:-1 36:-1 37:-1 38:-1 39:-1 40:-1 41:-1 42:-1 43:-1 44:-0.958042 45:-0.40113 46:-0.772043 47:-0.950617 48:-1 49:-0.988827 51:0.0146341 52:-1 53:-1 54:-1 55:-1 56:-1 57:-0.988372 58:-0.989899 59:-0.980676 60:-0.911504 61:-0.856354 62:-0.953488 63:-0.985612 64:-0.971429 65:-0.993377 66:-1 67:-0.9875 68:-0.971014 69:-0.801105 70:-0.955696 71:-0.966292 72:-0.975 73:-1 74:-1 75:-1 76:-0.931818 77:-0.468951 78:-1 79:-1 80:-1 81:-1 82:-1 83:-0.719008 84:1 85:-0.995575 86:-1 87:-1 88:-1 89:-1 90:-1 91:-0.673077 92:-0.0613333 93:-0.987903 94:-1 95:-1 96:-1 97:-0.550201 98:-0.784946 99:-0.985185 100:-1 101:-1 102:-1 103:-1 104:-0.868852 105:-1 106:-1 107:-1 108:-0.986395 109:-0.895981 110:-0.685393 111:-0.72093 112:-0.970803 113:-0.969231 114:-0.800995 115:-0.225225 116:-0.911111 117:-0.987261 118:-1 119:-1 120:-0.97619 121:-1 122:-1 123:-1 124:-1 125:-0.175676 126:-0.269461 127:-0.959391 128:-1 129:-1 130:-1 131:-1 132:-0.973154 133:0.413043 134:-0.898734 135:-1 136:-1 137:-1 138:-1 139:-0.721519 140:0.35865 141:-0.934272 142:-1 143:-1 144:-1 145:-1 146:-1 147:-0.576642 148:0.425641 149:-0.962121 150:-1 151:-1 152:-1 
0.065335936528869293 1:-0.888268 2:-1 3:-1 4:-1 5:-1 6:-1 7:-0.965517 8:1 9:-1 10:-1 11:-1 12:-1 13:-1 14:-1 15:0.466019 16:-0.175676 17:-0.698324 18:-1 19:-1 20:-1 21:-1 22:-1 23:-0.971831 24:0.262136 25:-1 26:-1 27:-1 28:-1 29:-1 30:-1 31:1 32:-0.971963 33:-1 34:-1 35:-1 36:-1 37:-1 38:-1 39:1 40:-1 41:-0.966667 42:-0.989899 43:-0.987879 44:-0.972028 45:-0.943503 46:-0.987097 47:-0.925926 48:-0.903226 49:-0.877095 50:-0.974359 51:-1 52:-1 53:-0.981567 54:-0.994962 55:-0.973154 56:-0.803279 57:0.0697674 58:-0.939394 59:-1 60:-1 61:-1 62:-1 63:-1 64:-0.942857 65:-1 66:-1 67:-1 68:-1 69:-1 70:-1 71:0.876404 72:-0.7875 73:-0.72067 74:-0.97619 75:-1 76:-1 77:-1 78:-1 79:-0.964602 80:-0.370968 81:-0.987578 82:-1 83:-1 84:-1 85:-1 86:-1 87:-0.950413 88:0.953271 89:-0.948718 90:-1 91:-1 92:-1 93:-1 94:-1 95:-0.884615 96:0.0979228 97:-0.13253 98:-0.913978 99:-0.97037 100:-0.951515 101:-0.825581 102:-0.985915 103:-0.978723 104:-0.360656 105:-0.989744 106:-1 107:-1 108:-1 109:-1 110:-1 111:0.186047 112:1 113:-0.446154 114:-0.810945 115:-0.801802 116:-0.881481 117:-0.898089 118:-0.990476 119:-0.965517 120:-0.428571 121:-0.517949 122:-0.86383 123:-0.869048 124:-0.776596 125:-0.945946 126:-0.988024 127:-0.979695 128:-0.234783 129:-0.517949 130:-0.815385 131:-0.911392 132:-0.926174 133:-0.978261 134:-0.983122 135:-0.95098 136:-0.184713 137:-0.487179 138:-0.892308 139:-0.974684 140:-0.957806 141:-0.962441 142:-0.959459 143:-0.890909 144:-0.121019 145:-0.271795 146:-0.974522 147:-0.985401 148:-0.917949 149:-0.969697 150:-0.974684 151:-0.966667 152:0.157143 
0.14735431672611227 1:-0.75419 2:0.68984 3:-0.95122 4:-1 5:-1 6:-1 7:-1 8:-1 9:-0.976834 10:-0.914439 11:-0.91716 12:-0.832168 13:-0.832258 14:-0.893333 15:-0.961165 16:-0.986486 17:-0.687151 18:0.10303 19:-0.597015 20:-0.789474 21:-0.991416 22:-0.988701 23:-0.971831 24:-1 25:-0.552083 26:-0.393443 27:-0.578947 28:-0.586207 29:-0.983193 30:-1 31:-1 32:-0.981308 33:-0.632911 34:-0.170306 35:-0.757576 36:-0.875 37:-0.995485 38:-1 39:-1 40:-0.989796 41:-0.444444 42:-0.414141 43:-0.915152 44:-0.916084 45:-1 46:-1 47:-0.975309 48:-0.790323 49:-0.731844 50:0.0384615 51:-0.834146 52:-0.988095 53:-1 54:-1 55:-1 56:-0.983607 57:-0.77907 58:-0.262626 59:-0.89372 60:-0.973451 61:-1 62:-1 63:-1 64:-0.971429 65:-0.635762 66:0.409639 67:-0.85 68:-0.995169 69:-1 70:-1 71:-1 72:-1 73:-0.351955 74:0.547619 75:-0.957447 76:-1 77:-1 78:-1 79:-1 80:-1 81:-0.354037 82:0.528736 83:-0.950413 84:-0.989011 85:-1 86:-1 87:-1 88:-1 89:-0.917949 90:0.123967 91:-0.673077 92:-0.994667 93:-1 94:-1 95:-1 96:-1 97:-0.991968 98:-0.978495 99:0.392593 100:-0.672727 101:-0.976744 102:-1 103:-1 104:-1 105:-0.548718 106:0.393617 107:-0.863636 108:-1 109:-1 110:-1 111:-1 112:-1 113:-1 114:-0.781095 115:0.63964 116:-0.962963 117:-1 118:-1 119:-1 120:-1 121:-1 122:-0.812766 123:0.0833333 124:-0.946809 125:-1 126:-1 127:-1 128:-1 129:-1 130:-0.661538 131:0.151899 132:-0.966443 133:-1 134:-1 135:-1 136:-1 137:-1 138:-0.661538 139:0.151899 140:-0.957806 141:-1 142:-1 143:-1 144:-1 145:-1 146:-0.859873 147:0.328467 148:-0.948718 149:-1 150:-1 151:-1 152:-1 
0.060342519031620336 1:-1 2:-0.957219 3:-0.304878 4:-0.865169 5:-1 6:-1 7:-1 8:-1 9:-1 10:-0.860963 11:-0.384615 12:-0.972028 13:-0.993548 14:-1 15:-1 16:-1 17:-1 18:-1 19:-1 20:-1 21:-0.991416 22:-0.875706 23:0.140845 24:-0.873786 25:-1 26:-1 27:-1 28:-1 29:-0.991597 30:-0.956835 31:-0.230769 32:-0.88785 33:-1 34:-1 35:-1 36:-1 37:-0.995485 38:-0.943089 39:-0.32973 40:-0.704082 41:-0.955556 42:-0.989899 43:-1 44:-1 45:-0.977401 46:-0.991398 47:-0.0864198 48:-0.225806 49:-0.921788 50:-0.987179 51:-0.990244 52:-1 53:-0.97235 54:-0.813602 55:-0.637584 56:-0.836066 57:-0.325581 58:-0.111111 59:-0.951691 60:-1 61:-1 62:-1 63:-1 64:-1 65:-0.92053 66:-0.963855 67:-0.9875 68:-0.995169 69:-0.922652 70:-0.765823 71:-0.88764 72:-0.95 73:-1 74:-1 75:-0.730496 77:-0.991435 78:-1 79:-1 80:-1 81:-1 82:-1 83:-1 84:-1 85:-0.90708 86:0.179104 87:-0.719008 88:-0.981308 89:-1 90:-1 91:-1 92:-1 93:-0.975806 94:-0.00584795 95:-0.894231 96:-0.994065 97:-1 98:-1 99:-0.940741 100:-0.321212 101:-0.895349 102:-1 103:-1 104:-1 105:-1 106:-1 107:-1 108:-1 109:-1 110:-0.988764 111:0.604651 112:-0.416058 113:-1 114:-1 115:-1 116:-1 117:-1 118:-0.219048 119:-0.293103 120:-1 121:-0.989744 122:-0.829787 123:-0.392857 124:-0.925532 125:-1 126:-1 127:-1 128:-1 129:-1 130:-1 131:-1 132:-1 133:-0.945652 134:0.0379747 135:-0.882353 136:-1 137:-1 138:-1 139:-1 140:-0.966245 141:-0.15493 142:-0.945946 143:-1 144:-1 145:-1 146:-1 147:-1 148:-1 149:-0.863636 150:0.696203 151:-0.977778 152:-1 
1.1500963035486003 1:-1 2:-1 3:-1 4:-1 5:-1 6:-0.821138 7:-0.344828 8:-0.930435 9:-0.830116 10:-0.989305 11:-1 12:-1 13:-1 14:-1 15:-1 16:1 17:-0.798883 18:-0.963636 19:-1 20:-1 21:-1 22:-1 23:-1 24:-0.135922 25:-1 26:-1 27:-1 28:-1 29:-0.991597 30:-0.784173 31:-0.769231 32:-0.981308 33:-1 34:-1 35:-1 36:-1 37:-0.963883 38:-0.585366 39:-0.859459 40:-0.989796 41:-1 42:-1 43:-1 44:-0.986014 45:-0.875706 46:-0.789247 47:-0.62963 48:-0.983871 49:-0.865922 50:-0.987179 51:-1 52:-1 53:-1 54:-1 55:-0.973154 56:0.803279 57:-1 58:-0.989899 59:-1 60:-1 61:-0.944751 62:-0.44186 63:-0.769784 64:-0.971429 65:-0.927152 66:-0.987952 67:-1 68:-1 69:-1 70:-1 71:-1 72:0.5875 73:-0.988827 74:-0.988095 75:-0.985816 76:-1 77:-0.982869 78:-0.677582 79:-0.663717 80:-0.983871 81:-0.900621 82:-1 83:-1 84:-1 85:-1 86:-1 87:-0.966942 88:0.336449 89:-0.948718 90:-0.983471 91:-1 92:-1 93:-1 94:-1 95:-0.692308 96:-0.721068 97:-0.991968 98:0.139785 99:-0.777778 100:-1 101:-1 102:-1 103:-1 104:-1 105:-1 106:-0.968085 107:-0.984848 108:-0.959184 109:-0.957447 110:-0.910112 111:-0.72093 112:-0.912409 113:-1 114:-1 115:-0.585586 116:-0.192593 117:-0.936306 118:-1 119:-1 120:-1 121:-0.948718 122:-1 123:-1 124:-1 125:-1 126:-1 127:-0.736041 128:0.373913 129:-1 130:-1 131:-1 132:-0.993289 133:-0.76087 134:-0.156118 135:-0.970588 136:-1 137:-0.989744 138:-0.969231 139:-0.974684 140:-0.983122 141:-0.887324 142:-0.0945946 143:-0.939394 144:-0.987261 145:-1 146:-0.993631 147:-0.941606 148:-0.692308 149:-0.568182 150:-0.974684 151:-1 152:-1 
2.2022874579242293 1:0.743017 2:-0.989305 3:-1 4:-1 5:-1 6:-1 7:-1 8:-0.973913 9:0.258687 10:-0.97861 11:-1 12:-1 13:-1 14:-1 15:-1 16:-0.972973 17:-0.988827 18:-1 19:-1 20:-1 21:-1 22:-1 23:-0.887324 24:1 25:-1 26:-1 27:-1 28:-1 29:-1 30:-1 31:-0.932692 32:1 33:0.949367 34:-0.991266 35:-1 36:-1 37:-1 38:-1 39:-1 40:-0.989796 41:0.755556 42:-0.989899 43:-1 44:-1 45:-1 46:-1 47:-1 48:-0.935484 49:-1 50:-1 51:-1 52:-0.964286 53:-0.880184 54:-0.964736 55:-0.959732 56:-0.983607 57:0.686047 58:-0.989899 59:-1 60:-1 61:-1 62:-1 63:-1 64:-0.685714 65:-0.10596 66:-1 67:-1 68:-1 69:-1 70:-1 71:-1 72:-0.8375 73:-0.709497 74:-0.988095 75:-1 76:-1 77:-1 78:-1 79:-0.946903 80:1 81:-0.863354 82:-1 83:-1 84:-1 85:-1 86:-1 87:-0.966942 88:-0.261682 89:-0.866667 90:-1 91:-1 92:-1 93:-1 94:-1 95:-1 96:-0.00890208 97:-0.686747 98:-0.698925 99:-0.985185 100:-1 101:-1 102:-1 103:-0.989362 104:-0.918033 105:0.364103 106:-1 107:-1 108:-1 109:-1 110:-1 111:-1 112:-0.708029 113:-0.866667 114:-1 115:-1 116:-1 117:-1 118:-1 119:-1 120:1 121:0.476923 122:-0.991489 123:-1 124:-1 125:-1 126:-1 127:-1 128:-0.878261 129:-0.989744 130:-0.984615 131:-0.987342 132:-0.973154 133:-0.869565 134:-0.949367 135:-0.970588 136:-0.961783 137:-1 138:-1 139:-1 140:-1 141:-1 142:-0.783784 143:1 144:-1 145:-0.866667 146:-0.987261 147:-1 148:-1 149:-1 150:-1 151:-0.655556 152:0.157143 
2.913656956244981 1:-1 2:-1 3:-0.939024 4:0.719101 5:-0.955056 6:-1 7:-1 8:-1 9:-1 10:-0.97861 11:-0.278107 12:-0.93007 13:-1 14:-1 15:-1 16:-1 17:-0.96648 18:-0.975758 19:-0.955224 20:-0.968421 21:-0.982833 22:-0.977401 23:-0.971831 24:-0.980583 25:-1 26:-0.991803 27:-0.216374 28:-0.672414 29:-1 30:-1 31:-1 32:-1 33:-1 34:-1 35:-1 36:0.516667 37:-0.905192 38:-1 39:-1 40:-1 41:-1 42:-1 43:-1 44:-0.986014 45:0.864407 46:-0.819355 47:-1 48:-1 49:-0.988827 50:-0.961538 51:-0.960976 52:-0.809524 53:-0.751152 54:-0.949622 55:-0.986577 56:-1 57:-1 58:-1 59:-1 60:-0.699115 61:-0.502762 62:-1 63:-1 64:-1 65:-0.986755 66:-0.951807 67:-0.9625 68:-0.937198 69:-0.712707 70:-0.949367 71:-0.988764 72:-0.975 73:-0.843575 74:-0.785714 75:-0.858156 76:-0.943182 77:-0.978587 78:-0.989924 79:-0.982301 80:-0.919355 81:-0.863354 82:-0.804598 83:-0.834711 84:-0.967033 85:-0.986726 86:-0.955224 87:-0.966942 88:-0.962617 89:-0.989744 90:-0.917355 91:-0.903846 92:-0.92 93:-0.891129 94:-0.918129 95:-0.990385 96:-0.994065 97:-0.678715 98:-0.602151 99:-0.851852 100:-0.987879 101:-0.988372 102:-0.992958 103:-0.989362 104:-0.918033 105:-0.979487 106:-0.957447 107:-0.954545 108:-0.741497 109:-0.853428 110:-0.94382 111:-0.976744 112:-0.985401 113:-0.866667 114:-0.810945 115:-0.855856 116:-0.955556 117:-0.923567 118:-0.961905 119:-0.965517 120:-0.952381 121:-0.682051 122:-0.761702 123:-0.97619 124:-0.968085 125:-0.986486 126:-0.988024 127:-0.969543 128:-0.843478 129:-1 130:-0.984615 131:-0.962025 132:-0.718121 133:-0.315217 134:-0.966245 135:-1 136:-1 137:-0.302564 138:-0.323077 139:-0.974684 140:-0.991561 141:-1 142:-1 143:-0.975758 144:-0.88535 145:-0.712821 146:-0.853503 147:-0.912409 148:-0.979487 149:-0.924242 150:-0.898734 151:-0.988889 152:-0.957143 
2.1706736883967483 1:0.307263 2:-0.764706 3:-0.987805 4:-1 5:-1 6:-1 7:-1 8:-1 9:-0.992278 10:-0.989305 11:-0.988166 12:-0.972028 13:-0.948387 14:-0.973333 15:-0.980583 16:-0.959459 17:-0.363128 18:-0.842424 19:-0.985075 20:-1 21:-1 22:-1 23:-1 24:-0.990291 25:-0.15625 26:-0.942623 27:-0.988304 28:-1 29:-1 30:-1 31:-1 32:-0.981308 33:-1 34:-1 35:-0.984848 36:-0.841667 37:-0.860045 38:-0.98374 39:-0.989189 40:-1 41:0.222222 42:-0.69697 43:-0.987879 44:-1 45:-1 46:-1 47:-1 48:-0.967742 49:-0.396648 50:-0.782051 51:-0.990244 52:-0.988095 53:-1 54:-0.994962 55:-0.973154 56:-0.836066 57:-0.581395 58:0.161616 59:-0.942029 60:-1 61:-1 62:-1 63:-1 64:-1 65:-0.13245 66:-0.518072 67:-0.9375 68:-0.990338 69:-1 70:-1 71:-1 72:-0.9625 73:0.463687 74:-0.52381 75:-0.929078 76:-0.977273 77:-1 78:-1 79:-1 80:-0.951613 81:0.627329 82:-0.54023 83:-0.917355 84:-0.978022 85:-1 86:-1 87:-1 88:-0.971963 89:0.34359 90:-0.338843 91:-0.903846 92:-0.989333 93:-1 94:-1 95:-1 96:-0.982196 97:0.0522088 98:-0.569892 99:-0.925926 100:-0.987879 101:-1 102:-1 103:-1 104:-0.95082 105:0.34359 106:-0.574468 107:-0.924242 108:-0.972789 109:-1 110:-1 111:-1 112:-0.956204 113:0.34359 114:-0.60199 115:-0.90991 116:-0.985185 117:-1 118:-1 119:-1 120:-0.964286 121:0.34359 122:-0.659574 123:-0.940476 124:-0.978723 125:-1 126:-1 127:-1 128:-0.947826 129:0.34359 130:-0.384615 131:-0.936709 132:-0.986577 133:-1 134:-1 135:-1 136:-0.961783 137:0.34359 138:-0.384615 139:-0.936709 140:-0.983122 141:-1 142:-1 143:-1 144:-0.961783 145:0.34359 146:-0.745223 147:-0.927007 148:-0.979487 149:-1 150:-1 151:-1 152:-0.957143 
2.9645044150445297 1:-0.988827 2:-0.97861 3:-0.97561 4:-0.966292 5:-0.902622 6:-0.853659 7:-0.896552 8:-0.930435 9:-1 10:-1 11:-1 12:-1 13:-0.993548 14:-0.853333 15:-0.300971 16:-0.702703 17:-0.96648 18:-0.987879 19:-0.985075 20:-0.978947 21:-0.957082 22:-0.932203 23:-0.830986 24:-0.854369 25:-0.447917 26:-0.942623 27:-0.976608 28:-0.965517 29:-1 30:-1 31:-1 32:-0.934579 33:-0.303797 34:-0.956332 35:-0.969697 36:-0.991667 37:-1 38:-1 39:-1 40:-0.938776 41:1 42:-0.969697 43:-1 44:-1 45:-1 46:-1 47:-1 48:-0.983871 49:-0.944134 50:-0.987179 51:-1 52:-0.988095 53:-0.990783 54:-0.989924 55:-0.932886 56:-0.852459 57:-0.988372 58:-0.989899 59:-0.990338 60:-0.982301 61:-0.944751 62:-0.916279 63:-0.726619 64:-0.514286 65:-0.331126 66:-1 67:-1 68:-1 69:-1 70:-1 71:-1 72:-0.275 73:-0.988827 74:-0.988095 75:-1 76:-1 77:-0.987152 78:-0.929471 79:-0.59292 80:-0.806452 81:-0.478261 82:-0.977011 83:-1 84:-0.989011 85:-0.995575 86:-1 87:-1 88:-0.897196 89:-0.569231 90:-0.966942 91:-1 92:-1 93:-1 94:-1 95:-1 96:-0.893175 97:-1 98:-1 99:-1 100:-1 101:-1 102:-0.992958 103:0.734043 104:-0.557377 105:-0.384615 106:-1 107:-1 108:-1 109:-1 110:-1 111:-1 112:-0.678832 113:-0.271795 114:-0.99005 115:-1 116:-1 117:-1 118:-1 119:-1 120:-0.821429 121:-0.384615 122:-1 123:-1 124:-1 125:-1 126:-0.988024 127:-0.969543 128:-0.182609 129:0.548718 130:-0.953846 131:-1 132:-1 133:-1 134:-1 135:-1 136:-0.974522 137:-0.907692 138:-0.969231 139:-0.987342 140:-0.991561 141:-0.99061 142:-0.986486 143:-0.951515 144:-0.847134 145:-0.969231 146:-1 147:-1 148:-1 149:-1 150:-1 151:-0.744444 152:-0.0428571 
0.51258202857425239 1:0.899441 2:-0.97861 3:-1 4:-1 5:-1 6:-1 7:-1 8:-0.973913 9:-0.397683 10:-0.743316 11:-1 12:-1 13:-1 14:-1 15:-1 16:-0.986486 17:1 18:-0.975758 19:-1 20:-1 21:-1 22:-1 23:-1 24:-0.970874 25:-0.53125 26:-0.745902 27:-0.988304 28:-1 29:-1 30:-1 31:-1 32:-0.953271 33:-0.329114 34:-0.764192 35:-0.954545 36:-1 37:-1 38:-1 39:-1 40:-0.959184 41:-0.277778 42:-0.818182 43:-0.975758 44:-1 45:-1 46:-1 47:-0.975309 48:-0.870968 49:-0.0949721 50:-0.820513 51:-1 52:-1 53:-1 54:-1 55:-0.986577 56:-0.803279 57:0.255814 58:-0.959596 59:-1 60:-1 61:-1 62:-1 63:-0.956835 64:-0.742857 65:-0.211921 66:-0.831325 67:-1 68:-1 69:-1 70:-1 71:-0.988764 72:-0.8375 73:0.318436 74:-0.345238 75:-0.985816 76:-1 77:-1 78:-1 79:-1 80:-1 81:0.763975 82:-0.689655 83:-0.983471 84:-1 85:-1 86:-1 87:-1 88:-0.990654 89:0.815385 90:-0.834711 91:-1 92:-1 93:-1 94:-1 95:-1 96:-0.893175 97:0.493976 98:-0.903226 99:-0.985185 100:-1 101:-1 102:-1 103:-1 104:-0.721311 105:0.815385 106:-0.87234 107:-0.969697 108:-0.986395 109:-1 110:-1 111:-1 112:-0.79562 113:0.753846 114:-0.860697 115:-0.981982 116:-0.992593 117:-1 118:-1 119:-0.982759 120:-0.833333 121:0.876923 122:-0.906383 123:-0.988095 124:-1 125:-1 126:-1 127:-1 128:-0.721739 129:-0.907692 130:-1 131:-0.987342 132:-1 133:-1 134:-0.991561 135:-0.911765 136:1 137:0.866667 138:-0.861538 139:-1 140:-1 141:-1 142:-1 143:-1 144:-0.808917 145:0.0666667 146:-0.821656 147:-0.985401 148:-1 149:-1 150:-1 151:-1 152:-0.785714 
3.1917322868330373 1:-0.910615 2:-0.967914 3:-0.987805 4:-0.966292 5:-0.985019 6:-0.98374 7:-0.988506 8:-0.965217 9:-0.907336 10:-0.967914 11:-0.976331 12:-0.979021 13:-0.993548 14:-0.986667 15:-0.990291 16:-0.945946 17:-0.854749 18:-0.939394 19:-0.970149 20:-0.978947 21:-0.991416 22:-0.988701 23:-0.985915 24:-0.970874 25:-0.895833 26:-0.959016 27:-0.964912 28:-0.965517 29:-0.991597 30:-1 31:-0.980769 32:-0.971963 33:-1 34:-1 35:-1 36:-1 37:-1 38:0.195122 39:-0.859459 40:-1 41:-0.833333 42:-0.989899 43:-0.987879 44:-0.986014 45:-0.988701 46:-1 47:-0.975309 48:-0.870968 49:-1 50:-1 51:-0.990244 52:-0.785714 53:-0.419355 54:-1 55:-1 56:-1 57:-1 58:-0.979798 59:-0.980676 60:-0.929204 61:-0.436464 62:-0.981395 63:-1 64:-1 65:-1 66:-1 67:-1 68:-1 69:-0.812155 70:-0.556962 71:-0.775281 72:-0.9875 73:-1 74:-1 75:-0.985816 76:-0.477273 77:-0.618844 78:-0.989924 79:-1 80:-1 81:-0.962733 82:-0.988506 83:-0.983471 84:-0.89011 85:-0.880531 86:-0.985075 87:-1 88:-0.981308 89:-0.969231 90:-0.966942 91:-0.961538 92:-0.941333 93:-0.907258 94:-0.988304 95:-1 96:-0.994065 97:-0.983936 98:-0.978495 99:-0.985185 100:-0.933333 101:-0.767442 102:-0.992958 103:-1 104:-0.983607 105:-0.958974 106:-0.989362 107:-0.969697 108:-0.863946 109:-0.92435 110:-0.988764 111:-0.976744 112:-0.970803 113:-0.958974 114:-0.99005 115:-0.981982 116:-0.955556 117:-0.757962 118:-0.990476 119:-0.982759 120:-0.952381 121:-0.507692 122:-0.931915 123:-0.964286 124:-0.989362 125:-1 126:-1 127:-1 128:-0.965217 129:-0.958974 130:-0.984615 131:-1 132:-0.986577 133:-0.902174 134:-0.966245 135:-0.960784 136:-0.88535 137:-0.764103 138:-0.984615 139:-0.987342 140:-0.983122 141:-0.99061 142:-0.986486 143:-0.975758 144:-0.859873 145:-1 146:-1 147:-0.868613 148:-0.733333 149:-0.424242 150:-0.911392 151:-0.988889 152:-1 
0.50708161870525204 1:-0.955307 2:-0.989305 3:-0.97561 4:-0.955056 5:-0.970037 6:-0.96748 7:-0.988506 8:-0.973913 9:-0.953668 10:-0.97861 11:-0.976331 12:-0.972028 13:-0.980645 14:-0.986667 15:-0.990291 16:-0.945946 17:-0.921788 18:-0.975758 19:-0.985075 20:-0.978947 21:-0.965665 22:-0.977401 23:-0.985915 24:-0.951456 25:-0.166667 26:-0.959016 27:-0.988304 28:-1 29:-1 30:-1 31:-1 32:-0.990654 33:-0.898734 34:-0.991266 35:-1 36:-0.991667 37:-0.986456 38:-0.98374 39:-0.978378 40:-0.826531 41:-0.744444 42:-0.969697 43:-0.987879 44:-0.986014 45:-0.988701 46:-0.995699 47:-0.950617 48:-0.83871 49:-1 50:-0.961538 51:-0.95122 52:-0.77381 53:-0.612903 54:-0.924433 55:-0.959732 56:-1 57:0.0348837 58:0.0505051 59:-0.951691 60:-0.99115 61:-1 62:-1 63:-1 64:-1 65:-0.496689 66:0.0963855 67:-0.9625 68:-0.995169 69:-1 70:-1 71:-1 72:-1 73:-0.407821 74:-0.416667 75:-0.957447 76:-0.988636 77:-0.991435 78:-0.989924 79:-0.982301 80:-0.951613 81:-0.10559 82:-0.413793 83:-0.983471 84:-0.989011 85:-0.99115 86:-0.985075 87:-1 88:-0.981308 89:0.353846 90:-0.867769 91:-1 92:-1 93:-1 94:-0.988304 95:-1 96:-0.869436 97:-0.686747 98:-0.473118 99:-0.896296 100:-0.987879 101:-0.988372 102:-0.985915 103:-0.989362 104:-0.983607 105:0.0358974 106:-0.159574 107:-0.969697 108:-1 109:-1 110:-1 111:-1 112:-0.985401 113:-0.897436 114:0.154229 115:-0.621622 116:-0.992593 117:-0.987261 118:-1 119:-1 120:-1 121:0.620513 122:-0.659574 123:-0.988095 124:-1 125:-1 126:-1 127:-1 128:-0.982609 129:0.00512821 130:-0.907692 131:-1 132:-1 133:-1 134:-1 135:-0.990196 136:-0.872611 137:-1 138:-1 139:-0.962025 140:-0.738397 141:-0.370892 142:-0.959459 143:-0.975758 144:-1 145:-0.497436 146:-0.458599 147:-0.941606 148:-1 149:-1 150:-1 151:-1 152:-1 
4.4812194444258253 1:-1 2:-1 3:-1 4:0.0674157 5:-0.790262 6:-0.98374 7:-1 8:-1 9:-1 10:-0.68984 11:-0.0769231 12:-0.993007 13:-1 14:-1 15:-1 16:-1 17:-1 18:-1 19:-0.597015 20:0.357895 21:-1 22:-1 23:-1 24:-1 25:-0.989583 26:-0.598361 27:-0.578947 28:-0.982759 29:-1 30:-1 31:-1 32:-1 33:-1 34:-1 35:-1 36:-0.683333 37:-0.832957 38:-0.910569 39:-0.967568 40:-0.979592 41:-1 42:-0.989899 43:-0.987879 44:-0.356643 45:0.141243 46:-0.935484 47:-0.876543 48:-0.822581 49:-1 50:-0.987179 51:-0.882927 52:-0.047619 53:-0.852535 54:-1 55:-1 56:-1 57:-1 58:-0.989899 59:-0.922705 60:-0.327434 61:-0.668508 62:-1 63:-1 64:-1 65:-1 66:-0.987952 67:-0.95 68:-0.666667 69:-0.535912 70:-1 71:-1 72:-1 73:-0.988827 74:-0.988095 75:-0.957447 76:-0.147727 77:-0.798715 78:-1 79:-1 80:-1 81:-0.763975 82:-0.597701 83:-0.933884 84:-1 85:-0.995575 86:-0.955224 87:-0.950413 88:-0.953271 89:-0.989744 90:-0.983471 91:-0.865385 92:-0.706667 93:-0.709677 94:-0.988304 95:-1 96:-1 97:-1 98:-0.989247 99:-0.985185 100:-0.648485 101:-0.151163 102:-1 103:-1 104:-0.983607 105:-1 106:-1 107:-0.969697 108:-0.210884 109:-0.399527 110:-0.977528 111:-1 112:-1 113:-1 114:-0.99005 115:-0.927928 116:-0.562963 117:0.0573248 118:-1 119:-1 120:-1 121:-1 122:-0.991489 123:-0.940476 124:-0.414894 125:0.324324 126:-1 127:-1 128:-1 129:-0.979487 130:-0.984615 131:-0.898734 132:-0.724832 133:-0.152174 134:-0.839662 135:-0.990196 136:-0.923567 137:-0.989744 138:-0.846154 139:-0.721519 140:-0.915612 141:-0.643192 142:-0.932432 143:-0.975758 144:-1 145:-0.989744 146:-0.993631 147:-0.941606 148:-0.6 149:-0.280303 150:-0.886076 151:-1 152:-1 
0.77921003851921156 1:0.50838 2:-0.764706 3:-0.878049 4:-0.898876 5:-0.985019 6:-1 7:-1 8:-0.930435 9:0.0656371 10:-0.775401 11:-0.905325 12:-0.93007 13:-0.993548 14:-1 15:-0.990291 16:-0.797297 17:0.418994 18:-0.745455 19:-0.925373 20:-0.863158 21:-0.982833 22:-0.988701 23:-0.985915 24:-0.854369 25:-0.604167 26:-0.106557 27:-0.567251 28:-0.758621 29:-0.991597 30:-1 31:-1 32:-0.990654 33:-0.924051 34:-0.318777 35:-0.363636 36:-0.95 37:-0.995485 38:-1 39:-1 40:-1 41:0.366667 42:-0.757576 43:-0.915152 44:-0.86014 45:-0.988701 46:-1 47:-1 48:-0.854839 49:-1 50:-1 51:-1 52:-1 53:-0.963134 54:-0.848866 55:-0.463087 56:-0.95082 57:-0.104651 58:-0.424242 59:-0.913043 60:-0.964602 61:-1 62:-1 63:-0.985612 64:-0.857143 65:-0.907285 66:0.746988 67:-0.8625 68:-0.990338 69:-1 70:-1 71:-1 72:-1 73:-0.117318 74:-0.607143 75:-0.971631 76:-0.965909 77:-0.995717 78:-1 79:-0.982301 80:-0.903226 81:0.254658 82:-0.425287 83:-0.933884 84:-0.912088 85:-0.995575 86:-1 87:-1 88:-0.981308 89:0.128205 90:-0.239669 91:-0.923077 92:-0.973333 93:-1 94:-1 95:-1 96:-0.988131 97:-0.991968 98:0.645161 99:-0.644444 100:-0.957576 101:-1 102:-1 103:-1 104:-1 105:-0.948718 106:0.531915 107:-0.606061 108:-0.945578 109:-1 110:-1 111:-1 112:-1 113:-0.835897 114:-0.890547 115:-0.963964 116:-0.955556 117:-0.847134 118:-0.942857 119:-0.931034 120:-0.940476 121:-0.641026 122:-0.72766 123:-0.940476 124:-0.989362 125:-0.891892 126:-0.976048 127:-0.989848 128:-0.982609 129:-1 130:0.6 131:-0.253165 132:-0.993289 133:-1 134:-1 135:-1 136:-1 137:-1 138:-0.476923 139:-0.189873 140:-0.940928 141:-1 142:-1 143:-1 144:-1 145:0.764103 146:-0.726115 147:-0.970803 148:-0.989744 149:-1 150:-1 151:-1 152:-0.957143 
3.8751592619603317 1:-1 2:-0.946524 3:-0.219512 4:-0.921348 5:-0.992509 6:-1 7:-1 8:-1 9:-0.84556 10:-0.775401 11:-0.881657 12:-0.979021 13:-1 14:-1 15:-1 16:-0.986486 17:-0.977654 18:-0.757576 19:-0.283582 20:-0.989474 21:-0.991416 22:-1 23:-1 24:-1 25:-1 26:-1 27:-1 28:-0.982759 29:-0.823529 30:-0.894484 31:-0.923077 32:-0.971963 33:-0.987342 34:-1 35:-0.954545 36:-0.541667 37:-0.968397 38:-0.98374 39:-0.989189 40:-0.989796 41:0.255556 42:-0.969697 43:-1 44:-1 45:-1 46:-1 47:-1 48:-0.967742 49:-0.988827 50:-1 51:-1 52:-1 53:-0.963134 54:-0.95466 55:-0.785235 56:-0.688525 57:-0.848837 58:-0.979798 59:-0.990338 60:-0.938053 61:-0.966851 62:-0.990698 63:-0.985612 64:-0.828571 65:-0.986755 66:-0.73494 67:-0.5 68:-0.966184 69:-1 70:-1 71:-1 72:-0.9875 73:-0.608939 74:-0.916667 75:-0.971631 76:-0.988636 77:-0.995717 78:-0.984887 79:-0.946903 80:-0.83871 81:-0.664596 82:-0.701149 83:-0.884298 84:-0.978022 85:-0.986726 86:-0.985075 87:-0.983471 88:-0.971963 89:-0.784615 90:-0.900826 91:-0.961538 92:-0.994667 93:-0.967742 94:-0.824561 95:-0.932692 96:-0.964392 97:-0.325301 98:-0.365591 99:-0.97037 100:-1 101:-1 102:-0.992958 103:-0.978723 104:-0.819672 105:-0.138462 106:-0.404255 107:-0.924242 108:-0.986395 109:-0.995272 110:-1 111:-0.976744 112:-0.810219 113:-0.0974359 114:-0.442786 115:-0.891892 116:-0.977778 117:-0.936306 118:-1 119:-0.965517 120:-0.761905 121:-0.45641 122:-0.565957 123:-0.904762 124:-0.978723 125:-0.945946 126:-0.988024 127:-0.898477 128:-0.721739 129:0.0461538 130:-0.630769 131:-0.708861 132:-0.966443 133:-0.934783 134:-0.991561 135:-0.970588 136:-0.821656 137:-0.0666667 138:-0.476923 139:-0.683544 140:-0.848101 141:-0.981221 142:-1 143:-0.975758 144:-0.961783 145:-0.00512821 146:-0.815287 147:-0.722628 148:-0.948718 149:-0.94697 150:-1 151:-0.977778 152:-0.757143 
0.32612130574342557 1:0.0726257 2:-0.251337 3:-0.987805 4:-1 5:-1 6:-1 7:-1 8:-1 9:-0.104247 10:-0.368984 11:-0.952663 12:-1 13:-1 14:-1 15:-1 16:-0.986486 17:0.329609 18:-0.163636 19:-0.895522 20:-1 21:-1 22:-1 23:-1 24:-0.980583 25:-0.0625 26:-0.598361 27:-0.929825 28:-1 29:-1 30:-1 31:-1 32:-0.953271 33:0.949367 34:-0.71179 35:-0.833333 36:-0.95 37:-1 38:-1 39:-0.989189 40:-0.969388 41:0.244444 42:-0.111111 43:-0.866667 44:-0.986014 45:-1 46:-1 47:-0.975309 48:-0.967742 49:0.776536 50:-0.512821 51:-0.95122 52:-0.988095 53:-1 54:-1 55:-0.986577 56:-0.95082 57:1 58:-0.606061 59:-0.980676 60:-1 61:-1 62:-1 63:-1 64:-0.971429 65:-0.774834 66:1 67:-0.775 68:-0.985507 69:-0.98895 70:-1 71:-0.988764 72:-0.9875 73:-0.374302 74:-0.380952 75:-0.87234 76:-0.988636 77:-1 78:-1 79:-0.982301 80:-0.951613 81:1 82:-0.609195 83:-0.983471 84:-1 85:-1 86:-1 87:-1 88:-0.981308 89:1 90:-0.768595 91:-0.961538 92:-0.989333 93:-1 94:-1 95:-1 96:-0.976261 97:0.566265 98:-0.849462 99:-0.97037 100:-0.987879 101:-1 102:-1 103:-1 104:-0.934426 105:1 106:-0.851064 107:-0.969697 108:-0.972789 109:-1 110:-1 111:-1 112:-0.941606 113:1 114:-0.860697 115:-0.963964 116:-0.985185 117:-1 118:-1 119:-1 120:-0.952381 121:1 122:-0.880851 123:-0.97619 124:-0.978723 125:-1 126:-1 127:-1 128:-0.930435 129:1 130:-0.784615 131:-0.974684 132:-0.986577 133:-1 134:-1 135:-1 136:-0.949045 137:1 138:-0.784615 139:-0.974684 140:-0.983122 141:-1 142:-1 143:-1 144:-0.949045 145:1 146:-0.910828 147:-0.970803 148:-0.979487 149:-1 150:-1 151:-1 152:-0.942857 
2.4816646333234167 1:-0.821229 2:-0.561497 3:-0.817073 4:-0.988764 5:-1 6:-1 7:-1 8:-0.982609 9:-1 10:-1 11:-0.846154 12:-0.636364 13:-0.941935 14:-0.986667 15:-1 16:-1 17:-0.47486 18:-0.90303 19:-0.970149 20:-0.978947 21:-1 22:-1 23:-1 24:-0.92233 25:-0.875 26:-0.581967 27:-0.918129 28:-1 29:-1 30:-1 31:-1 32:-0.981308 33:-1 34:-1 35:-0.818182 36:-0.533333 37:-0.968397 38:-0.99187 39:-1 40:-1 41:-1 42:-0.989899 43:-0.866667 44:-0.216783 45:-0.920904 46:-0.995699 47:-1 48:-1 49:-0.798883 50:-0.871795 51:-0.960976 52:-0.964286 53:-0.990783 54:-1 55:-1 56:-0.983607 57:-0.976744 58:-0.919192 59:-0.89372 60:-0.884956 61:-0.966851 62:-0.990698 63:-0.928058 64:-0.971429 65:-1 66:-0.987952 67:-0.85 68:-0.714976 69:-0.878453 70:-0.987342 71:-1 72:-1 73:-1 74:-1 75:-0.815603 76:-0.397727 77:-0.961456 78:-0.989924 79:-1 80:-1 81:-0.987578 82:-1 83:-0.983471 84:-0.989011 85:-0.99115 86:-0.850746 87:-0.487603 88:-0.934579 89:-0.784615 90:-0.603306 91:-0.826923 92:-0.994667 93:-1 94:-0.988304 95:-1 96:-1 97:-1 98:-0.989247 99:-0.762963 100:-0.739394 101:-0.906977 102:-0.985915 103:-1 104:-0.967213 105:-0.753846 106:-0.968085 107:-1 108:-1 109:-0.995272 110:-1 111:-0.906977 112:-0.781022 113:-0.610256 114:-0.940299 115:-1 116:-1 117:-1 118:-0.990476 119:-0.948276 120:-0.904762 121:-1 122:-1 123:-1 124:-1 125:-0.986486 126:-0.377246 127:-0.786802 128:-1 129:-0.989744 130:-0.8 131:-0.506329 132:-0.926174 133:-0.98913 134:-1 135:-1 136:-0.987261 137:-0.979487 138:-1 139:-1 140:-0.983122 141:-0.934272 142:-0.797297 143:-0.842424 144:-0.872611 145:-0.969231 146:-0.987261 147:-0.985401 148:-0.969231 149:-0.94697 150:-0.848101 151:-0.9 152:-0.814286 
1.2868774372370029 1:-1 2:-1 3:-1 4:-0.932584 5:-0.191011 6:-0.98374 7:-1 8:-1 9:-1 10:-1 11:-1 12:-1 13:-1 14:-0.933333 15:-0.126214 16:-0.986486 17:-0.988827 18:-0.987879 19:-1 20:-1 21:-0.991416 22:-0.954802 23:-0.0985915 24:-0.951456 25:-1 26:-1 27:-1 28:-1 29:-0.932773 30:-0.577938 31:-0.913462 32:-1 33:-1 34:-1 35:-0.984848 36:-0.841667 37:-0.891648 38:-0.926829 39:-0.945946 40:-1 41:-1 42:-1 43:-1 44:-1 45:-0.853107 46:-0.729032 47:-0.876543 48:-1 49:-1 50:-1 51:-0.990244 52:-1 53:-0.861751 54:-0.72796 55:-0.932886 56:-1 57:-1 58:-1 59:-1 60:-0.99115 61:0.20442 62:-0.832558 63:-0.985612 64:-1 65:-1 66:-1 67:-1 68:-0.995169 69:-0.790055 70:-0.860759 71:-0.865169 72:-0.9875 73:-1 74:-1 75:-1 76:-0.988636 77:-0.576017 78:-0.959698 79:-1 80:-1 81:-1 82:-1 83:-1 84:-1 85:-0.588496 86:-0.731343 87:-1 88:-1 89:-1 90:-1 91:-1 92:-0.989333 93:-0.596774 94:-0.918129 95:-1 96:-1 97:-0.991968 98:-1 99:-1 100:-0.921212 101:-0.790698 102:-0.964789 103:-0.968085 104:-0.983607 105:-1 106:-1 107:-0.984848 108:-0.210884 109:-0.881797 110:-0.88764 111:-0.953488 112:-1 113:-1 114:-1 115:-1 116:-0.992593 117:-0.732484 118:-0.866667 119:-0.931034 120:-1 121:-1 122:-0.982979 123:-0.761905 124:-0.808511 125:-0.945946 126:-0.988024 127:-0.989848 128:-0.895652 129:-1 130:-0.984615 131:-0.974684 132:-0.845638 133:-0.532609 134:-0.864979 135:-1 136:-1 137:-1 138:-0.984615 139:-0.974684 140:-0.805907 141:-0.596244 142:-0.783784 143:-1 144:-1 145:-1 146:-0.993631 147:-0.970803 148:-0.764103 149:-0.674242 150:-0.797468 151:-1 152:-1 
6.892370428793698 1:-0.988827 2:-0.957219 3:-0.926829 4:-0.797753 5:-0.932584 6:-0.918699 7:-0.977011 8:-0.991304 9:-1 10:-1 11:-1 12:-1 13:-0.916129 14:-0.213333 15:-0.902913 16:-0.986486 17:-1 18:-1 19:-1 20:-0.736842 21:-0.648069 22:-0.932203 23:-1 24:-1 25:-0.875 26:-0.983607 27:-0.976608 28:-0.982759 29:-1 30:-1 31:-0.951923 32:-0.71028 33:-0.810127 34:-0.982533 35:-0.984848 36:-0.991667 37:-1 38:-1 39:-0.967568 40:-0.673469 41:-0.766667 42:-0.909091 43:-0.90303 44:-0.986014 45:-1 46:-0.995699 47:-0.950617 48:-0.854839 49:-0.463687 50:-0.884615 51:-1 52:-1 53:-1 54:-1 55:-1 56:-0.934426 57:-0.988372 58:-1 59:-1 60:-0.99115 61:-0.922652 62:-0.823256 63:-0.784173 64:-0.885714 65:-0.907285 66:-0.951807 67:-0.9875 68:-1 69:-1 70:-1 71:-0.955056 72:-0.6875 73:-0.810056 74:-0.964286 75:-0.971631 76:-1 77:-1 78:-1 79:-0.964602 80:-0.564516 81:-0.602484 82:-0.885057 83:-0.983471 84:-1 85:-1 86:-1 87:-0.983471 88:-0.878505 89:-0.651282 90:-0.884298 91:-0.980769 92:-1 93:-1 94:-1 95:-0.990385 96:-0.940653 97:-0.975904 98:-0.978495 99:-0.955556 100:-0.975758 101:-0.965116 102:-0.978873 103:-0.93617 104:-0.95082 105:-1 106:-1 107:-1 108:-0.986395 109:-0.900709 110:-0.674157 111:-0.930233 112:-0.985401 113:-0.384615 114:-0.940299 115:-1 116:-1 117:-1 118:-1 119:-1 120:-0.97619 121:-0.353846 122:-0.957447 123:-1 124:-1 125:-1 126:-1 127:-0.989848 128:-0.913043 129:-1 130:-1 131:-0.987342 132:-0.966443 133:-0.565217 134:-0.983122 135:-0.990196 136:-1 137:-0.979487 138:-1 139:-1 140:-0.915612 141:-0.774648 142:-0.986486 143:-0.987879 144:-0.987261 145:-0.969231 146:-0.993631 147:-0.985401 148:-0.979487 149:-0.962121 150:-0.962025 151:-0.966667 152:-0.957143 
2.0261333090255826 1:-0.955307 2:-0.967914 3:-0.963415 4:-0.966292 5:-0.985019 6:-0.98374 7:-0.977011 8:-0.982609 9:-1 10:-1 11:-1 12:-0.986014 13:-0.941935 14:-0.6 15:-0.961165 16:-1 17:-1 18:-1 19:-1 20:-0.989474 21:-0.699571 22:-0.875706 23:-0.957746 24:-1 25:-1 26:-1 27:-1 28:-1 29:-0.991597 30:-0.851319 31:-0.625 32:-1 33:-1 34:-1 35:-1 36:-1 37:-0.995485 38:-0.772358 39:-0.567568 40:-1 41:-0.988889 42:-1 43:-1 44:-0.986014 45:-0.920904 46:-0.974194 47:-0.753086 48:-0.741935 49:-1 50:-1 51:-1 52:-0.988095 53:-0.714286 54:-0.712846 55:-0.986577 56:-1 57:-1 58:-1 59:-1 60:-0.99115 61:-0.801105 62:-0.376744 63:-0.985612 64:-1 65:-1 66:-1 67:-1 68:-0.995169 69:-0.801105 70:-0.575949 71:-0.988764 72:-1 73:-1 74:-1 75:-1 76:-0.988636 77:-0.922912 78:-0.662469 79:-0.982301 80:-1 81:-1 82:-1 83:-1 84:-0.989011 85:-0.920354 87:-0.983471 88:-1 89:-1 90:-1 91:-1 92:-0.994667 93:-0.927419 94:-0.216374 95:-0.990385 96:-1 97:-1 98:-1 99:-1 100:-0.993939 101:-0.790698 102:-0.528169 103:-0.989362 104:-1 105:-1 106:-1 107:-1 108:-0.986395 109:-0.914894 110:-0.247191 111:-0.976744 112:-1 113:-1 114:-1 115:-1 116:-0.992593 117:-0.770701 118:-0.361905 119:-0.982759 120:-1 121:-1 122:-1 123:-1 124:-0.989362 125:-0.756757 126:-0.197605 127:-0.989848 128:-1 129:-1 130:-1 131:-1 132:-0.993289 133:-0.804348 134:-0.434599 135:-0.990196 136:-1 137:-1 138:-1 139:-1 140:-0.991561 141:-0.830986 142:-0.0945946 143:-0.987879 144:-1 145:-1 146:-1 147:-1 148:-0.989744 149:-0.863636 150:-0.151899 151:-0.988889 152:-1 
0.064933681251570105 1:-0.955307 2:-0.165775 3:-0.658537 4:-0.977528 5:-1 6:-1 7:-1 8:-1 9:-0.976834 10:-0.122995 11:-0.727811 12:-0.986014 13:-1 14:-1 15:-1 16:-1 17:-0.787709 18:-0.187879 19:-0.835821 20:-0.989474 21:-1 22:-1 23:-1 24:-1 25:-0.90625 26:-0.229508 27:-0.824561 28:-0.982759 29:-1 30:-1 31:-1 32:-1 33:-0.759494 34:-0.458515 35:-0.878788 36:-0.991667 37:-1 38:-1 39:-1 40:-1 41:-0.966667 42:-0.161616 43:-0.733333 44:-0.986014 45:-1 46:-1 47:-1 48:-1 49:-1 50:-1 51:-1 52:-0.97619 53:-0.511521 54:-0.848866 55:-0.986577 56:-1 57:-0.930233 58:-0.111111 59:-0.826087 60:-0.99115 61:-1 62:-1 63:-1 64:-1 65:-0.89404 66:-0.493976 67:-0.9 68:-1 69:-1 70:-1 71:-1 72:-1 73:-0.787709 74:-0.285714 75:-0.77305 76:-0.977273 77:-1 78:-1 79:-1 80:-1 81:-0.975155 82:0.103448 83:-0.471074 84:-0.978022 85:-1 86:-1 87:-1 88:-1 89:-0.907692 90:0.322314 91:-0.865385 92:-1 93:-1 94:-1 95:-1 96:-1 97:-0.991968 98:-0.0537634 99:-0.451852 100:-0.987879 101:-1 102:-1 103:-1 104:-1 105:-0.866667 106:-0.170213 107:-0.833333 108:-1 109:-1 110:-1 111:-1 112:-1 113:-0.989744 114:-0.0447761 115:-0.711712 116:-1 117:-1 118:-1 119:-1 120:-1 121:-0.651282 122:-0.421277 123:-0.97619 124:-1 125:-1 126:-1 127:-1 128:-1 129:-0.928205 130:0.123077 131:-0.949367 132:-1 133:-1 134:-1 135:-1 136:-1 137:-1 138:-1 139:-1 140:-0.983122 141:-0.868545 142:-0.689189 143:-0.963636 144:-0.987261 145:-0.948718 146:-0.426752 147:-0.941606 148:-1 149:-1 150:-1 151:-1 152:-1 
1.4379945792008653 1:-1 2:-0.165775 3:-0.402439 4:-1 5:-1 6:-1 7:-1 8:-1 9:-1 10:-0.00534759 11:-0.621302 12:-1 13:-1 14:-1 15:-1 16:-1 17:-0.72067 18:0.418182 19:-1 20:-1 21:-1 22:-1 23:-1 24:-1 25:-0.90625 26:0.254098 27:-0.976608 28:-1 29:-1 30:-1 31:-1 32:-1 33:-0.949367 34:0.135371 35:-0.787879 36:-0.975 37:-0.995485 38:-0.99187 39:-0.989189 40:-0.989796 41:-0.877778 42:0.282828 43:-0.878788 44:-0.986014 45:-1 46:-1 47:-1 48:-1 49:-0.921788 50:0.897436 51:-0.873171 52:-1 53:-1 54:-1 55:-1 56:-0.983607 57:-0.930233 58:0.323232 59:-0.874396 60:-0.99115 61:-1 62:-1 63:-1 64:-1 65:-0.92053 66:0.542169 67:-0.9 68:-0.995169 69:-1 70:-1 71:-1 72:-1 73:-0.72067 74:-0.047619 75:-0.801418 76:-0.931818 77:-0.991435 78:-0.994962 79:-0.964602 80:-0.951613 81:-0.57764 82:-0.137931 83:-0.834711 84:-0.912088 85:-0.995575 86:-0.985075 87:-0.966942 88:-0.990654 89:-0.251282 90:-0.719008 91:-0.980769 92:-1 93:-1 94:-1 95:-1 96:-0.994065 97:-0.815261 98:0.344086 99:-0.97037 100:-1 101:-1 102:-1 103:-1 104:-0.983607 105:-0.907692 106:0.382979 107:-0.863636 108:-1 109:-1 110:-1 111:-1 112:-0.970803 113:-0.907692 114:0.293532 115:-0.837838 116:-1 117:-1 118:-1 119:-1 120:-0.97619 121:-0.907692 122:0.106383 123:-0.892857 124:-1 125:-1 126:-1 127:-1 128:-0.965217 129:-0.907692 130:1 131:-0.886076 132:-1 133:-1 134:-1 135:-1 136:-0.974522 137:-0.907692 138:1 139:-0.886076 140:-1 141:-1 142:-1 143:-1 144:-0.974522 145:-0.907692 146:-0.171975 147:-0.868613 148:-1 149:-1 150:-1 151:-1 152:-0.971429 
8 1:-1 2:-1 3:-0.987805 4:-0.348315 5:-0.820225 6:-0.98374 7:-1 8:-1 9:-1 10:-1 11:-0.988166 12:-0.664336 13:-0.870968 14:-0.986667 15:-1 16:-1 17:-1 18:-1 19:-1 20:-0.947368 21:-0.381974 22:-0.954802 23:-1 24:-1 25:-1 26:-1 27:-0.777778 28:-0.103448 29:-0.966387 30:-1 31:-1 32:-1 33:-1 34:-0.991266 35:-0.954545 36:-0.791667 37:-0.945824 38:-0.99187 39:-1 40:-0.989796 41:-1 42:-1 43:-1 44:0.314685 45:-0.898305 46:-1 47:-1 48:-1 49:-1 50:-1 51:-1 52:-1 53:-0.677419 54:-0.929471 55:-0.973154 56:-0.983607 57:-1 58:-1 59:-0.990338 60:-0.460177 61:-0.734807 62:-0.981395 63:-1 64:-1 65:-1 66:-0.987952 67:-0.8375 68:-0.719807 69:-0.955801 70:-1 71:-1 72:-1 73:-1 74:-1 75:-1 76:-1 77:-0.927195 78:-0.889169 79:-0.893805 80:-0.919355 81:-1 82:-0.896552 83:-0.22314 84:-0.923077 85:-0.995575 86:-1 87:-1 88:-1 89:-1 90:-1 91:-1 92:-0.984 93:-0.762097 94:-0.894737 95:-0.980769 96:-1 97:-1 98:-0.817204 99:-0.422222 100:-0.963636 101:-1 102:-1 103:-1 104:-1 105:-1 106:-1 107:-1 108:-0.986395 109:-0.702128 110:-0.831461 111:-1 112:-1 113:-1 114:-1 115:-0.981982 116:-0.407407 117:-0.796178 118:-0.990476 119:-1 120:-1 121:-1 122:-0.991489 123:-0.785714 124:-0.478723 125:-0.945946 126:-1 127:-1 128:-1 129:-1 130:-1 131:-1 132:-1 133:-0.413043 134:-0.839662 135:-0.990196 136:-1 137:-1 138:-1 139:-0.974684 140:-0.50211 141:-0.934272 142:-0.986486 143:-1 144:-1 145:-0.948718 146:-0.993631 147:-0.985401 148:-0.979487 149:-0.977273 150:-0.974684 151:-0.977778 152:-0.942857 
1.0329874809798476 1:-1 2:-0.946524 3:0.243902 4:-0.988764 5:-1 6:-1 7:-1 8:-1 9:-1 10:-0.97861 11:-0.680473 12:-0.811189 13:-0.993548 14:-1 15:-1 16:-1 17:-1 18:-0.939394 19:0.447761 20:-0.989474 21:-1 22:-1 23:-1 24:-1 25:-1 26:-0.942623 27:0.192982 28:-1 29:-1 30:-1 31:-1 32:-1 33:-0.898734 34:-0.991266 35:-0.984848 36:-1 37:-0.990971 38:-0.99187 39:-0.956757 40:-0.897959 41:-1 42:-1 43:-1 44:-0.986014 45:-0.830508 46:-0.96129 47:-0.777778 48:-0.903226 49:-0.340782 50:-0.948718 51:-1 52:-1 53:-1 54:-1 55:-1 56:-0.918033 57:-1 58:-0.808081 59:-0.545894 60:-0.938053 61:-1 62:-1 63:-1 64:-1 65:-1 66:-1 67:-1 68:-0.990338 69:-0.701657 70:-0.968354 71:-0.955056 72:-0.9875 73:-0.988827 74:-1 75:-1 76:-0.943182 77:-0.914347 78:-0.984887 79:-0.946903 80:-0.951613 81:-0.975155 82:-1 83:-1 84:-0.912088 85:-0.933628 86:-0.940299 87:-0.950413 88:-0.971963 89:-0.979487 90:-0.801653 91:-0.692308 92:-0.925333 93:-0.991935 94:-1 95:-1 96:-1 97:-0.983936 98:-0.870968 99:-0.762963 100:-0.915152 101:-0.976744 102:-1 103:-1 104:-1 105:-0.979487 106:-0.87234 107:-0.757576 108:-0.809524 109:-0.990544 110:-1 111:-1 112:-1 113:-0.979487 114:-0.880597 115:-0.711712 116:-0.896296 117:-0.974522 118:-1 119:-1 120:-1 121:-0.979487 122:-0.897872 123:-0.809524 124:-0.851064 125:-0.972973 126:-1 127:-1 128:-1 129:-0.979487 130:-0.815385 131:-0.797468 132:-0.90604 133:-0.978261 134:-1 135:-1 136:-1 137:-0.979487 138:-0.815385 139:-0.797468 140:-0.881857 141:-0.981221 142:-1 143:-1 144:-1 145:-0.979487 146:-0.923567 147:-0.766423 148:-0.85641 149:-0.984848 150:-1 151:-1 152:-1 
1.0332259023833559 1:-1 2:-0.989305 3:-0.670732 4:-0.224719 5:-0.992509 6:-1 7:-1 8:-1 9:-0.976834 10:-0.101604 11:-0.609467 12:-0.972028 13:-1 14:-1 15:-1 16:-0.986486 17:-0.944134 18:-0.139394 19:-0.208955 20:-0.947368 21:-0.991416 22:-1 23:-1 24:-1 25:-0.864583 26:-0.434426 27:-0.426901 28:-0.931034 29:-1 30:-1 31:-1 32:-0.981308 33:-0.772152 34:-0.353712 35:-0.333333 36:-0.975 37:-1 38:-1 39:-1 40:-0.989796 41:-0.733333 42:-0.343434 43:-0.381818 44:-0.888112 45:-1 46:-1 47:-1 48:-0.967742 49:-0.653631 50:-0.371795 51:-0.473171 52:-0.880952 53:-1 54:-1 55:-1 56:-0.967213 57:-0.77907 58:-0.444444 59:-0.478261 60:-0.849558 61:-0.98895 62:-1 63:-1 64:-0.942857 65:-0.807947 66:-0.289157 67:-0.2875 68:-0.971014 69:-1 70:-0.993671 71:-1 72:-0.9875 73:-0.631285 74:-0.190476 75:-0.163121 76:-0.897727 77:-0.995717 78:-1 79:-1 80:-1 81:-0.714286 82:-0.091954 83:-0.256198 84:-0.934066 85:-1 86:-1 87:-0.966942 88:-1 89:-0.538462 90:0.107438 91:-0.269231 92:-0.978667 93:-1 94:-1 95:-0.990385 96:-0.994065 97:-0.638554 98:-0.27957 99:-0.437037 100:-0.975758 101:-1 102:-1 103:-0.989362 104:-0.983607 105:-0.538462 106:-0.287234 107:-0.424242 108:-0.945578 109:-1 110:-1 111:-0.976744 112:-0.985401 113:-0.538462 114:-0.333333 115:-0.315315 116:-0.97037 117:-1 118:-1 119:-0.982759 120:-0.988095 121:-0.538462 122:-0.429787 123:-0.547619 124:-0.957447 125:-1 126:-1 127:-0.989848 128:-0.982609 129:-0.538462 130:0.0307692 131:-0.518987 132:-0.973154 133:-1 134:-1 135:-0.990196 136:-0.987261 137:-0.538462 138:0.0307692 139:-0.518987 140:-0.966245 141:-1 142:-1 143:-0.987879 144:-0.987261 145:-0.538462 146:-0.573248 147:-0.445255 148:-0.958974 149:-1 150:-1 151:-0.988889 152:-0.985714 
8 1:-0.988827 2:-0.97861 3:-0.878049 4:-0.707865 5:-0.992509 6:-1 7:-1 8:-1 9:-0.984556 10:-0.989305 11:-0.988166 12:-0.993007 13:-0.987097 14:-0.986667 15:-0.970874 16:-0.932432 17:-0.988827 18:-1 19:-0.985075 20:-0.978947 21:-0.982833 22:-0.966102 23:-0.788732 24:-0.825243 25:-1 26:-1 27:-0.988304 28:-0.965517 29:-0.983193 30:-0.980815 31:-0.913462 32:-0.869159 33:-0.974684 34:-1 35:-0.984848 36:-0.991667 37:-0.995485 38:-0.97561 39:-0.837838 40:-0.897959 41:-0.977778 42:-0.989899 43:-0.987879 44:-0.958042 45:-0.966102 46:-0.991398 47:-0.728395 48:-0.822581 49:-0.988827 50:-0.987179 51:-0.990244 52:-0.964286 53:-0.981567 54:-0.984887 55:-0.892617 56:-0.770492 57:-0.988372 58:-1 59:-0.990338 60:-0.964602 61:-0.955801 62:-0.953488 63:-0.827338 64:-0.771429 65:-1 66:-1 67:-0.9875 68:-0.971014 69:-0.955801 70:-0.968354 71:-0.88764 72:-0.925 73:-0.988827 74:-1 75:-1 76:-1 77:-1 78:-0.989924 79:-0.39823 80:-0.790323 81:-1 82:-1 83:-1 84:-1 85:-1 86:-0.955224 87:-0.355372 88:-0.897196 89:-1 90:-1 91:-1 92:-1 93:-0.979839 94:-0.789474 95:-0.778846 96:-0.928783 97:-0.654618 98:-0.892473 99:-0.985185 100:-1 101:-1 102:-1 103:-1 104:-0.95082 105:-1 106:-1 107:-1 108:-1 109:-0.995272 110:-0.966292 111:-0.0232558 112:-0.883212 113:-1 114:-1 115:-1 116:-1 117:-1 118:-0.990476 119:-0.258621 120:-0.904762 121:-0.958974 122:-0.982979 123:-0.97619 124:-0.957447 125:-0.959459 126:-0.988024 127:-0.979695 128:-0.947826 129:-1 130:-1 131:-1 132:-1 133:-1 134:-0.983122 135:-0.588235 136:-0.859873 137:-0.989744 138:-1 139:-1 140:-1 141:-1 142:-0.945946 143:-0.587879 144:-0.847134 145:-0.989744 146:-1 147:-1 148:-1 149:-1 150:-0.987342 151:-0.533333 152:-0.8 
1.99519010993587 1:-1 2:-1 3:-1 4:-1 5:-0.962547 6:-0.560976 7:-0.436782 8:-0.956522 9:-0.992278 10:-1 11:-1 12:-1 13:-0.993548 14:-0.84 15:-0.0194175 16:-0.783784 17:-0.988827 18:-1 19:-1 20:-1 21:-1 22:-0.954802 23:-0.084507 24:-0.524272 25:-1 26:-1 27:-1 28:-1 29:-0.991597 30:-0.904077 31:-0.144231 32:-0.962617 33:-1 34:-1 35:-1 36:-1 37:-0.995485 38:-0.747967 39:-0.156757 40:-0.979592 41:-1 42:-1 43:-1 44:-1 45:-1 46:-0.909677 47:1 48:-0.951613 49:-0.977654 50:-0.974359 51:-0.912195 52:-0.630952 53:-0.990783 54:-1 55:-1 56:-1 57:-1 58:-1 59:-1 60:-1 61:-0.977901 62:-0.739535 63:0.309353 64:-0.914286 65:-1 66:-1 67:-1 68:-1 69:-0.98895 70:-0.886076 71:-0.393258 72:-0.8875 73:-1 74:-1 75:-1 76:-1 77:-0.991435 78:-0.853904 79:0.557522 80:-0.983871 81:-0.950311 82:-1 83:-1 84:-1 85:-1 86:-0.985075 87:-0.752066 88:-0.149533 89:-1 90:-1 91:-1 92:-1 93:-0.995968 94:-0.637427 95:-0.423077 96:-0.964392 97:-1 98:-1 99:-1 100:-1 101:-1 102:-0.84507 103:-0.180851 104:-0.885246 105:-0.958974 106:-1 107:-1 108:-1 109:-0.995272 110:-0.898876 111:0.0697674 112:-0.459854 113:-0.794872 114:-0.99005 115:-1 116:-1 117:-0.987261 118:-0.961905 119:-0.913793 120:-0.440476 121:-1 122:-1 123:-1 124:-1 125:-0.878378 126:-0.712575 127:-0.492386 128:-0.982609 129:-1 130:-1 131:-1 132:-1 133:-0.978261 134:-0.679325 135:-0.294118 136:-0.974522 137:-0.938462 138:-0.984615 139:-0.987342 140:-0.991561 141:-0.953052 142:-0.972973 143:-0.963636 144:-0.872611 145:-0.979487 146:-0.993631 147:-1 148:-1 149:-1 150:-0.974684 151:-0.388889 152:-0.114286 
1.9604563082424573 1:-0.988827 2:-1 3:-0.987805 4:-0.94382 5:-0.970037 6:-0.902439 7:-0.83908 8:-0.93913 9:-1 10:-1 11:-0.988166 12:-0.965035 13:-0.967742 14:-0.906667 15:-0.873786 16:-0.945946 17:-0.620112 18:-0.878788 19:-0.865672 20:-0.978947 21:-1 22:-1 23:-1 24:-0.990291 25:-0.947917 26:-0.983607 27:-0.976608 28:-0.931034 29:-0.983193 30:-0.995204 31:-0.980769 32:-0.962617 33:-0.949367 34:-0.991266 35:-0.984848 36:-0.966667 37:-0.990971 38:-0.98374 39:-0.967568 40:-0.94898 41:-0.933333 42:-0.989899 43:-0.975758 44:-0.958042 45:-0.988701 46:-0.995699 47:-0.901235 48:-0.903226 49:-0.96648 50:-0.948718 51:-0.892683 52:-0.738095 53:-0.97235 54:-1 55:-1 56:-1 57:-0.918605 58:-0.989899 59:-0.980676 60:-0.982301 61:-0.98895 62:-0.990698 63:-0.956835 64:-0.885714 65:-0.874172 66:-0.963855 67:-0.9875 68:-0.990338 69:-0.966851 70:-0.993671 71:-0.988764 72:-0.8125 73:-0.910615 74:-0.97619 75:-1 76:-1 77:-0.995717 78:-0.994962 79:-0.946903 80:-0.5 81:-0.975155 82:-1 83:-0.983471 84:-1 85:-0.99115 86:-0.985075 87:-0.933884 88:-0.635514 89:-0.989744 90:-1 91:-1 92:-1 93:-0.987903 94:-0.976608 95:-0.865385 96:-0.721068 97:-0.967871 98:-0.978495 99:-0.985185 100:-0.969697 101:-0.976744 102:-0.978873 103:-0.893617 104:-0.885246 105:-0.989744 106:-0.968085 107:-0.954545 108:-0.931973 109:-0.981087 110:-0.88764 111:-0.790698 112:-0.970803 113:-0.825641 114:-1 115:-1 116:-1 117:-0.987261 118:-0.990476 119:-0.706897 120:-0.702381 121:-0.74359 122:-0.855319 123:-0.928571 124:-1 125:-1 126:-0.988024 127:-0.959391 128:-0.878261 129:-0.866667 130:-0.8 131:-0.987342 132:-1 133:-0.98913 134:-0.991561 135:-0.901961 136:-0.834395 137:-0.887179 138:-0.984615 139:-1 140:-1 141:-0.99061 142:-0.986486 143:-0.745455 144:-0.656051 145:-0.989744 146:-0.974522 147:-0.839416 148:-0.969231 149:-0.901515 150:-0.898734 151:-0.977778 152:-0.971429 
6.4186771311553921 1:-1 2:-0.925134 3:0.353659 4:-0.988764 5:-1 6:-1 7:-1 8:-1 9:-0.992278 10:-0.540107 11:-0.443787 12:-1 13:-1 14:-1 15:-1 16:-1 17:-0.96648 18:-0.745455 19:-0.477612 20:-0.978947 21:-1 22:-1 23:-1 24:-0.970874 25:-0.989583 26:-1 27:-1 28:-1 29:-0.991597 30:-0.971223 31:-0.855769 32:-0.813084 33:-0.974684 34:-1 35:-1 36:-1 37:-0.995485 38:-0.97561 39:-0.816216 40:-0.806122 41:-0.411111 42:-0.989899 43:-1 44:-1 45:-1 46:-1 47:-1 48:-0.758065 49:-0.977654 50:-1 51:-1 52:-1 53:-0.97235 54:-0.974811 55:-0.825503 56:-0.704918 57:0.244186 58:-0.949495 59:-1 60:-1 61:-1 62:-1 63:-1 64:-0.971429 65:-0.94702 66:-0.903614 67:-0.8 68:-0.985507 69:-0.98895 70:-0.993671 71:-1 72:-0.9625 73:-0.96648 74:-1 75:-1 76:-1 77:-0.995717 78:-0.984887 79:-0.840708 80:-0.612903 81:-0.962733 82:-0.988506 83:-0.983471 84:-1 85:-0.995575 86:-0.970149 87:-0.900826 88:-0.71028 89:-0.989744 90:-0.157025 91:0.0769231 92:-1 93:-1 94:-1 95:-1 96:-1 97:-0.943775 98:-0.989247 99:-0.985185 100:-1 101:-1 102:-0.992958 103:-0.946809 104:-0.393443 105:-0.897436 106:-0.617021 107:-0.80303 108:-0.945578 109:-1 110:-1 111:-1 112:-0.985401 113:-0.774359 114:-0.880597 115:-0.963964 116:-0.992593 117:-1 118:-1 119:-0.982759 120:-0.97619 121:-0.682051 122:-0.957447 123:-0.97619 124:-1 125:-1 126:-1 127:-0.989848 128:-0.895652 129:-0.989744 130:-1 131:-0.987342 132:-0.986577 133:-0.923913 134:-0.915612 135:-0.911765 136:-0.910828 137:-0.948718 138:-0.723077 139:-0.227848 140:-0.957806 141:-0.99061 142:-0.986486 143:-1 144:-1 145:-0.989744 146:-1 147:-1 148:-1 149:-0.969697 150:-0.848101 151:-0.822222 152:-0.642857 
2.9371361772341507 1:-1 2:-1 3:-0.987805 4:-1 5:-1 6:-0.95122 7:0.37931 8:-0.982609 9:-1 10:-1 11:-1 12:-0.993007 13:-0.96129 14:-0.906667 15:-0.776699 16:-0.77027 17:-0.988827 18:-1 19:-1 20:-1 21:-1 22:-0.774011 23:-0.028169 24:-0.970874 25:-0.989583 26:-1 27:-1 28:-1 29:-1 30:-0.93765 31:-0.211538 32:-0.943925 33:-1 34:-1 35:-1 36:-1 37:-0.995485 38:-0.520325 39:-0.394595 40:-0.989796 41:-0.977778 42:-0.989899 43:-0.975758 44:-0.706294 45:-0.875706 46:-0.991398 47:-0.82716 48:-0.967742 49:-1 50:-1 51:-1 52:-1 53:-0.990783 54:-0.788413 55:0.0872483 56:-0.95082 57:-0.988372 58:-1 59:-1 60:-1 61:-0.834254 62:-0.860465 63:-0.510791 64:-0.857143 65:-1 66:-0.987952 67:-0.9875 68:-0.990338 69:-0.922652 70:-0.816456 71:-0.606742 72:-0.9875 73:-1 74:-1 75:-1 76:-0.988636 77:-0.987152 78:-0.843829 79:-0.185841 80:-0.983871 81:-0.987578 82:-0.988506 83:-1 84:-0.978022 85:-0.99115 86:-0.910448 87:-0.719008 88:-0.831776 89:-1 90:-1 91:-1 92:-0.994667 93:-0.991935 94:-0.824561 95:-0.144231 96:-0.982196 97:-1 98:-0.989247 99:-0.985185 100:-1 101:-0.918605 102:-0.84507 103:-0.734043 104:-0.934426 105:-1 106:-1 107:-1 108:-1 109:-0.966903 110:-0.696629 111:0.953488 112:-0.927007 113:-1 114:-0.99005 115:-1 116:-0.992593 117:-0.88535 118:-0.733333 119:-0.689655 120:-0.97619 121:-1 122:-1 123:-1 124:-1 125:-0.945946 126:-0.377246 127:-0.431472 128:-0.982609 129:-1 130:-1 131:-1 132:-1 133:-0.945652 134:-0.544304 135:-0.480392 136:-0.961783 137:-1 138:-1 139:-1 140:-0.991561 141:-0.981221 142:-0.243243 143:-0.163636 144:-0.974522 145:-1 146:-1 147:-0.970803 148:-0.989744 149:-0.977273 150:-0.78481 151:-0.711111 152:-0.9 
0.60938155246679182 1:-1 2:-0.946524 3:0.256098 4:-0.94382 5:-1 6:-1 7:-1 8:-1 9:-1 10:-1 11:-1 12:-1 13:-1 14:-0.96 15:-0.495146 16:-0.864865 17:-1 18:-0.975758 19:0.492537 20:-0.926316 21:-1 22:-1 23:-1 24:-1 25:-1 26:-1 27:-0.988304 28:-0.913793 29:-0.848739 30:-0.928058 31:-0.894231 32:-0.990654 33:-1 34:-1 35:-1 36:-1 37:-0.990971 38:-0.861789 39:-0.556757 40:-0.94898 41:-1 42:-1 43:-1 44:-0.986014 45:-0.909605 46:-0.888172 47:-0.308642 48:-0.983871 49:-0.932961 50:-0.333333 51:-0.707317 52:-1 53:-1 54:-1 55:-1 56:-0.983607 57:-0.965116 58:-0.989899 59:-1 60:-0.99115 61:-0.977901 62:-0.953488 63:-0.784173 64:-0.485714 65:-0.94702 66:-0.638554 67:-0.5 68:-0.990338 69:-1 70:-1 71:-1 72:-0.9625 73:-0.96648 74:-0.607143 75:-0.148936 76:-0.965909 77:-1 78:-1 79:-1 80:-1 81:-1 82:-0.977011 83:-0.471074 84:-0.813187 85:-0.99115 86:-0.970149 87:-0.933884 88:-0.990654 89:-0.979487 90:-0.553719 91:0.403846 92:-0.989333 93:-0.995968 94:-1 95:-1 96:-1 97:-0.951807 98:-0.236559 99:-0.422222 100:-0.993939 101:-0.988372 102:-1 103:-1 104:-1 105:-0.887179 106:-0.457447 107:-0.666667 108:-0.972789 109:-1 110:-0.988764 111:-0.976744 112:-0.970803 113:-0.682051 114:-0.701493 115:-0.855856 116:-0.977778 117:-0.987261 118:-1 119:-0.913793 120:-0.964286 121:-0.989744 122:-0.676596 123:-0.130952 124:-0.904255 125:-0.986486 126:-1 127:-1 128:-1 129:-0.917949 130:0.215385 131:-0.518987 132:-0.986577 133:-0.98913 134:-1 135:-1 136:-1 137:-0.610256 138:-0.446154 139:-0.759494 140:-0.983122 141:-0.99061 142:-0.972973 143:-0.987879 144:-0.961783 145:-0.969231 146:-0.974522 147:-0.649635 148:-0.517949 149:-0.984848 150:-1 151:-1 152:-1 
8 1:-0.96648 2:-0.989305 3:-0.987805 4:-0.966292 5:-0.925094 6:-0.96748 7:-0.942529 8:-0.982609 9:-0.714286 10:-0.850267 11:-0.964497 12:-0.993007 13:-1 14:-1 15:-1 16:-0.986486 17:-0.944134 18:-0.69697 19:-0.791045 20:-0.989474 21:-1 22:-1 23:-1 24:-0.990291 25:-0.96875 26:-0.991803 27:-0.988304 28:-0.931034 29:-0.932773 30:-0.985612 31:-0.990385 32:-0.971963 33:-0.987342 34:-1 35:-1 36:-1 37:-1 38:-0.918699 39:-0.610811 40:-0.918367 41:-0.577778 42:-0.868687 43:-0.963636 44:-1 45:-1 46:-1 47:-1 48:-0.967742 49:-0.564246 50:-0.807692 51:-0.980488 52:-1 53:-1 54:-1 55:-0.986577 56:-0.983607 57:-0.965116 58:-0.989899 59:-0.990338 60:-0.982301 61:-0.922652 62:-0.981395 63:-0.956835 64:-0.914286 65:-0.980132 66:-0.975904 67:-0.9875 68:-0.985507 69:-0.922652 70:-0.987342 71:-0.988764 72:-0.9625 73:-0.810056 74:-0.821429 75:-0.914894 76:-0.977273 77:-1 78:-1 79:-1 80:-0.951613 81:-0.0559006 82:-0.643678 83:-0.917355 84:-1 85:-1 86:-1 87:-1 88:-0.981308 89:-0.989744 90:-1 91:-1 92:-1 93:-0.927419 94:-0.883041 95:-0.923077 96:-0.946588 97:-0.935743 98:-0.989247 99:-0.97037 100:-0.945455 101:-0.953488 102:-0.985915 103:-0.851064 104:-0.770492 105:-0.938462 106:-0.861702 107:-0.681818 108:-0.823129 109:-0.995272 110:-0.988764 111:-1 112:-0.89781 113:-0.938462 114:-0.870647 115:-0.621622 116:-0.903704 117:-0.987261 118:-0.990476 119:-1 120:-0.916667 121:-0.938462 122:-0.889362 123:-0.75 124:-0.861702 125:-0.986486 126:-0.988024 127:-1 128:-0.878261 129:-0.938462 130:-0.8 131:-0.734177 132:-0.912752 133:-0.98913 134:-0.991561 135:-1 136:-0.910828 137:-0.938462 138:-0.8 139:-0.734177 140:-0.890295 141:-0.99061 142:-0.986486 143:-1 144:-0.910828 145:-0.938462 146:-0.917197 147:-0.693431 148:-0.866667 149:-0.992424 150:-0.987342 151:-1 152:-0.9 
8 1:-0.597765 2:-0.807487 3:-0.97561 4:-1 5:-1 6:-1 7:-1 8:-0.991304 9:-0.528958 10:-1 11:-1 12:-1 13:-1 14:-1 15:-1 16:-0.77027 17:-0.608939 18:-0.781818 19:-0.985075 20:-1 21:-1 22:-1 23:-1 24:-0.980583 25:-0.614583 26:-0.803279 27:-0.976608 28:-1 29:-1 30:-1 31:-1 32:-1 33:-0.974684 34:-0.484716 35:-0.681818 36:-0.991667 37:-1 38:-1 39:-1 40:-1 41:-0.688889 42:-0.848485 43:-0.987879 44:-1 45:-1 46:-1 47:-0.975309 48:-0.467742 49:-0.608939 50:-0.705128 51:-0.980488 52:-1 53:-1 54:-1 55:-1 56:-0.967213 57:-0.55814 58:-0.828283 59:-0.990338 60:-0.99115 61:-1 62:-1 63:-1 64:-0.971429 65:-0.781457 66:-0.807229 67:-0.975 68:-0.995169 69:-1 70:-1 71:-1 72:-0.975 73:-0.553073 74:-0.869048 75:-0.985816 76:-0.988636 77:-1 78:-1 79:-1 80:-0.967742 81:-0.975155 82:-0.988506 83:-0.983471 84:-0.967033 85:-0.969027 86:-0.940299 87:-0.950413 88:-0.971963 89:-0.661538 90:-0.801653 91:-0.942308 92:-0.994667 93:-1 94:-1 95:-1 96:-0.988131 97:-0.991968 98:-0.989247 99:-0.985185 100:-0.981818 101:-0.918605 102:-0.978873 103:-0.957447 104:-0.967213 105:-0.651282 106:-0.840426 107:-0.954545 108:-0.986395 109:-1 110:-1 111:-1 112:-0.985401 113:-0.610256 114:-0.781095 115:-0.945946 116:-1 117:-1 118:-1 119:-1 120:-0.821429 121:-0.661538 122:-0.846809 123:-0.988095 124:-0.989362 125:-1 126:-1 127:-1 128:-0.965217 129:-0.989744 131:-0.78481 132:-1 133:-1 134:-1 135:-1 136:-0.987261 137:-0.682051 138:-0.661538 139:-0.962025 140:-0.991561 141:-1 142:-1 143:-1 144:-0.974522 145:-0.641026 146:-0.866242 147:-0.956204 148:-0.989744 149:-1 150:-1 151:-1 152:-0.985714 
0.69131168485698846 1:-1 2:-1 3:-1 4:-0.988764 5:-0.168539 6:-0.98374 7:-1 8:-1 9:-1 10:-1 11:-1 12:-0.86014 13:-0.529032 14:-0.986667 15:-0.990291 16:-1 17:-1 18:-1 19:-1 20:-1 21:-0.330472 22:-0.751412 23:-0.985915 24:-1 25:-1 26:-1 27:-1 28:-1 29:-0.310924 30:-0.908873 31:-0.990385 32:-1 33:-1 34:-1 35:-1 36:-0.991667 37:-0.629797 38:-0.829268 39:-0.989189 40:-1 41:-1 42:-1 43:-1 44:-0.986014 45:0.220339 46:-0.995699 47:-1 48:-1 49:-1 50:-0.974359 51:-0.795122 52:-0.404762 53:-0.981567 54:-1 55:-1 56:-1 57:-1 58:-1 59:-0.990338 61:-0.944751 62:-1 63:-1 64:-1 65:-1 66:-1 67:-1 68:-0.995169 69:-0.0607735 70:-0.867089 71:-1 72:-1 73:-1 74:-0.952381 75:0.234043 76:-0.977273 77:-0.995717 78:-1 79:-1 80:-1 81:-1 82:-1 83:-1 84:-0.989011 85:-0.690265 86:-0.791045 87:-0.983471 88:-1 89:-1 90:-1 91:-0.980769 92:-0.408 93:-0.96371 94:-1 95:-1 96:-1 97:-1 98:-1 99:-0.985185 100:-0.30303 101:-0.883721 102:-1 103:-1 104:-1 105:-1 106:-1 107:-0.984848 108:0.360544 109:-0.943262 110:-0.988764 111:-1 112:-1 113:-1 114:-1 115:-1 116:-0.985185 117:-0.0700637 118:-0.942857 119:-1 120:-1 121:-1 122:-1 123:-0.988095 124:0.159574 125:-0.878378 126:-0.988024 127:-1 128:-1 129:-1 130:-1 131:-1 132:-0.986577 133:0.282609 134:-0.983122 135:-1 136:-1 137:-1 138:-1 139:-0.987342 140:-0.594937 141:-0.43662 142:-0.986486 143:-1 144:-1 145:-1 146:-1 147:-1 148:-0.979487 149:-0.0606061 150:-0.987342 151:-1 152:-1 
0.16359706640475274 1:-0.944134 2:-1 3:-0.97561 4:-0.955056 5:-0.962547 6:-0.98374 7:-0.988506 8:-0.982609 9:-0.976834 10:-0.989305 11:-0.976331 12:-0.979021 13:-0.980645 14:-0.986667 15:-0.980583 16:-0.945946 17:-1 18:-1 19:-1 20:-1 21:-1 22:-0.988701 23:-0.183099 24:-0.728155 25:-0.979167 26:-0.991803 27:-0.964912 28:-0.87931 29:-0.966387 30:-0.995204 31:-0.990385 32:-0.990654 33:-1 34:-1 35:-1 36:-1 37:-1 38:-0.626016 39:-0.686486 40:-1 41:-0.988889 42:-1 43:-1 44:-1 45:-0.988701 46:-0.965591 47:-0.308642 48:-0.854839 49:-1 50:-1 51:-1 52:-1 53:-0.990783 54:-0.768262 55:-0.637584 56:-1 57:-0.988372 58:-0.989899 59:-0.971014 60:-0.893805 61:-0.955801 62:-0.990698 63:-0.985612 64:-0.971429 65:-0.357616 66:-0.939759 67:-1 68:-1 69:-1 70:-1 71:-1 72:-0.9875 73:-0.988827 74:-0.809524 75:-0.489362 76:-0.920455 77:-1 78:-1 79:-1 80:-1 81:-0.987578 82:-1 83:-1 84:-0.989011 85:-0.986726 86:-0.910448 87:-0.68595 88:-0.88785 89:-0.989744 90:-1 91:-1 92:-0.994667 93:-0.975806 94:-0.894737 95:-0.875 96:-0.928783 97:-0.863454 98:-0.688172 99:-0.925926 100:-1 101:-1 102:-1 103:-1 104:-0.983607 105:-0.897436 106:-0.87234 107:-0.893939 108:-0.986395 109:-1 110:-1 111:-0.953488 112:-0.941606 113:-0.989744 114:-1 115:-1 116:-1 117:-1 118:-0.980952 119:-0.0862069 120:-0.511905 121:-0.979487 122:-0.991489 123:-1 124:-1 125:-1 126:-0.952096 127:-0.756345 128:-0.530435 129:-0.815385 130:-0.984615 131:-1 132:-1 133:-0.98913 134:-0.991561 135:-0.960784 136:-0.566879 137:-1 138:-1 139:-1 140:-0.983122 141:-0.934272 142:-0.891892 143:-0.842424 144:-0.961783 145:-0.979487 146:-0.993631 147:-0.985401 148:-0.989744 149:-0.939394 150:-0.924051 151:-0.9 152:-0.785714 
8 1:-0.96648 2:-0.42246 3:-0.841463 4:-0.977528 5:-1 6:-1 7:-1 8:-1 9:-0.830116 10:-0.743316 11:-0.91716 12:-0.979021 13:-1 14:-1 15:-0.990291 16:-0.986486 17:-0.944134 18:-0.975758 19:-0.985075 20:-1 21:-1 22:-0.977401 23:-0.732394 24:-0.524272 25:-0.947917 26:-0.991803 27:-0.988304 28:-1 29:-0.991597 30:-0.995204 31:-0.894231 32:-0.64486 33:-0.64557 34:-0.947598 35:-0.984848 36:-0.991667 37:-1 38:-1 39:-0.837838 40:-0.846939 41:-0.966667 42:-0.979798 43:-0.927273 44:-0.916084 45:-0.954802 46:-0.991398 47:-0.950617 48:-0.935484 49:-0.854749 50:-0.935897 51:-0.980488 52:-0.964286 53:-0.981567 54:-0.959698 55:-0.90604 56:-0.836066 57:-0.976744 58:-0.989899 59:-1 60:-1 61:-1 62:-0.972093 63:-0.553957 64:-0.114286 65:-0.953642 66:-0.963855 67:-0.975 68:-1 69:-0.966851 70:-0.987342 71:-0.921348 72:-0.6625 73:-0.977654 74:-0.988095 75:-1 76:-1 77:-0.995717 78:-0.984887 79:-0.539823 80:-0.322581 81:-0.913043 82:-0.91954 83:-0.983471 84:-1 85:-0.99115 86:-0.985075 87:-0.933884 88:-0.785047 89:-1 90:-1 91:-1 92:-0.989333 93:-0.935484 94:-0.0292398 95:-0.932692 96:-1 97:-0.967871 98:-0.967742 99:-1 100:-0.993939 101:-0.976744 102:-0.985915 103:-0.93617 104:-0.459016 105:-0.969231 106:-0.978723 107:-1 108:-1 109:-1 110:-1 111:-0.697674 112:-0.255474 113:-0.969231 114:-0.9801 115:-1 116:-1 117:-1 118:-1 119:-0.775862 120:-0.392857 121:-0.969231 122:-0.982979 123:-1 124:-1 125:-1 126:-1 127:-0.86802 128:-0.113043 129:-0.969231 130:-0.969231 131:-1 132:-1 133:-1 134:-1 135:-0.872549 136:-0.350318 137:-0.969231 138:-0.969231 139:-1 140:-1 141:-1 142:-1 143:-0.842424 144:-0.350318 145:-0.969231 146:-0.987261 147:-1 148:-1 149:-1 150:-1 151:-0.855556 152:-0.271429 
7.0920437404203174 1:-0.541899 2:-0.957219 3:-0.987805 4:-0.977528 5:-1 6:-1 7:-0.988506 8:-0.93913 9:-0.791506 10:-0.97861 11:-0.988166 12:-0.979021 13:-1 14:-0.986667 15:-0.941748 16:-0.797297 17:-1 18:-1 19:-1 20:-1 21:-0.948498 22:-0.819209 23:-0.408451 24:-0.970874 25:-0.833333 26:-1 27:-1 28:-1 29:-1 30:-0.980815 31:-0.826923 32:-0.542056 33:-0.822785 34:-1 35:-1 36:-1 37:-1 38:-0.98374 39:-0.794595 40:-0.479592 41:-0.922222 42:-1 43:-1 44:-1 45:-0.988701 46:-0.969892 47:0.283951 48:-0.612903 49:-1 50:-1 51:-1 52:-1 53:-0.97235 54:-0.899244 55:-0.463087 56:-0.885246 57:-0.976744 58:-1 59:-1 60:-1 61:-0.98895 62:-0.953488 63:-0.81295 64:0.228571 65:-0.933775 66:-0.987952 67:-1 68:-0.995169 69:-0.977901 70:-0.993671 71:-0.898876 72:-0.2125 73:-0.553073 74:-0.988095 75:-1 76:-0.988636 77:-1 78:-1 79:-0.982301 80:-0.225806 81:-0.751553 82:-0.988506 83:-1 84:-0.978022 85:-0.995575 86:-0.985075 87:-0.900826 88:-0.53271 89:-1 90:-1 91:-1 92:-1 93:-0.975806 94:-0.812865 95:-0.567308 96:-0.964392 97:-1 98:-1 99:-1 100:-0.993939 101:-0.837209 102:-0.929577 103:-0.829787 104:-0.901639 105:-0.610256 106:-0.989362 107:-1 108:-0.986395 109:-1 110:-1 111:-0.930233 112:-0.40146 113:-1 114:-1 115:-1 116:-0.992593 117:-0.808917 118:-0.866667 119:-0.586207 120:-0.952381 121:-0.979487 122:-0.991489 123:-0.988095 124:-0.957447 125:-0.959459 126:-0.976048 127:-0.685279 128:-0.895652 129:-0.979487 130:-0.984615 131:-0.987342 132:-0.973154 133:-0.967391 134:-0.983122 135:-0.696078 136:-0.923567 137:-0.979487 138:-0.984615 139:-0.987342 140:-0.966245 141:-0.971831 142:-0.972973 143:-0.624242 144:-0.923567 145:-0.979487 146:-0.993631 147:-0.985401 148:-0.958974 149:-0.977273 150:-0.974684 151:-0.655556 152:-0.914286 
0.53709816664715693 1:-0.988827 2:-1 3:-1 4:-1 5:-0.955056 6:-0.219512 7:-0.758621 8:-0.991304 9:-0.992278 10:-1 11:-1 12:-1 13:-0.967742 14:-0.773333 15:-0.621359 16:-0.959459 17:-1 18:-1 19:-1 20:-1 21:-0.922747 22:-0.649718 23:-0.56338 24:-0.970874 25:-1 26:-1 27:-1 28:-1 29:-0.848739 30:-0.894484 31:-0.682692 32:-0.981308 33:-1 34:-1 35:-1 36:-0.991667 37:-0.927765 38:-0.617886 39:-0.891892 40:-1 41:-1 42:-1 43:-1 44:-1 45:-0.988701 46:-0.883871 47:-0.0864198 48:-0.983871 49:-0.877095 50:-0.576923 51:-0.960976 52:-1 53:-1 54:-1 55:-1 56:-1 57:-1 58:-1 59:-1 60:-0.99115 61:-0.458564 62:-0.823256 63:-0.971223 64:-1 65:-1 66:-1 67:-1 68:-1 69:-0.98895 70:-0.879747 71:-0.617978 72:-0.975 73:-1 74:-1 75:-1 76:-1 77:-0.995717 78:-0.838791 79:-0.469027 80:-0.967742 81:-1 82:-1 83:-1 84:-1 85:-0.995575 86:-0.656716 87:-0.322314 88:-0.981308 89:-1 90:-1 91:-1 92:-1 93:-0.995968 94:-0.684211 95:-0.663462 96:-0.988131 97:-1 98:-1 99:-1 100:-1 101:-0.976744 102:-0.838028 103:-0.617021 104:-0.983607 105:-1 106:-1 107:-0.969697 108:-0.986395 109:-0.919622 110:-0.842697 111:-0.906977 112:-1 113:-1 114:-1 115:-1 116:-1 117:-0.936306 118:-0.666667 119:-0.603448 120:-0.988095 121:-1 122:-1 123:-1 124:-1 125:-0.986486 126:-0.676647 127:-0.573604 128:-0.965217 129:-0.989744 130:-1 131:-1 132:-1 133:-1 134:-0.966245 135:-0.813725 136:-0.719745 137:-0.938462 138:-0.938462 139:-0.949367 140:-0.974684 141:-0.99061 142:-0.986486 143:-0.987879 144:-0.936306 145:-1 146:-1 147:-1 148:-1 149:-0.962121 150:-0.632911 151:-0.766667 152:-0.957143 
1.3650381265394282 1:-1 2:-1 3:-1 4:-1 5:-0.565543 6:-0.756098 7:-0.988506 8:-0.991304 9:-1 10:-1 11:-1 12:-1 13:-0.858065 14:-0.106667 15:-0.902913 16:-0.972973 17:-1 18:-1 19:-1 20:-0.978947 21:-0.596567 22:-0.819209 23:-0.929577 24:-0.893204 25:-1 26:-1 27:-1 28:-1 29:-0.638655 30:-0.841727 31:-0.846154 32:-1 33:-1 34:-1 35:-1 36:-0.991667 37:-0.878104 38:-0.894309 39:-0.945946 40:-0.959184 41:-1 42:-1 43:-1 44:-1 45:-0.152542 46:-0.858065 47:-0.802469 48:-1 49:-0.932961 50:-0.987179 51:-0.980488 52:-0.642857 53:-0.815668 54:-1 55:-1 56:-0.983607 57:-0.895349 58:-1 59:-0.990338 60:-0.787611 61:-0.425414 62:-1 63:-1 64:-0.971429 65:-1 66:-1 67:-1 68:-0.995169 69:0.160221 70:-0.981013 71:-0.977528 72:-0.925 73:-1 74:-1 75:-1 76:-0.988636 77:-0.550321 78:-0.984887 79:-0.964602 80:-0.903226 81:-1 82:-1 83:-1 84:-0.989011 85:-0.535398 86:-0.955224 87:-0.966942 88:-0.943925 89:-1 90:-1 91:-1 92:-0.994667 93:-0.576613 94:-0.964912 95:-0.980769 96:-0.964392 97:-1 98:-1 99:-1 100:-0.993939 101:0.22093 102:-0.978873 103:-0.978723 104:-0.901639 105:-1 106:-1 107:-1 108:-0.986395 109:-0.503546 110:-0.966292 111:-0.953488 112:-0.912409 113:-1 114:-1 115:-1 116:-0.992593 117:0.33758 118:-0.971429 119:-0.965517 120:-0.928571 121:-1 122:-1 123:-1 124:-0.989362 125:0.418919 126:-0.964072 127:-0.979695 128:-0.895652 129:-1 130:-1 131:-1 132:-0.993289 133:0.141304 134:-0.974684 135:-0.980392 136:-0.923567 137:-1 138:-1 139:-1 140:-0.991561 141:-0.0140845 142:-0.959459 143:-0.975758 144:-0.923567 145:-1 146:-1 147:-1 148:-0.989744 149:-0.204545 150:-0.962025 151:-0.977778 152:-0.914286 
1.8422758449797954 1:-1 2:-1 3:-1 4:-1 5:-1 6:-1 7:-0.586207 8:-0.826087 9:-1 10:-1 11:-1 12:-1 13:-0.993548 14:-0.52 15:-0.805825 16:-1 17:-0.96648 18:-0.987879 19:-0.985075 20:-0.957895 21:-0.965665 22:-0.988701 23:-0.957746 24:-0.961165 25:-0.979167 26:-0.991803 27:-1 28:-0.931034 29:-0.932773 30:-0.985612 31:-0.971154 32:-0.971963 33:-1 34:-1 35:-1 36:-1 37:-0.963883 38:-0.682927 39:-0.913514 40:-1 41:-1 42:-1 43:-1 44:-1 45:-0.661017 46:-0.948387 47:-0.950617 48:-1 49:-1 50:-1 51:-1 52:-1 53:-0.9447 54:-0.81864 55:-0.90604 56:-1 57:-1 58:-0.989899 59:-0.980676 60:-0.99115 61:-0.98895 62:-0.730233 63:-0.798561 64:-0.971429 65:-0.993377 66:-1 67:-1 68:-0.990338 69:-0.966851 70:-0.898734 71:-0.955056 72:-0.9375 73:-0.988827 74:-1 75:-1 76:-0.977273 77:-0.987152 78:-0.919395 79:-0.929204 80:-0.919355 81:-0.987578 82:-1 83:-1 84:-0.978022 85:-0.986726 86:-0.761194 87:-0.933884 88:-0.953271 89:-0.989744 90:-1 91:-1 92:-0.989333 93:-0.987903 94:-0.812865 95:-0.961538 96:-0.970326 97:-0.991968 98:-1 99:-1 100:-0.987879 101:-0.965116 102:-0.887324 103:-0.957447 104:-0.918033 105:-0.989744 106:-1 107:-1 108:-0.972789 109:-0.985816 110:-0.820225 111:-0.906977 112:-0.927007 113:-0.989744 114:-1 115:-1 116:-0.985185 117:-0.961783 118:-0.847619 119:-0.931034 120:-0.940476 121:-0.989744 122:-1 123:-1 124:-0.978723 125:-0.959459 126:-0.808383 127:-0.959391 128:-0.913043 129:-0.989744 130:-1 131:-1 132:-0.986577 133:-0.967391 134:-0.864979 135:-0.960784 136:-0.936306 137:-0.989744 138:-1 139:-1 140:-0.983122 141:-0.971831 142:-0.783784 143:-0.951515 144:-0.936306 145:-0.989744 146:-1 147:-1 148:-0.979487 149:-0.977273 150:-0.797468 151:-0.955556 152:-0.928571 
1.6642920068453608 1:-0.977654 2:-0.807487 3:-0.670732 4:-0.988764 5:-1 6:-1 7:-1 8:-0.982609 9:-0.891892 10:-0.935829 11:-0.928994 12:-0.944056 13:-0.870968 14:-0.84 15:-0.776699 16:-0.5 17:-0.988827 18:-0.69697 19:-0.701493 20:-0.989474 21:-1 22:-1 23:-0.985915 24:-1 25:-0.864583 26:-0.95082 27:-0.918129 28:-0.810345 29:-0.806723 30:-0.932854 31:-0.826923 32:-0.64486 33:-0.974684 34:-0.895197 35:-0.787879 36:-0.991667 37:-0.995485 38:-1 39:-1 40:-1 41:-0.988889 42:-0.828283 43:-0.721212 44:-0.972028 45:-1 46:-1 47:-1 48:-0.983871 49:-0.955307 50:-0.948718 51:-0.980488 52:-0.97619 53:-0.990783 54:-1 55:-1 56:-0.967213 57:-0.976744 58:-0.878788 59:-0.690821 60:-0.99115 61:-1 62:-1 63:-0.985612 64:-0.971429 65:-0.986755 66:-0.86747 67:-0.7 68:-0.990338 69:-1 70:-1 71:-1 72:-1 73:-1 74:-0.869048 75:-0.503546 76:-0.988636 77:-1 78:-1 79:-1 80:-1 81:-1 82:-0.747126 83:-0.586777 84:-0.989011 85:-1 86:-1 87:-1 88:-1 89:-1 90:-0.950413 91:-0.557692 92:-0.904 93:-1 94:-1 95:-1 96:-1 97:-0.975904 98:-0.935484 99:-0.940741 100:-0.969697 101:-0.976744 102:-0.992958 103:-0.989362 104:-0.983607 105:-0.979487 106:-0.670213 107:-0.833333 108:-0.972789 109:-1 110:-1 111:-1 112:-0.985401 113:-0.969231 114:-0.810945 115:-0.81982 116:-0.977778 117:-1 118:-1 119:-1 120:-1 121:-1 122:-0.931915 123:-0.607143 124:-0.925532 125:-1 126:-1 127:-1 128:-0.982609 129:-0.989744 130:-0.492308 131:-0.810127 132:-0.986577 133:-1 134:-1 135:-1 136:-1 137:-0.85641 138:-0.707692 139:-0.974684 140:-0.991561 141:-1 142:-1 143:-1 144:-0.961783 145:-0.958974 146:-0.821656 147:-0.810219 148:-0.989744 149:-1 150:-1 151:-1 152:-0.985714 
3.8542122955269096 1:-0.273743 2:-0.636364 3:-0.987805 4:-0.966292 5:-1 6:-1 7:-0.988506 8:-0.947826 9:-0.84556 10:-0.593583 11:-0.91716 12:-0.979021 13:-1 14:-1 15:-0.990291 16:-0.972973 17:-0.743017 18:-0.454545 19:-0.850746 20:-0.947368 21:-1 22:-1 23:-1 24:-1 25:-0.75 26:-0.590164 27:-0.859649 28:-0.913793 29:-1 30:-1 31:-1 32:-1 33:-0.658228 34:-0.659389 35:-0.666667 36:-0.958333 37:-1 38:-1 39:-1 40:-0.989796 41:-0.733333 42:-0.565657 43:-0.806061 44:-0.93007 45:-1 46:-1 47:-1 48:-1 49:-0.597765 50:-0.974359 51:-1 52:-1 53:-1 54:-1 55:-0.986577 56:-0.57377 57:-0.755814 58:-0.161616 59:-0.971014 60:-0.973451 61:-1 62:-1 63:-1 64:-0.942857 65:-0.84106 66:-0.216867 67:-0.9625 68:-0.985507 69:-1 70:-1 71:-0.988764 72:-0.9625 73:-0.899441 74:0.0238095 75:-0.801418 76:-0.954545 77:-1 78:-1 79:-1 80:-1 81:-0.900621 82:-0.747126 83:-0.586777 84:-0.945055 85:-1 86:-1 87:-0.966942 88:-0.981308 89:-0.928205 90:0.0247934 91:-0.557692 92:-0.978667 93:-0.991935 94:-1 95:-1 96:-1 97:-0.959839 98:-0.258065 99:-0.896296 100:-0.975758 101:-0.976744 102:-0.992958 103:-1 104:-1 105:-0.805128 106:-0.851064 107:-0.878788 108:-0.945578 109:-0.995272 110:-1 111:-0.976744 112:-0.883212 113:-1 114:-1 115:-1 116:-0.933333 117:-0.605096 118:-0.87619 119:-0.87931 120:-0.988095 121:-0.517949 122:-0.931915 123:-0.988095 124:-0.978723 125:-1 126:-1 127:-0.989848 128:-0.808696 129:-0.928205 130:-0.169231 131:-0.443038 132:-0.95302 133:-0.98913 134:-1 135:-1 136:-1 137:-1 138:-1 139:-1 140:-1 141:-0.840376 142:-0.148649 143:-0.781818 144:-0.974522 145:-0.938462 146:-0.535032 147:-0.605839 148:-0.948718 149:-1 150:-1 151:-1 152:-1 
0.029975682386505595 1:-1 2:-1 3:-1 4:-1 5:-1 6:-0.918699 7:-0.045977 8:-0.956522 9:-1 10:-1 11:-1 12:-1 13:-1 14:-0.96 15:-0.23301 16:-0.72973 17:-0.944134 18:-1 19:-1 20:-1 21:-1 22:-1 23:-0.985915 24:-0.330097 25:-0.989583 26:-1 27:-1 28:-1 29:-1 30:-0.995204 31:-0.769231 32:-0.392523 33:-0.835443 34:-1 35:-1 36:-1 37:-1 38:-1 39:-0.989189 40:-0.336735 41:-0.988889 42:-1 43:-1 44:-1 45:-1 46:-0.995699 47:-0.0864198 48:-0.145161 49:-1 50:-1 51:-1 52:-1 53:-1 54:-0.934509 55:-0.0201342 56:-0.95082 57:-1 58:-1 59:-1 60:-1 61:-1 62:-0.944186 63:-0.510791 64:0.8 65:-0.993377 66:-1 67:-1 68:-1 69:-0.98895 70:-0.721519 71:-0.123596 72:-0.95 73:-0.977654 74:-0.988095 75:-0.985816 76:-0.920455 77:-0.910064 78:-0.869018 79:-0.132743 80:-0.354839 81:-0.987578 82:-0.988506 83:-0.983471 84:-0.967033 85:-0.849558 86:-0.477612 87:-0.173554 88:-0.71028 89:-0.989744 90:-1 91:-1 92:-0.994667 93:-0.907258 94:-0.438596 95:-0.451923 96:-0.857567 97:-0.991968 98:-1 99:-1 100:-0.993939 101:-0.651163 102:-0.676056 103:-0.56383 104:-0.672131 105:-0.989744 106:-1 107:-1 108:-1 109:-0.976359 110:-0.707865 111:0.72093 112:-0.722628 113:-1 114:-0.99005 115:-1 116:-1 117:-0.987261 118:-0.847619 119:0.603448 120:-0.892857 121:-0.989744 122:-1 123:-1 124:-1 125:-0.959459 126:-0.664671 127:-0.390863 128:-0.634783 129:-1 130:-1 131:-1 132:-0.993289 133:-0.978261 134:-0.780591 135:-0.333333 136:-0.961783 137:-1 138:-1 139:-1 140:-0.991561 141:-1 142:-0.918919 143:-0.0909091 144:-0.949045 145:-1 146:-1 147:-1 148:-1 149:-1 150:-0.835443 151:-0.2 152:-0.957143 
3.1539612067583476 1:-0.988827 2:-0.989305 3:-0.939024 4:-0.629213 5:-0.700375 6:-1 7:-1 8:-1 9:-0.899614 10:0.176471 11:0.0650888 12:-0.993007 13:-1 14:-1 15:-0.990291 16:-0.986486 17:-0.642458 18:0.115152 19:0.656716 20:-0.705263 21:-0.982833 22:-1 23:-1 24:-0.990291 25:-0.927083 26:0.114754 27:-0.169591 28:-0.603448 29:-1 30:-0.995204 31:-0.990385 32:-1 33:-0.35443 34:-0.0393013 35:-0.19697 36:-0.25 37:-0.990971 38:-1 39:-0.989189 40:-1 41:-0.433333 42:-0.606061 43:-0.575758 44:-0.622378 45:-0.581921 46:-0.939785 47:-0.481481 48:-0.645161 49:-0.47486 50:-0.666667 51:-0.707317 52:-0.642857 53:-0.64977 54:-0.914358 55:-0.677852 56:-0.508197 57:0.383721 58:-0.343434 59:-0.806763 60:-0.734513 61:-0.823204 62:-0.972093 63:-0.884892 64:0.542857 65:-0.569536 66:-0.819277 67:-0.7 68:-0.888889 69:-0.414365 70:-0.879747 71:-0.820225 72:-0.5375 73:-0.530726 74:-0.809524 75:-0.631206 76:-0.840909 77:-0.713062 78:-0.90932 79:-0.663717 80:-0.548387 81:-0.478261 82:-0.816092 83:-0.570248 84:-0.846154 85:-0.70354 86:-0.731343 87:-0.68595 88:-0.738318 89:-0.569231 90:-0.735537 91:-0.5 92:-0.925333 93:-0.729839 94:-0.789474 95:-0.817308 96:-0.833828 97:-0.662651 98:-0.827957 99:-0.614815 100:-0.915152 101:-0.22093 102:-0.873239 103:-0.797872 104:-0.540984 105:-0.569231 106:-0.829787 107:-0.606061 108:-0.809524 109:-0.683215 110:-0.797753 111:-0.55814 112:-0.591241 113:-0.569231 114:-0.840796 115:-0.531532 116:-0.896296 117:-0.146497 118:-0.828571 119:-0.672414 120:-0.666667 121:-0.569231 122:-0.86383 123:-0.690476 124:-0.851064 125:-0.0945946 126:-0.784431 127:-0.807107 128:-0.513043 129:-0.569231 130:-0.753846 131:-0.670886 132:-0.90604 133:-0.271739 134:-0.848101 135:-0.813725 136:-0.643312 137:-0.569231 138:-0.753846 139:-0.670886 140:-0.881857 141:-0.370892 142:-0.756757 143:-0.769697 144:-0.643312 145:-0.569231 146:-0.898089 147:-0.620438 148:-0.85641 149:-0.492424 150:-0.772152 151:-0.788889 152:-0.6 
2.5187412795044986 1:-0.932961 2:0.336898 3:-0.573171 4:-0.910112 5:-1 6:-1 7:-1 8:-1 9:-0.84556 10:0.465241 11:-0.775148 12:-0.958042 13:-1 14:-1 15:-0.990291 16:-1 17:-0.776536 18:0.466667 19:-0.925373 20:-0.989474 21:-0.991416 22:-1 23:-1 24:-0.941748 25:-0.40625 26:-0.0737705 27:-0.988304 28:-1 29:-1 30:-1 31:-1 32:-0.990654 33:-0.658228 34:-0.0829694 35:-0.954545 36:-1 37:-1 38:-1 39:-1 40:-0.979592 41:-0.744444 42:0.151515 43:-0.987879 44:-1 45:-1 46:-1 47:-1 48:-0.983871 49:1 50:-1 51:-1 52:-1 53:-1 54:-1 55:-1 56:-0.95082 57:-0.813953 58:0.191919 59:-0.971014 60:-1 61:-1 62:-1 63:-1 64:-0.942857 65:-0.754967 66:0.301205 67:-0.9625 68:-1 69:-1 70:-1 71:-1 72:-1 73:-0.72067 74:0.333333 75:-0.914894 76:-1 77:-1 78:-1 79:-1 80:-1 81:-0.242236 82:0.482759 83:-0.933884 84:-1 85:-1 86:-1 87:-1 88:-0.990654 89:-0.753846 90:0.785124 91:-0.846154 92:-1 93:-1 94:-1 95:-1 96:-0.994065 97:-0.341365 98:-0.494624 99:-0.985185 100:-1 101:-1 102:-1 103:-1 104:-0.967213 105:-0.876923 106:0.159574 107:-0.712121 108:-1 109:-1 110:-1 111:-1 112:-1 113:0.0461538 114:-0.21393 115:-0.963964 116:-0.985185 117:-0.898089 118:-1 119:-1 120:-1 121:-0.948718 122:-0.123404 123:-0.809524 124:-0.989362 125:-1 126:-1 127:-1 128:-1 129:0.0153846 130:0.276923 131:-0.974684 132:-0.979866 133:-0.923913 134:-1 135:-1 136:-1 137:-0.979487 138:-1 139:-1 140:-1 141:-1 142:-0.986486 143:-0.793939 144:-0.375796 145:-0.917949 146:-0.426752 147:-0.635036 148:-0.989744 149:-1 150:-1 151:-1 152:-1 
0.77388092095404881 1:-0.977654 2:-0.989305 3:-0.97561 4:-0.932584 5:-0.947566 6:-0.98374 7:-0.965517 8:-0.982609 9:-0.984556 10:-0.989305 11:-0.976331 12:-0.937063 13:-0.954839 14:-0.973333 15:-0.990291 16:-0.986486 17:-0.575419 18:-0.733333 19:-0.925373 20:-0.978947 21:-1 22:-1 23:-1 24:-1 25:-0.989583 26:-0.991803 27:-0.988304 28:-0.913793 29:-0.831933 30:-0.985612 31:-0.990385 32:-0.990654 33:-0.974684 34:-0.991266 35:-0.984848 36:-0.925 37:-0.918736 38:-0.97561 39:-0.978378 40:-0.989796 41:-0.944444 42:-0.868687 43:-0.515152 44:-0.244755 45:-0.977401 46:-1 47:-1 48:-1 49:-0.921788 50:-0.576923 51:-0.814634 52:-0.964286 53:-1 54:-1 55:-0.986577 56:-0.983607 57:-1 58:-1 59:-0.990338 60:-0.920354 61:-0.745856 62:-0.972093 63:-0.971223 64:-0.971429 65:-0.642384 66:-0.156627 67:-0.95 68:-1 69:-1 70:-1 71:-1 72:-1 73:-1 74:-1 75:-1 76:-0.681818 77:-0.567452 78:-1 79:-1 80:-1 81:-0.329193 82:-0.804598 83:-0.933884 84:-1 85:-1 86:-1 87:-1 88:-0.990654 89:-1 90:-1 91:-1 92:-0.994667 93:-0.778226 94:-0.754386 95:-0.980769 96:-1 97:-0.975904 98:0.806452 99:-0.97037 100:-1 101:-1 102:-1 103:-1 104:-1 105:-0.179487 106:-0.840426 107:-0.984848 108:-1 109:-1 110:-1 111:-1 112:-0.985401 113:-1 114:-1 115:-1 116:-0.911111 117:0.656051 118:-0.942857 119:-0.982759 120:-1 121:0.0461538 122:-0.940426 123:-1 124:-1 125:-1 126:-1 127:-1 128:-1 129:-0.979487 130:-0.692308 131:-0.708861 132:-0.912752 133:-1 134:-1 135:-1 136:-1 137:-1 138:-1 139:-0.987342 140:-0.772152 141:-0.765258 142:-0.986486 143:-0.987879 144:-0.987261 145:-0.784615 146:-0.834395 147:-0.839416 148:-0.917949 149:-1 150:-1 151:-1 152:-1 
2.5432728554197315 1:-0.620112 2:-0.529412 3:-0.963415 4:-1 5:-1 6:-1 7:-1 8:-0.991304 9:-0.891892 10:-0.668449 11:-0.846154 12:-0.958042 13:-1 14:-1 15:-1 16:-1 17:-0.944134 18:-0.890909 19:-0.731343 20:-0.642105 21:-0.957082 22:-1 23:-1 24:-1 25:-0.90625 26:-0.327869 27:-0.649123 28:-1 29:-1 30:-1 31:-1 32:-1 33:-0.56962 34:-0.956332 35:-0.954545 36:-0.933333 37:-0.977427 38:-0.99187 39:-0.989189 40:-0.938776 41:-0.744444 42:-0.939394 43:-0.951515 44:-0.846154 45:-0.920904 46:-0.995699 47:-0.975309 48:-0.903226 49:-0.899441 50:-0.74359 51:-0.795122 52:-0.690476 53:-0.963134 54:-1 55:-1 56:-0.983607 57:-1 58:-1 59:-1 60:-1 61:-0.104972 62:-0.553488 63:-0.856115 64:-0.971429 65:-1 66:-1 67:-0.9875 68:-0.942029 69:0.0939227 70:-0.955696 71:-0.988764 72:-1 73:-0.96648 74:-0.964286 75:-0.971631 76:-0.943182 77:-0.755889 78:-0.707809 79:-0.362832 80:-0.806452 81:-0.900621 82:-0.885057 83:-0.652893 84:-0.769231 85:-0.924779 86:-0.940299 87:-0.983471 88:-0.990654 89:-0.958974 90:-0.68595 91:-0.153846 92:-0.952 93:-0.955645 94:-0.964912 95:-0.990385 96:-0.994065 97:-1 98:-1 99:-0.881481 100:-0.484848 101:-0.232558 102:-0.971831 103:-1 104:-1 105:-0.989744 106:-0.904255 107:-0.136364 108:-0.768707 109:-0.87234 110:-0.977528 111:-1 112:-0.985401 113:-0.989744 114:-1 115:-0.963964 116:-0.622222 117:-0.0191083 118:-0.952381 119:-0.982759 120:-0.988095 121:-0.979487 122:-0.991489 123:-0.964286 124:-0.382979 125:-0.135135 126:-0.916168 127:-0.979695 128:-0.965217 129:-0.979487 130:-1 131:-0.974684 132:-0.563758 133:-0.271739 134:-0.940928 135:-0.990196 136:-0.974522 137:-1 138:-0.969231 139:-0.822785 140:-0.409283 141:-0.605634 142:-0.972973 143:-0.987879 144:-1 145:-0.979487 146:-0.993631 147:-1 148:-0.938462 149:-0.659091 150:-0.291139 151:-0.488889 152:-0.7 
1.7460471240515314 1:0.575419 2:-0.989305 3:-1 4:-1 5:-1 6:-1 7:-1 8:-0.852174 9:-0.969112 10:-0.967914 11:-0.940828 12:-0.951049 13:-0.987097 14:-0.986667 15:-0.990291 16:-0.972973 17:-0.698324 18:-0.50303 19:-0.910448 20:-0.989474 21:-1 22:-1 23:-1 24:-1 25:-0.802083 26:-0.713115 27:-0.824561 28:-0.931034 29:-1 30:-1 31:-1 32:-0.990654 33:-0.810127 34:-1 35:-1 36:-0.933333 37:-0.769752 38:-0.325203 39:-0.697297 40:-0.714286 41:-0.366667 42:-0.626263 43:-0.890909 44:-0.958042 45:-1 46:-1 47:-1 48:-1 49:-1 50:-0.974359 51:-0.814634 52:-0.107143 53:-0.981567 54:-1 55:-1 56:-1 57:-1 58:-0.959596 59:-0.884058 60:-0.840708 61:-0.58011 62:-0.962791 63:-0.985612 64:-0.971429 65:-0.86755 66:-0.445783 67:-0.8 68:-0.971014 69:-1 70:-1 71:-1 72:-0.975 73:-0.865922 74:-0.5 75:-0.319149 76:-0.943182 77:-1 78:-1 79:-1 80:-1 81:-0.987578 82:-0.850575 83:-0.190083 84:-0.714286 85:-0.99115 86:-1 87:-0.983471 88:-0.981308 89:-0.969231 90:-0.917355 91:0.0192308 92:-0.904 93:-0.987903 94:-1 95:-1 96:-0.988131 97:-0.943775 98:-0.451613 99:0.22963 100:-0.975758 101:-1 102:-1 103:-1 104:-0.95082 105:-1 106:-1 107:-1 108:-0.945578 109:-0.820331 110:0.382022 111:-0.883721 112:-1 113:-0.928205 114:-0.61194 115:0.477477 116:-0.962963 117:-1 118:-1 119:-1 120:-1 121:-0.989744 122:-0.948936 123:-0.047619 124:-0.776596 125:-0.986486 126:-1 127:-1 128:-1 129:-1 130:-0.953846 131:-0.493671 132:-0.604027 133:-0.98913 134:-1 135:-1 136:-1 137:-1 138:-1 139:-0.911392 140:-0.0632911 141:-0.840376 142:-1 143:-1 144:-1 145:-1 146:-0.993631 147:-0.416058 148:-0.0666667 149:-0.916667 150:-0.987342 151:-0.988889 152:-1 
3.1764531409595054 1:-0.50838 2:-0.775401 3:-0.963415 4:-0.977528 5:-1 6:-1 7:-1 8:-0.991304 9:-0.969112 10:-1 11:-1 12:-1 13:-0.96129 14:-0.68 15:-0.135922 16:-0.527027 17:-0.955307 18:-0.951515 19:-0.985075 20:-0.957895 21:-0.974249 22:-0.977401 23:-0.943662 24:-0.640777 25:-0.885417 26:-0.967213 27:-0.976608 28:-0.810345 29:-0.966387 30:-0.995204 31:-1 32:-0.925234 33:-0.493671 34:-0.834061 35:-0.833333 36:-0.975 37:-1 38:-1 39:-1 40:-0.989796 41:-0.911111 42:-0.79798 43:-0.757576 44:-0.748252 45:-1 46:-1 47:-1 48:-1 49:-0.910615 50:-0.871795 51:-0.804878 52:-0.666667 53:-0.990783 54:-1 55:-1 56:-1 57:-0.976744 58:-1 59:-1 60:-1 61:-0.977901 62:-0.934884 63:-0.395683 64:-0.4 65:-0.986755 66:-1 67:-1 68:-1 69:-0.889503 70:-0.867089 71:-0.640449 72:-0.9 73:-1 74:-1 75:-1 76:-1 77:-1 78:-0.828715 79:0.433628 80:-0.967742 81:-1 82:-1 83:-1 84:-1 85:-0.99115 86:-0.313433 87:0.0743802 88:-0.962617 89:-0.979487 90:-0.983471 91:-1 92:-1 93:-0.995968 94:-0.918129 95:0.0576923 96:-0.804154 97:-0.991968 98:-1 99:-1 100:-1 101:-0.94186 102:-0.457746 103:-0.12766 104:-0.95082 105:-0.979487 106:-0.989362 107:-0.984848 108:-1 109:-0.995272 110:-0.651685 111:-0.348837 112:-0.635036 113:-0.897436 114:-0.9801 115:-1 116:-0.992593 117:-1 118:-0.971429 119:-0.827586 120:0.0952381 121:-0.907692 122:-0.974468 123:-0.988095 124:-1 125:-1 126:-0.976048 127:-0.908629 128:0.252174 129:-1 130:-1 131:-1 132:-1 133:-0.206522 134:-0.443038 135:-0.95098 136:-1 137:-0.938462 138:-1 139:-1 140:-1 141:-0.99061 142:-0.972973 143:-0.878788 144:0.273885 145:-1 146:-1 147:-1 148:-1 149:-0.772727 150:-0.151899 151:-0.911111 152:-0.985714 
2.0492200011525949 1:-1 2:-1 3:-0.987805 4:-0.707865 5:-0.355805 6:-0.333333 7:-1 8:-1 9:-0.992278 10:-0.989305 11:-0.952663 12:-0.72028 13:-0.948387 14:-0.986667 15:-1 16:-1 17:-0.988827 18:-0.515152 19:-0.283582 20:-0.884211 21:-1 22:-1 23:-1 24:-1 25:-1 26:-0.97541 27:-0.730994 28:0.155172 29:-0.983193 30:-1 31:-1 32:-1 33:-0.911392 34:-0.790393 35:-0.409091 36:-0.883333 37:-1 38:-1 39:-1 40:-1 41:-0.966667 42:-0.808081 43:-0.236364 44:-0.706294 45:-1 46:-1 47:-1 48:-1 49:-1 50:-0.961538 51:-0.609756 52:-0.261905 53:-0.990783 54:-1 55:-0.986577 56:-1 57:-1 58:-0.979798 59:-0.584541 60:-0.345133 61:-0.977901 62:-1 63:-1 64:-1 65:-1 66:-1 67:-0.95 68:-0.42029 69:-0.723757 70:-0.974684 71:-1 72:-1 73:-1 74:-1 75:-0.971631 76:-0.636364 77:-0.751606 78:-0.939547 79:-0.964602 80:-1 81:-1 82:-0.977011 83:1 84:-0.769231 85:-1 86:-1 87:-1 88:-1 89:-1 90:-1 91:1 92:-0.797333 93:-1 94:-1 95:-1 96:-0.994065 97:-1 98:-0.612903 99:0.57037 100:-0.981818 101:-1 102:-1 103:-1 104:-0.983607 105:-1 106:-0.989362 107:0.378788 108:-0.346939 109:-1 110:-1 111:-1 112:-1 113:-0.969231 114:-0.970149 115:0.837838 116:-0.666667 117:-1 118:-0.990476 119:-0.982759 120:-0.988095 121:-1 122:-1 123:-0.892857 124:0.446809 125:-0.77027 126:-0.964072 127:-0.989848 128:-1 129:-1 130:-0.984615 131:-0.974684 132:-0.0134228 133:-0.782609 134:-0.966245 135:-1 136:-1 137:-1 138:-0.984615 139:-0.759494 140:0.0886076 141:-0.962441 142:-0.986486 143:-1 144:-1 145:-1 146:-0.980892 147:-0.459854 148:-0.353846 149:-0.992424 150:-1 151:-1 152:-1 
5.5132925097374619 1:-0.027933 2:-1 3:-1 4:-1 5:-1 6:-1 7:-1 8:-0.843478 9:-0.992278 10:-1 11:-1 12:-1 13:-0.967742 14:-0.96 15:-0.84466 16:-0.662162 17:-0.944134 18:-0.975758 19:-0.716418 20:-0.715789 21:-1 22:-1 23:-1 24:-0.990291 25:-1 26:-1 27:-1 28:-1 29:-0.428571 30:-0.827338 31:-0.865385 32:-0.990654 33:-1 34:-1 35:-1 36:-1 37:-0.688488 38:-0.658537 39:-0.924324 40:-0.989796 41:-1 42:-1 43:-1 44:-1 45:-0.887006 46:-0.784946 47:-0.530864 48:-0.758065 49:-1 50:-1 51:-1 52:-1 53:-1 54:-0.959698 55:0.033557 56:-0.655738 57:-1 58:-1 59:-1 60:-1 61:-0.381215 62:-0.544186 63:-0.928058 64:-0.942857 65:-1 66:-0.987952 67:-0.75 68:-0.922705 69:-0.900552 70:-0.772152 71:-0.550562 72:-0.9875 73:-1 74:-1 75:-1 76:-1 77:-0.691649 78:-0.778338 79:-0.929204 80:-1 81:-1 82:-1 83:-1 84:-1 85:-0.738938 86:-0.19403 87:-0.900826 88:-0.990654 89:-0.979487 90:-0.950413 91:-0.942308 92:-0.690667 93:-0.915323 94:-1 95:-1 96:-1 97:-0.975904 98:-0.978495 99:-0.925926 100:-0.721212 101:-0.767442 102:-0.971831 103:-0.989362 104:-1 105:-0.969231 106:-1 107:-1 108:-0.891156 109:-0.843972 110:-0.752809 111:-0.837209 112:-0.956204 113:-1 114:-1 115:-1 116:-1 117:-0.910828 118:-0.514286 119:-0.586207 120:-0.869048 121:-1 122:-1 123:-1 124:-0.914894 125:-0.486486 126:-0.784431 127:-0.837563 128:-0.704348 129:-1 130:-1 131:-1 132:-0.986577 133:-0.619565 134:-0.0295359 135:-0.901961 136:-1 137:-1 138:-0.953846 139:-0.810127 140:-0.932489 141:-0.924883 142:-0.567568 143:-0.466667 144:-0.987261 145:-1 146:-1 147:-1 148:-1 149:-0.984848 150:0.379747 151:0.0444444 152:-1 
1.747081843092579 1:-0.977654 2:-0.957219 3:-0.646341 4:-0.775281 5:-0.985019 6:-0.96748 7:-1 8:-1 9:-0.969112 10:-0.989305 11:-0.940828 12:-0.902098 13:-0.96129 14:-0.946667 15:-0.951456 16:-0.945946 17:-0.988827 18:-1 19:-1 20:-1 21:-1 22:-0.932203 23:-0.0985915 24:-0.815534 25:-0.989583 26:-1 27:-0.988304 28:-0.965517 29:-1 30:-0.913669 31:-0.663462 32:-0.831776 33:-1 34:-1 35:-1 36:-0.966667 37:-0.85553 38:-0.333333 39:-0.805405 40:-0.969388 41:-0.822222 42:-0.787879 43:-0.963636 44:-1 45:-0.954802 46:-0.956989 47:0.209877 48:-0.887097 49:-1 50:-1 51:-1 52:-1 53:-1 54:-0.763224 55:1 56:-0.967213 57:-1 58:-1 59:-1 60:-1 61:-0.955801 62:-0.181395 63:0.23741 64:-0.971429 65:-0.986755 66:-1 67:-1 68:-0.995169 69:-0.900552 70:-0.506329 71:0.0898876 72:-0.9125 73:-0.988827 74:-1 75:-1 76:-1 77:-0.991435 78:-0.365239 79:-0.079646 80:-0.935484 81:-0.987578 82:-1 83:-1 84:-1 85:-0.99115 86:0.716418 87:0.107438 88:-0.953271 89:-1 90:-1 91:-0.961538 92:-1 93:-1 94:-0.859649 95:0.509615 96:-0.851632 97:-1 98:-1 99:-1 100:-1 101:-1 102:-0.316901 103:-0.180851 104:-1 105:-0.989744 106:-1 107:-1 108:-1 109:-0.952719 110:0.314607 111:0.604651 112:-0.941606 113:-1 114:-1 115:-1 116:-1 117:-1 118:-0.133333 119:0.362069 120:-0.928571 121:-1 122:-1 123:-1 124:-1 125:-1 126:0.0179641 127:-0.0253807 128:-0.930435 129:-0.651282 130:-1 131:-1 132:-1 133:-0.98913 134:-0.974684 135:-0.401961 136:-0.235669 137:-0.917949 138:-0.984615 139:-1 140:-1 141:-1 142:-0.932432 143:0.10303 144:-0.401274 145:-0.671795 146:-0.853503 147:-1 148:-1 149:-0.992424 150:-0.974684 151:-0.477778 152:-0.871429 
1.529175193326072 1:-1 2:-1 3:-0.963415 4:0.0337079 5:-0.805243 6:-1 7:-1 8:-1 9:-1 10:-1 11:-1 12:-0.951049 13:-0.0516129 14:-0.88 15:-1 16:-1 17:-1 18:-0.987879 19:-0.985075 20:-0.263158 21:-0.648069 22:-1 23:-1 24:-1 25:-1 26:-1 27:-0.976608 28:0.0172414 29:-0.588235 30:-0.995204 31:-0.990385 32:-1 33:-0.860759 34:-0.240175 35:-0.69697 36:-0.991667 37:-1 38:-1 39:-1 40:-0.979592 41:-0.811111 42:-0.818182 43:-0.466667 44:-0.986014 45:-1 46:-1 47:-0.925926 48:-0.806452 49:-0.932961 50:-0.423077 51:-0.229268 52:-0.928571 53:-1 54:-1 55:-1 56:-0.967213 57:-0.988372 58:-0.949495 59:-0.719807 60:-0.557522 61:-0.977901 62:-0.962791 63:-0.942446 64:-0.942857 65:-0.993377 66:-0.915663 67:-0.5375 68:-0.763285 69:-0.98895 70:-0.993671 71:-0.988764 72:-0.95 73:-1 74:-0.97619 75:-0.035461 76:-0.113636 77:-0.995717 78:-1 79:-1 80:-1 81:-1 82:-0.977011 83:0.123967 84:-0.142857 85:-0.995575 86:-1 87:-1 88:-1 89:-1 90:-0.966942 91:0.307692 92:-0.584 93:-0.995968 94:-1 95:-1 96:-1 97:-1 98:-0.978495 99:0.00740741 100:-0.527273 101:-0.988372 102:-1 103:-1 104:-1 105:-1 106:-0.978723 107:0.030303 108:0.0612245 109:-0.995272 110:-1 111:-1 112:-1 113:-1 114:-0.9801 115:0.225225 116:-0.422222 117:-0.987261 118:-1 119:-1 120:-1 121:-1 122:-0.982979 123:-0.190476 124:-0.170213 125:-0.986486 126:-1 127:-1 128:-1 129:-1 130:-0.969231 131:-0.139241 132:-0.47651 133:-0.98913 134:-1 135:-1 136:-1 137:-1 138:-0.969231 139:-0.139241 140:-0.341772 141:-0.99061 142:-1 143:-1 144:-1 145:-1 146:-0.987261 147:-0.00729927 148:-0.2 149:-0.992424 150:-1 151:-1 152:-1 
0.64487963864123743 1:0.363128 2:-0.925134 3:-0.97561 4:-1 5:-1 6:-1 7:-1 8:-0.965217 9:0.104247 10:-0.807487 11:-0.964497 12:-0.993007 13:-1 14:-1 15:-1 16:-0.972973 17:0.865922 18:-0.975758 19:-1 20:-0.989474 21:-1 22:-1 23:-1 24:-0.941748 25:0.229167 26:-0.704918 27:-0.964912 28:-0.982759 29:-1 30:-1 31:-1 32:-1 33:-0.696203 34:-0.135371 35:-0.590909 36:-0.866667 37:-0.981941 38:-0.99187 39:-0.989189 40:-0.989796 41:0.822222 42:-0.878788 43:-0.951515 44:-0.986014 45:-1 46:-1 47:-1 48:-0.983871 49:-0.106145 50:-1 51:-1 52:-1 53:-1 54:-1 55:-1 56:0.0655738 57:0.94186 58:-0.959596 59:-0.980676 60:-0.99115 61:-1 62:-1 63:-1 64:-0.714286 65:-0.900662 66:0.156627 67:-0.8125 68:-0.985507 69:-1 70:-1 71:-1 72:-1 73:-0.150838 74:-0.130952 75:-0.858156 76:-0.965909 77:-0.995717 78:-1 79:-1 80:-1 81:-0.192547 82:0.0114943 83:-0.818182 84:-0.967033 85:-0.995575 86:-1 87:-1 88:-1 89:-0.374359 90:0.603306 91:-0.846154 92:-0.989333 93:-0.995968 94:-1 95:-1 96:-1 97:-0.389558 98:-0.0752688 99:-0.896296 100:-0.987879 101:-0.988372 102:-1 103:-1 104:-1 105:-0.210256 106:-0.191489 107:-0.833333 108:-0.972789 109:-0.990544 110:-1 111:-1 112:-1 113:-0.323077 114:-0.0348259 115:-0.927928 116:-0.992593 117:-1 118:-1 119:-1 120:-1 121:-0.271795 122:-0.923404 123:-0.952381 124:-1 125:-1 126:-1 127:-1 128:-0.913043 129:0.897436 130:-0.861538 131:-0.987342 132:-1 133:-1 134:-1 135:-1 136:-0.987261 137:-1 138:-1 139:-1 140:-0.983122 141:-0.962441 142:-0.635135 143:-0.806061 144:-0.949045 145:-0.487179 146:-0.464968 147:-0.941606 148:-1 149:-1 150:-1 151:-1 152:-1 
3.3542045166710728 1:-0.955307 2:-0.97861 3:-0.97561 4:-0.966292 5:-0.977528 6:-0.96748 7:-0.977011 8:-0.982609 9:-0.976834 10:-0.989305 11:-0.976331 12:-0.958042 13:-0.967742 14:-0.986667 15:-0.990291 16:-0.972973 17:-1 18:-1 19:-1 20:-0.978947 21:-0.845494 22:-0.548023 23:-0.971831 24:-1 25:-1 26:-1 27:-1 28:-1 29:-0.865546 30:-0.227818 31:-0.942308 32:-1 33:-1 34:-1 35:-1 36:-1 37:-1 38:-0.98374 39:0.340541 40:-0.928571 41:-0.977778 42:-1 43:-1 44:-1 45:-0.717514 46:-0.389247 47:-0.728395 48:-0.967742 49:-0.988827 50:-1 51:-1 52:-0.988095 53:-0.428571 54:-0.687657 55:-0.986577 56:-0.983607 57:-1 58:-1 59:-1 60:-1 61:-0.425414 62:-0.404651 63:-0.985612 64:-0.971429 65:-1 66:-1 67:-1 68:-1 69:-0.977901 70:-0.778481 71:-0.213483 72:-0.7875 73:-0.977654 74:-1 75:-1 76:-1 77:-0.991435 78:-0.763224 79:-0.00884956 80:-0.983871 81:-1 82:-1 83:-1 84:-1 85:-0.920354 86:0.626866 87:-0.900826 88:-1 89:-1 90:-0.983471 91:-1 92:-0.989333 93:-0.943548 94:-0.766082 95:-0.673077 96:-0.982196 97:-0.991968 98:-1 99:-1 100:-0.993939 101:-0.802326 102:-0.619718 103:-0.882979 104:-0.934426 105:-1 106:-1 107:-1 108:-0.945578 109:-0.541371 110:-0.752809 111:-0.953488 112:-0.985401 113:-0.989744 114:-1 115:-1 116:-1 117:-0.503185 118:0.32381 119:-0.862069 120:-0.964286 121:-1 122:-1 123:-1 124:-0.989362 125:0.445946 126:-0.688623 127:-0.989848 128:-1 129:-1 130:-1 131:-1 132:-0.852349 133:-0.217391 134:-0.873418 135:-1 136:-1 137:-1 138:-1 139:-1 140:-0.991561 141:-0.173709 142:-0.608108 143:-0.987879 144:-1 145:-0.979487 146:-1 147:-1 148:-0.989744 149:-0.962121 150:-0.860759 151:-0.588889 152:-0.8 
